{"learner":{"attributes":{"best_iteration":"99","best_ntree_limit":"100","scikit_learn":"{\"use_label_encoder\": null, \"n_estimators\": 100, \"objective\": \"binary:logistic\", \"max_depth\": null, \"max_leaves\": null, \"max_bin\": null, \"grow_policy\": null, \"learning_rate\": null, \"verbosity\": null, \"booster\": null, \"tree_method\": null, \"gamma\": null, \"min_child_weight\": null, \"max_delta_step\": null, \"subsample\": null, \"sampling_method\": null, \"colsample_bytree\": null, \"colsample_bylevel\": null, \"colsample_bynode\": null, \"reg_alpha\": null, \"reg_lambda\": null, \"scale_pos_weight\": null, \"base_score\": null, \"missing\": NaN, \"num_parallel_tree\": null, \"random_state\": 42, \"n_jobs\": null, \"monotone_constraints\": null, \"interaction_constraints\": null, \"importance_type\": null, \"gpu_id\": null, \"validate_parameters\": null, \"predictor\": null, \"enable_categorical\": false, \"feature_types\": null, \"max_cat_to_onehot\": null, \"max_cat_threshold\": null, \"eval_metric\": null, \"early_stopping_rounds\": null, \"callbacks\": null, \"classes_\": [0.0, 1.0], \"n_classes_\": 2, \"_estimator_type\": \"classifier\"}"},"feature_names":["Price","Qty","Owned","ΔOwn","Value","ClosePrice"],"feature_types":["float","float","float","float","float","float"],"gradient_booster":{"model":{"gbtree_model_param":{"num_parallel_tree":"1","num_trees":"100","size_leaf_vector":"0"},"tree_info":[0,0,0,0,0,0,0,0,0,0,0,0,0,0,0,0,0,0,0,0,0,0,0,0,0,0,0,0,0,0,0,0,0,0,0,0,0,0,0,0,0,0,0,0,0,0,0,0,0,0,0,0,0,0,0,0,0,0,0,0,0,0,0,0,0,0,0,0,0,0,0,0,0,0,0,0,0,0,0,0,0,0,0,0,0,0,0,0,0,0,0,0,0,0,0,0,0,0,0,0],"trees":[{"base_weights":[-3.0100334E-1,-3.2520324E-2,-1.4385965E0,-3.4920636E-1,2.9032257E-1,-0E0,-1.5471698E0,-5.043478E-1,9.3333334E-1,1.4285715E0,-4.3037975E-1,-6.5384614E-1,6.666667E-1,1.2727273E0,-0E0,-0E0,1.5555556E0,-7.058824E-1,9.3333334E-1,-4.4705883E-1,-1.3043479E0,1.2727273E0,-5E-1,-1.018868E0,3.1578946E-1,-0E0,1.2727273E0,-6.3013697E-1,5E-1,-1.5294118E0,-4E-1,-1.2E0,-0E0,9.3333334E-1,-1E0],"categories":[],"categories_nodes":[],"categories_segments":[],"categories_sizes":[],"default_left":[1,1,1,1,1,0,0,1,1,1,1,1,1,0,0,0,0,1,1,1,1,0,0,1,1,0,0,0,0,0,0,0,0,0,0],"id":0,"left_children":[1,3,5,7,9,-1,-1,11,13,15,17,19,21,-1,-1,-1,-1,23,25,27,29,-1,-1,31,33,-1,-1,-1,-1,-1,-1,-1,-1,-1,-1],"loss_changes":[2.2783693E1,6.3891325E0,2.2257538E0,6.7384405E0,2.6045324E1,0E0,0E0,5.4690084E0,1.1878788E0,2.2222214E0,8.079027E0,2.9142828E0,3.287879E0,0E0,0E0,0E0,0E0,5.7578125E0,1.1878788E0,3.9995165E0,5.5856705E-1,0E0,0E0,2.445284E0,4.792982E0,0E0,0E0,0E0,0E0,0E0,0E0,0E0,0E0,0E0,0E0],"parents":[2147483647,0,0,1,1,2,2,3,3,4,4,7,7,8,8,9,9,10,10,11,11,12,12,17,17,18,18,19,19,20,20,23,23,24,24],"right_children":[2,4,6,8,10,-1,-1,12,14,16,18,20,22,-1,-1,-1,-1,24,26,28,30,-1,-1,32,34,-1,-1,-1,-1,-1,-1,-1,-1,-1,-1],"split_conditions":[1.4270676E2,2.537135E3,-4.1395096E7,-3.66275E4,1.3436525E2,-0E0,-4.6415097E-1,1.917298E7,6.5134E2,-1.34595E4,1.41477E2,2.3458198E3,2.370565E3,3.818182E-1,-0E0,-0E0,4.666667E-1,-4.054E3,-3.9584336E7,2.1598398E3,2.495755E3,3.818182E-1,-1.5E-1,1.9638614E7,-4.5E1,-0E0,3.818182E-1,-1.890411E-1,1.5E-1,-4.5882356E-1,-1.20000005E-1,-3.6E-1,-0E0,2.8E-1,-3E-1],"split_indices":[5,0,4,4,5,0,0,2,0,1,5,0,0,0,0,0,0,1,4,0,0,0,0,2,1,0,0,0,0,0,0,0,0,0,0],"split_type":[0,0,0,0,0,0,0,0,0,0,0,0,0,0,0,0,0,0,0,0,0,0,0,0,0,0,0,0,0,0,0,0,0,0,0],"sum_hessian":[7.375E1,6.05E1,1.325E1,3.05E1,3E1,1E0,1.225E1,2.775E1,2.75E0,1.125E1,1.875E1,2.5E1,2.75E0,1.75E0,1E0,1E0,1.025E1,1.6E1,2.75E0,2.025E1,4.75E0,1.75E0,1E0,1.225E1,3.75E0,1E0,1.75E0,1.725E1,3E0,3.25E0,1.5E0,1.025E1,2E0,2.75E0,1E0],"tree_param":{"num_deleted":"0","num_feature":"6","num_nodes":"35","size_leaf_vector":"0"}},{"base_weights":[-2.1767752E-1,-1.4964885E-2,-1.095559E0,-4.73297E-1,1.3791846E-1,-0E0,-1.182417E0,-8.9771426E-1,4.5829844E-1,3.145328E-1,-3.239052E-1,6.882881E-1,-1.1767006E0,8.14599E-1,-1.8969846E-1,1.461265E0,-6.401482E-2,-7.4329406E-1,4.1679314E-1,-1.1809371E-1,-1.3201107E0,1.1044776E0,-1.7742844E-1,-1.3813514E0,4.9525093E-2,8.4861505E-1,-5.843071E-1,-4.2568114E-1,5.809508E-1,7.915934E-1,-1.005434E0,1.1018869E0,2.261755E-1],"categories":[],"categories_nodes":[],"categories_segments":[],"categories_sizes":[],"default_left":[1,1,1,1,1,0,0,1,1,1,1,0,1,0,0,0,1,1,1,0,0,0,1,0,1,1,0,0,0,0,0,0,0],"id":1,"left_children":[1,3,5,7,9,-1,-1,11,13,15,17,-1,19,-1,-1,-1,21,23,25,-1,-1,-1,27,-1,29,31,-1,-1,-1,-1,-1,-1,-1],"loss_changes":[1.2910691E1,4.27153E0,1.2954082E0,6.437285E0,3.8365345E0,0E0,0E0,5.592314E0,1.4087079E0,1.46914425E1,4.3975606E0,0E0,1.2955408E0,0E0,0E0,0E0,3.6734412E0,4.5003815E0,2.8293676E0,0E0,0E0,0E0,4.91273E0,0E0,4.610091E0,4.095857E-1,0E0,0E0,0E0,0E0,0E0,0E0,0E0],"parents":[2147483647,0,0,1,1,2,2,3,3,4,4,7,7,8,8,9,9,10,10,12,12,16,16,17,17,18,18,22,22,24,24,25,25],"right_children":[2,4,6,8,10,-1,-1,12,14,16,18,-1,20,-1,-1,-1,22,24,26,-1,-1,-1,28,-1,30,32,-1,-1,-1,-1,-1,-1,-1],"split_conditions":[1.4270676E2,-1.38385E4,-4.1395096E7,1.917298E7,1.3436525E2,-0E0,-3.5472512E-1,-3.931683E7,1.9846948E7,-8.0031775E6,-4.054E3,2.0648643E-1,1.02649994E2,2.443797E-1,-5.690954E-2,4.383795E-1,9.9235E1,1.390345E2,-4.5E1,-3.5428114E-2,-3.9603323E-1,3.313433E-1,1.22032745E2,-4.1440544E-1,2.7976802E3,-1.3825E3,-1.7529213E-1,-1.2770435E-1,1.7428525E-1,2.3747802E-1,-3.0163023E-1,3.3056608E-1,6.785265E-2],"split_indices":[5,1,4,2,5,0,0,4,2,4,1,0,0,0,0,0,0,5,1,0,0,0,5,0,0,1,0,0,0,0,0,0,0],"split_type":[0,0,0,0,0,0,0,0,0,0,0,0,0,0,0,0,0,0,0,0,0,0,0,0,0,0,0,0,0,0,0,0,0],"sum_hessian":[7.1641365E1,5.9028152E1,1.2613214E1,1.424049E1,4.4787663E1,1E0,1.1613214E1,9.808357E0,4.432133E0,3.262853E1,1.2159133E1,1.2477797E0,8.560577E0,2.69383E0,1.7383033E0,7.387979E0,2.5240551E1,7.761187E0,4.397946E0,1.2388985E0,7.321679E0,1.4599807E0,2.3780571E1,3.8890052E0,3.8721821E0,3.179007E0,1.2189386E0,1.824638E1,5.5341907E0,2.4197514E0,1.4524307E0,1.7120852E0,1.4669219E0],"tree_param":{"num_deleted":"0","num_feature":"6","num_nodes":"33","size_leaf_vector":"0"}},{"base_weights":[-1.6132514E-1,5.9024333E-3,-8.542761E-1,1.0659943E0,-4.5632128E-2,-0E0,-9.2342573E-1,-6.662411E-1,9.361722E-2,-1.05036154E-1,-9.9342E-1,-9.8630476E-1,1.6026466E-1,-3.578264E-2,5.5469596E-1,-1.1586691E0,-5.589038E-1,-1.1096915E0,-2.508321E-1,6.5172404E-1,-3.368324E-1,5.5292195E-1,-2.3673992E-1,1.2538499E0,-6.093146E-1,2.2794792E-1,-8.265649E-1,8.330654E-1,-6.14052E-1,-5.431091E-1,3.0878794E-1,2.5808626E-1,-1.0955718E0,-9.459814E-1,-2.5705943E-1],"categories":[],"categories_nodes":[],"categories_segments":[],"categories_sizes":[],"default_left":[1,1,1,0,1,0,1,1,1,0,1,1,1,1,1,0,1,0,0,0,0,1,1,0,1,0,1,0,0,0,0,0,0,0,0],"id":2,"left_children":[1,3,5,-1,7,-1,9,11,13,-1,15,17,19,21,23,-1,25,-1,-1,-1,-1,27,29,-1,31,-1,33,-1,-1,-1,-1,-1,-1,-1,-1],"loss_changes":[7.9607773E0,3.1244226E0,7.888603E-1,0E0,4.785147E0,0E0,6.0332584E-1,2.8399463E0,2.7352176E0,0E0,1.6109753E-1,3.9752722E-1,1.1210642E0,4.4463186E0,8.930003E0,0E0,1.2488189E0,0E0,0E0,0E0,0E0,3.6443276E0,4.8297977E0,0E0,2.1547327E0,0E0,2.7031422E-2,0E0,0E0,0E0,0E0,0E0,0E0,0E0,0E0],"parents":[2147483647,0,0,1,1,2,2,4,4,6,6,7,7,8,8,10,10,11,11,12,12,13,13,14,14,16,16,21,21,22,22,24,24,26,26],"right_children":[2,4,6,-1,8,-1,10,12,14,-1,16,18,20,22,24,-1,26,-1,-1,-1,-1,28,30,-1,32,-1,34,-1,-1,-1,-1,-1,-1,-1,-1],"split_conditions":[1.42168E2,-3.9075844E7,-4.1395096E7,3.197983E-1,-3.2901524E7,-0E0,2.84171E3,1.9200756E7,1.2074446E7,-3.151085E-2,-8.961086E6,-1.38885E4,1.9846948E7,3.2355E3,1.3423325E2,-3.4760076E-1,2.892815E3,-3.3290747E-1,-7.5249635E-2,1.9551723E-1,-1.0104973E-1,-2.7E1,-9.43855E4,3.76155E-1,1.9188688E7,6.838438E-2,2.978385E3,2.4991962E-1,-1.842156E-1,-1.6293274E-1,9.2636384E-2,7.742588E-2,-3.2867154E-1,-2.8379443E-1,-7.711783E-2],"split_indices":[5,4,4,0,4,0,0,2,2,0,4,1,2,2,5,0,0,0,0,0,0,1,4,0,2,0,0,0,0,0,0,0,0,0,0],"split_type":[0,0,0,0,0,0,0,0,0,0,0,0,0,0,0,0,0,0,0,0,0,0,0,0,0,0,0,0,0,0,0,0,0,0,0],"sum_hessian":[6.765463E1,5.5300606E1,1.235403E1,1.6511238E0,5.364948E1,1E0,1.135403E1,9.138103E0,4.451138E1,1.0915865E0,1.0262444E1,6.4478397E0,2.690263E0,3.547723E1,9.034146E0,6.2275105E0,4.034933E0,5.0858045E0,1.3620353E0,1.1963857E0,1.4938772E0,8.582715E0,2.6894516E1,5.5958576E0,3.4382892E0,1.0618244E0,2.9731085E0,7.151952E0,1.4307637E0,1.7225235E1,9.669282E0,1.403651E0,2.0346382E0,1.9112841E0,1.0618244E0],"tree_param":{"num_deleted":"0","num_feature":"6","num_nodes":"35","size_leaf_vector":"0"}},{"base_weights":[-1.291335E-1,3.2963976E-3,-7.602042E-1,1.0129551E0,-4.1531812E-2,-8.573424E-1,2.249203E-2,-2.6499808E-1,1.9627489E-1,-3.3865985E-1,-1.0461525E0,-3.5425976E-1,9.552613E-1,8.053293E-1,-1.5256071E-1,-9.3449533E-1,6.448702E-1,-1.4417987E-1,-7.781962E-1,4.0378827E-1,1.1039997E0,-8.551696E-1,8.166985E-2,-4.4180298E-1,4.7942337E-1,1.8900983E-2,-8.95976E-1,9.562363E-1,-2.4306835E-1,-1.0613223E0,-1.4356107E-1,-1.5664764E-1,6.221665E-1],"categories":[],"categories_nodes":[],"categories_segments":[],"categories_sizes":[],"default_left":[1,1,1,0,1,1,0,1,1,1,0,1,0,1,1,0,0,1,1,1,0,1,1,0,0,0,0,0,0,0,0,0,0],"id":3,"left_children":[1,3,5,-1,7,9,-1,11,13,15,-1,17,-1,19,21,-1,-1,23,25,27,-1,29,31,-1,-1,-1,-1,-1,-1,-1,-1,-1,-1],"loss_changes":[5.4552565E0,2.5280144E0,8.8003445E-1,0E0,2.8977592E0,6.3452244E-1,0E0,3.3918278E0,5.756688E0,3.048246E0,0E0,2.2792182E0,0E0,7.314396E-1,2.9829552E0,0E0,0E0,3.7719269E0,8.308735E-1,2.2920904E0,0E0,5.0967E-1,1.9250478E0,0E0,0E0,0E0,0E0,0E0,0E0,0E0,0E0,0E0,0E0],"parents":[2147483647,0,0,1,1,2,2,4,4,5,5,7,7,8,8,9,9,11,11,13,13,14,14,17,17,18,18,19,19,21,21,22,22],"right_children":[2,4,6,-1,8,10,-1,12,14,16,-1,18,-1,20,22,-1,-1,24,26,28,-1,30,32,-1,-1,-1,-1,-1,-1,-1,-1,-1,-1],"split_conditions":[1.4270676E2,9.447E1,1.9715004E7,3.0388653E-1,2.537135E3,2.907545E3,6.7476095E-3,-3.2448E4,1.3436525E2,2.8864E3,-3.1384575E-1,1.15980255E2,2.865784E-1,2.616525E3,2.712395E3,-2.803486E-1,1.9346108E-1,2.0469299E3,1.732E3,1.2871124E2,3.3119994E-1,1.3707776E2,-4.4535E3,-1.325409E-1,1.4382702E-1,5.670295E-3,-2.687928E-1,2.868709E-1,-7.292051E-2,-3.1839672E-1,-4.306832E-2,-4.6994295E-2,1.8664996E-1],"split_indices":[5,0,2,0,0,0,0,4,5,0,0,5,0,0,0,0,0,0,2,5,0,5,1,0,0,0,0,0,0,0,0,0,0],"split_type":[0,0,0,0,0,0,0,0,0,0,0,0,0,0,0,0,0,0,0,0,0,0,0,0,0,0,0,0,0,0,0,0,0],"sum_hessian":[6.424565E1,5.3924416E1,1.0321238E1,1.3743255E0,5.255009E1,9.096878E0,1.224359E0,2.7032957E1,2.5517132E1,3.1732514E0,5.9236274E0,2.5851604E1,1.1813538E0,8.816033E0,1.67011E1,2.0071495E0,1.1661018E0,1.8181793E1,7.6698117E0,4.7636285E0,4.052405E0,3.512842E0,1.3188257E1,1.2505096E1,5.676696E0,1.0954784E0,6.574333E0,2.3113437E0,2.452285E0,2.3427165E0,1.1701257E0,9.645508E0,3.5427494E0],"tree_param":{"num_deleted":"0","num_feature":"6","num_nodes":"33","size_leaf_vector":"0"}},{"base_weights":[-9.264297E-2,1.6321884E-2,-6.414712E-1,6.878722E-2,-6.25731E-1,-7.765341E-1,-6.0109917E-2,-4.7018655E-2,5.02479E-1,-8.1390953E-1,-8.833784E-2,-3.1057528E-1,-1.0130913E0,6.742373E-1,-7.5964934E-1,-7.253563E-1,1.0503E-1,7.9611385E-1,5.5453952E-2,-8.3155006E-1,3.9524326E-1,-1.1460353E0,-1.6502914E-1,3.220191E-1,-1.3211972E-1,8.9563376E-1,1.9197181E-1,-7.385422E-1,8.271278E-1,4.1965643E-1,-5.133461E-1,-4.633209E-1,5.4842526E-1,-7.349099E-1,6.591011E-2,4.0694585E-1,1.1192949E0],"categories":[],"categories_nodes":[],"categories_segments":[],"categories_sizes":[],"default_left":[1,1,1,1,1,1,1,1,1,0,0,1,0,0,0,1,1,1,1,0,0,0,1,1,1,1,0,0,0,0,0,0,0,0,0,0,0],"id":4,"left_children":[1,3,5,7,9,11,13,15,17,-1,-1,19,-1,-1,-1,21,23,25,27,-1,-1,-1,29,31,33,35,-1,-1,-1,-1,-1,-1,-1,-1,-1,-1,-1],"loss_changes":[3.716079E0,1.8174063E0,7.612357E-1,2.5145493E0,3.405099E-1,5.9643745E-1,2.0654547E0,4.207812E0,1.3390791E0,0E0,0E0,1.8823792E0,0E0,0E0,0E0,1.5696554E0,1.7714055E0,2.0596075E-1,3.8291833E0,0E0,0E0,0E0,1.1049676E0,3.4252849E0,2.0493011E0,1.04510784E-1,0E0,0E0,0E0,0E0,0E0,0E0,0E0,0E0,0E0,0E0,0E0],"parents":[2147483647,0,0,1,1,2,2,3,3,4,4,5,5,6,6,7,7,8,8,11,11,15,15,16,16,17,17,18,18,22,22,23,23,24,24,25,25],"right_children":[2,4,6,8,10,12,14,16,18,-1,-1,20,-1,-1,-1,22,24,26,28,-1,-1,-1,30,32,34,36,-1,-1,-1,-1,-1,-1,-1,-1,-1,-1,-1],"split_conditions":[1.4270676E2,-2.75E1,2.9809448E3,-9.43855E4,-2.15E1,1.4514024E2,1.4916226E2,2.0469299E3,-5.45E1,-2.4417287E-1,-2.6501352E-2,1.4324051E2,-3.0392742E-1,2.0227121E-1,-2.2789481E-1,7.1775E4,1.3436525E2,5.0951E4,-3.15E1,-2.4946503E-1,1.1857298E-1,-3.4381062E-1,9.3215E1,-3.2901524E7,2.712395E3,-8.10855E4,5.7591546E-2,-2.2156267E-1,2.4813835E-1,1.2589693E-1,-1.5400383E-1,-1.3899627E-1,1.6452758E-1,-2.2047298E-1,1.9773033E-2,1.2208376E-1,3.357885E-1],"split_indices":[5,1,0,4,1,5,5,0,1,0,0,5,0,0,0,2,5,2,1,0,0,0,5,4,0,4,0,0,0,0,0,0,0,0,0,0,0],"split_type":[0,0,0,0,0,0,0,0,0,0,0,0,0,0,0,0,0,0,0,0,0,0,0,0,0,0,0,0,0,0,0,0,0,0,0,0,0],"sum_hessian":[6.0963608E1,5.1674385E1,9.28922E0,4.859621E1,3.0781744E0,7.265556E0,2.0236638E0,3.905831E1,9.537899E0,1.8987421E0,1.1794324E0,3.2253392E0,4.040217E0,1.0049154E0,1.0187484E0,6.461398E0,3.2596916E1,5.2852755E0,4.252624E0,1.7531661E0,1.472173E0,3.0935469E0,3.3678513E0,1.6835117E1,1.5761798E1,4.123522E0,1.1617535E0,2.1171577E0,2.135466E0,1.1808544E0,2.186997E0,3.5331585E0,1.3301958E1,3.2272248E0,1.2534574E1,2.1799405E0,1.9435815E0],"tree_param":{"num_deleted":"0","num_feature":"6","num_nodes":"37","size_leaf_vector":"0"}},{"base_weights":[-8.355277E-2,3.362405E-2,-4.431661E-1,9.4425574E-2,-6.7547315E-1,-9.472894E-1,-2.0570385E-1,5.755558E-1,-1.7090388E-2,-9.261424E-1,-7.629461E-2,3.2979012E-1,-5.042417E-1,2.4811275E-1,1.0430658E0,-5.291161E-1,1.17337495E-1,8.142677E-1,-5.6103647E-2,6.471028E-2,-9.795364E-1,-1.9597195E-1,5.243226E-1,-9.8891795E-1,1.5845236E-1,-2.1082097E-1,2.9656607E-1,-2.6748568E-1,1.7359288E-1,4.0856028E-1,-3.6427185E-1,1.3583536E-1,-4.2307836E-1,8.104221E-1,-1.716592E-2,-1.1914939E0,-1.7495093E-1,4.500001E-1,-2.0370694E-1,-5.643678E-1,3.9101195E-1,-2.6865896E-2,5.814954E-1],"categories":[],"categories_nodes":[],"categories_segments":[],"categories_sizes":[],"default_left":[1,1,1,1,1,0,1,1,1,0,0,1,1,1,0,1,1,0,1,1,0,1,1,1,1,1,1,0,0,0,0,0,0,0,0,0,0,0,0,0,0,0,0],"id":5,"left_children":[1,3,5,7,9,-1,11,13,15,-1,-1,17,19,21,-1,23,25,-1,27,29,-1,31,33,35,37,39,41,-1,-1,-1,-1,-1,-1,-1,-1,-1,-1,-1,-1,-1,-1,-1,-1],"loss_changes":[2.5175066E0,2.0351286E0,1.5608535E0,2.3164213E0,4.9011302E-1,0E0,1.9643704E0,9.8395133E-1,2.53118E0,0E0,0E0,9.113977E-1,2.123146E0,8.4931046E-1,0E0,2.572359E0,1.78176E0,0E0,2.1700583E-1,7.985747E-1,0E0,2.8819692E-1,6.37388E-1,5.6933546E-1,5.059885E-1,2.5420704E0,1.7961589E0,0E0,0E0,0E0,0E0,0E0,0E0,0E0,0E0,0E0,0E0,0E0,0E0,0E0,0E0,0E0,0E0],"parents":[2147483647,0,0,1,1,2,2,3,3,4,4,6,6,7,7,8,8,11,11,12,12,13,13,15,15,16,16,18,18,19,19,21,21,22,22,23,23,24,24,25,25,26,26],"right_children":[2,4,6,8,10,-1,12,14,16,-1,-1,18,20,22,-1,24,26,-1,28,30,-1,32,34,36,38,40,42,-1,-1,-1,-1,-1,-1,-1,-1,-1,-1,-1,-1,-1,-1,-1,-1],"split_conditions":[1.4014749E2,-2.75E1,-2.75E1,3.2355E3,3.447E3,-2.8418684E-1,-3.8575264E7,2.5585E3,5.049E3,-2.7784273E-1,-2.2888383E-2,1.42168E2,1.315565E5,2.444505E3,3.1291974E-1,-8.9411E4,-9.304E3,2.4428032E-1,1.9708058E7,2.892815E3,-2.9386094E-1,2.3362148E3,1.3436525E2,1.3551575E2,-4.8569E4,1.9187608E7,-1.5E0,-8.02457E-2,5.2077867E-2,1.22568086E-1,-1.0928156E-1,4.075061E-2,-1.2692352E-1,2.4312665E-1,-5.149776E-3,-3.5744816E-1,-5.248528E-2,1.3500004E-1,-6.1112083E-2,-1.6931033E-1,1.1730359E-1,-8.059769E-3,1.7444862E-1],"split_indices":[5,1,3,2,2,0,4,2,2,0,0,5,2,0,0,4,1,0,2,0,0,0,5,5,4,2,3,0,0,0,0,0,0,0,0,0,0,0,0,0,0,0,0],"split_type":[0,0,0,0,0,0,0,0,0,0,0,0,0,0,0,0,0,0,0,0,0,0,0,0,0,0,0,0,0,0,0,0,0,0,0,0,0,0,0,0,0,0,0],"sum_hessian":[5.8390217E1,4.4723846E1,1.366637E1,4.199023E1,2.7336147E0,3.4189174E0,1.0247453E1,7.1181445E0,3.4872086E1,1.5425814E0,1.1910332E0,3.6305568E0,6.6168957E0,5.0863714E0,2.031773E0,6.640991E0,2.8231094E1,1.1174947E0,2.513062E0,3.4049046E0,3.2119913E0,2.0618565E0,3.0245152E0,3.7170095E0,2.9239817E0,9.910041E0,1.8321054E1,1.2230303E0,1.2900317E0,1.9164124E0,1.4884921E0,1.001106E0,1.0607505E0,1.6539712E0,1.370544E0,2.6049037E0,1.1121058E0,1.4855374E0,1.4384441E0,6.281957E0,3.6280842E0,9.00496E0,9.316094E0],"tree_param":{"num_deleted":"0","num_feature":"6","num_nodes":"43","size_leaf_vector":"0"}},{"base_weights":[-7.1214095E-2,-1.04511596E-1,8.252589E-1,-3.4763686E-2,-4.796294E-1,2.093498E-2,-7.8695995E-1,1.341205E-2,-6.22359E-1,-2.028522E-2,5.989779E-1,-8.749912E-1,-2.8280735E-1,1.06215276E-1,-2.7726266E-1,1.5307745E-1,-6.811372E-1,1.7327474E-2,7.995416E-1,4.261824E-1,-4.760905E-1],"categories":[],"categories_nodes":[],"categories_segments":[],"categories_sizes":[],"default_left":[1,1,0,1,1,1,0,0,1,1,0,0,1,1,1,0,0,0,0,0,0],"id":6,"left_children":[1,3,-1,5,7,9,-1,-1,11,13,-1,-1,15,17,19,-1,-1,-1,-1,-1,-1],"loss_changes":[1.7755768E0,1.4342108E0,0E0,2.0207093E0,6.146822E-1,1.0966134E0,0E0,0E0,3.275373E-1,1.4419652E0,0E0,0E0,8.5730416E-1,1.8251927E0,2.2464142E0,0E0,0E0,0E0,0E0,0E0,0E0],"parents":[2147483647,0,0,1,1,3,3,4,4,5,5,8,8,9,9,12,12,13,13,14,14],"right_children":[2,4,-1,6,8,10,-1,-1,12,14,-1,-1,16,18,20,-1,-1,-1,-1,-1,-1],"split_conditions":[-3.2448E4,1.4270676E2,2.4757768E-1,-2.75E1,-4.0176604E7,-3.15E1,-2.36088E-1,4.0236153E-3,1.44979E2,-1.948908E6,1.7969339E-1,-2.6249737E-1,1.315565E5,-3.2331545E6,3.2355E3,4.5923237E-2,-2.0434117E-1,5.1982426E-3,2.3986249E-1,1.2785472E-1,-1.4282715E-1],"split_indices":[4,5,0,1,4,1,0,0,5,4,0,0,2,4,2,0,0,0,0,0,0],"split_type":[0,0,0,0,0,0,0,0,0,0,0,0,0,0,0,0,0,0,0,0,0],"sum_hessian":[5.55933E1,5.445414E1,1.1391593E0,4.683795E1,7.616188E0,4.4513947E1,2.324003E0,1.9132249E0,5.7029634E0,4.2451633E1,2.0623157E0,2.3658376E0,3.3371255E0,2.8840965E1,1.3610666E1,1.8874388E0,1.4496868E0,2.6472105E1,2.3688605E0,2.7473114E0,1.0863355E1],"tree_param":{"num_deleted":"0","num_feature":"6","num_nodes":"21","size_leaf_vector":"0"}},{"base_weights":[-5.24711E-2,7.682808E-1,-8.324361E-2,-7.9348326E-1,-4.876742E-2,6.591556E-2,-2.8759906E-1,-2.603048E-2,1.142273E0,-9.962459E-1,-1.301898E-1,4.8533216E-2,-8.821831E-1,6.684912E-1,-3.260563E-1,-1.0104964E-1,3.9005837E-1,1.0030591E0,2.7739896E-2,-8.0424225E-1,-1.05163306E-1],"categories":[],"categories_nodes":[],"categories_segments":[],"categories_sizes":[],"default_left":[1,0,1,0,1,1,1,1,0,0,1,1,0,1,1,0,0,0,0,0,0],"id":7,"left_children":[1,-1,3,-1,5,7,9,11,-1,-1,13,15,-1,17,19,-1,-1,-1,-1,-1,-1],"loss_changes":[1.4630269E0,0E0,1.2907841E0,0E0,1.4664239E0,3.6436388E0,1.8034569E0,2.2528958E0,0E0,0E0,2.616238E0,1.7147642E0,0E0,6.897088E-1,1.2868658E0,0E0,0E0,0E0,0E0,0E0,0E0],"parents":[2147483647,0,0,2,2,4,4,5,5,6,6,7,7,10,10,11,11,13,13,14,14],"right_children":[2,-1,4,-1,6,8,10,12,-1,-1,14,16,-1,18,20,-1,-1,-1,-1,-1,-1],"split_conditions":[9.447E1,2.3048425E-1,1.0144E2,-2.3804499E-1,1.3767151E2,1.368575E2,1.390345E2,1.3637924E2,3.4268188E-1,-2.9887378E-1,1.4014749E2,2.537135E3,-2.6465493E-1,2.765675E3,-2.75E1,-3.0314893E-2,1.17017515E-1,3.0091774E-1,8.321969E-3,-2.4127269E-1,-3.154899E-2],"split_indices":[0,0,0,0,5,5,5,5,0,0,5,0,0,0,3,0,0,0,0,0,0],"split_type":[0,0,0,0,0,0,0,0,0,0,0,0,0,0,0,0,0,0,0,0,0],"sum_hessian":[5.4394344E1,1.0996069E0,5.329474E1,1.448059E0,5.184668E1,3.5516335E1,1.6330343E1,3.36202E1,1.8961337E0,1.9995365E0,1.4330808E1,3.1794481E1,1.8257197E0,2.3470979E0,1.1983709E1,2.2600101E1,9.19438E0,1.1704866E0,1.1766112E0,2.9521246E0,9.031586E0],"tree_param":{"num_deleted":"0","num_feature":"6","num_nodes":"21","size_leaf_vector":"0"}},{"base_weights":[-4.0955175E-2,-7.078266E-2,7.462462E-1,-2.3671128E-2,-4.9413913E-1,9.9178654E-1,-6.6392206E-2,-8.302881E-1,1.5638542E-1,-3.3934903E-1,6.361033E-3,-6.195171E-1,1.2118533E-1,6.665658E-1,-5.760853E-2,-7.5417817E-1,-4.3050814E-2,4.0377602E-1,-2.9922983E-1,8.174453E-1,1.7228565E-1,-2.2154458E-1,1.16108015E-1],"categories":[],"categories_nodes":[],"categories_segments":[],"categories_sizes":[],"default_left":[1,1,0,1,1,0,1,0,0,1,1,1,1,1,1,0,0,0,0,0,0,0,0],"id":8,"left_children":[1,3,-1,5,7,-1,9,-1,-1,11,13,15,17,19,21,-1,-1,-1,-1,-1,-1,-1,-1],"loss_changes":[1.3126266E0,1.0375775E0,0E0,2.1651053E0,1.270831E0,0E0,9.42941E-1,0E0,0E0,1.3638142E0,1.6595639E0,4.6231174E-1,6.690332E-1,1.17975116E-1,1.0485479E0,0E0,0E0,0E0,0E0,0E0,0E0,0E0,0E0],"parents":[2147483647,0,0,1,1,3,3,4,4,6,6,9,9,10,10,11,11,12,12,13,13,14,14],"right_children":[2,4,-1,6,8,-1,10,-1,-1,12,14,16,18,20,22,-1,-1,-1,-1,-1,-1,-1,-1],"split_conditions":[-3.2448E4,1.4514024E2,2.2387387E-1,-4.0143424E7,2.9809448E3,2.97536E-1,-3.2901524E7,-2.4908644E-1,4.6915628E-2,1.9200756E7,-2.7006852E7,2.778255E3,1.9846948E7,2.5564502E3,1.22032745E2,-2.2625346E-1,-1.2915245E-2,1.2113281E-1,-8.976895E-2,2.452336E-1,5.1685695E-2,-6.646337E-2,3.4832407E-2],"split_indices":[4,5,0,4,0,0,4,0,0,2,4,0,2,0,5,0,0,0,0,0,0,0,0],"split_type":[0,0,0,0,0,0,0,0,0,0,0,0,0,0,0,0,0,0,0,0,0,0,0],"sum_hessian":[5.265385E1,5.1608463E1,1.0453894E0,4.7390694E1,4.2177706E0,1.0163841E0,4.637431E1,2.5986307E0,1.6191403E0,8.988126E0,3.738618E1,5.373761E0,3.6143641E0,2.4703743E0,3.491581E1,4.106269E0,1.2674924E0,2.1851492E0,1.429215E0,1.3917358E0,1.0786386E0,1.7821943E1,1.7093864E1],"tree_param":{"num_deleted":"0","num_feature":"6","num_nodes":"23","size_leaf_vector":"0"}},{"base_weights":[-2.3794593E-2,7.04972E-1,-5.188079E-2,-2.2266813E-2,-6.88365E-1,6.5968406E-1,-6.4278714E-2,-9.3528815E-2,5.519196E-1,-5.7631373E-1,-2.671908E-2,-8.5723674E-1,-6.1834402E-2,5.921136E-1,-6.416797E-2],"categories":[],"categories_nodes":[],"categories_segments":[],"categories_sizes":[],"default_left":[1,0,1,1,0,0,1,1,0,1,1,0,0,0,0],"id":9,"left_children":[1,-1,3,5,-1,-1,7,9,-1,11,13,-1,-1,-1,-1],"loss_changes":[1.1036978E0,0E0,9.484546E-1,1.4718225E0,0E0,0E0,9.151131E-1,1.4874238E0,0E0,7.5855744E-1,1.0107967E0,0E0,0E0,0E0,0E0],"parents":[2147483647,0,0,2,2,3,3,6,6,7,7,9,9,10,10],"right_children":[2,-1,4,6,-1,-1,8,10,-1,12,14,-1,-1,-1,-1],"split_conditions":[9.447E1,2.1149161E-1,1.4916226E2,-4.0143424E7,-2.065095E-1,1.9790523E-1,-3.27185E4,1.2180701E3,1.6557588E-1,1.03205E2,6.6145996E1,-2.5717103E-1,-1.8550321E-2,1.7763409E-1,-1.9250391E-2],"split_indices":[0,0,5,4,0,0,4,0,0,5,5,0,0,0,0],"split_type":[0,0,0,0,0,0,0,0,0,0,0,0,0,0,0],"sum_hessian":[5.1135468E1,1.0032531E0,5.0132214E1,4.889236E1,1.2398523E0,1.9840643E0,4.69083E1,4.5592308E1,1.315989E0,4.6152306E0,4.0977077E1,2.5542836E0,2.0609467E0,1.4930807E0,3.9483997E1],"tree_param":{"num_deleted":"0","num_feature":"6","num_nodes":"15","size_leaf_vector":"0"}},{"base_weights":[-1.2675423E-2,7.606435E-2,-2.1640512E-1,2.0724726E-3,9.899662E-1,-8.710863E-1,-7.6624334E-2,6.336387E-2,-7.9006493E-1,5.6513655E-1,-2.4735746E-1,1.14859425E-1,-4.8582616E-1,8.6076236E-1,2.0031301E-2,-7.5233E-1,-5.153383E-2,4.7684726E-1,1.9987427E-2,-8.798929E-2,-6.4812255E-1,8.530934E-1,-3.0670714E-1,1.8019624E-1,8.7040377E-1,-1.1670261E-1,3.4936857E-1,-4.2062593E-1,7.5977884E-2],"categories":[],"categories_nodes":[],"categories_segments":[],"categories_sizes":[],"default_left":[1,1,1,1,0,0,1,1,0,1,1,1,1,0,0,0,1,1,1,0,0,0,1,0,0,0,0,0,0],"id":10,"left_children":[1,3,5,7,-1,-1,9,11,-1,13,15,17,19,-1,-1,-1,21,23,25,-1,-1,-1,27,-1,-1,-1,-1,-1,-1],"loss_changes":[9.4874567E-1,2.477016E0,1.3888829E0,1.7453377E0,0E0,0E0,1.6961489E0,9.985534E-1,0E0,5.1281095E-1,1.1394517E0,1.0649214E0,1.398375E-1,0E0,0E0,0E0,2.4913323E0,5.965618E-1,1.2038614E0,0E0,0E0,0E0,3.9246857E-1,0E0,0E0,0E0,0E0,0E0,0E0],"parents":[2147483647,0,0,1,1,2,2,3,3,6,6,7,7,9,9,10,10,11,11,12,12,16,16,17,17,18,18,22,22],"right_children":[2,4,6,8,-1,-1,10,12,-1,14,16,18,20,-1,-1,-1,22,24,26,-1,-1,-1,28,-1,-1,-1,-1,-1,-1],"split_conditions":[1.3767151E2,1.368575E2,1.390345E2,1.3637924E2,2.969899E-1,-2.613259E-1,1.4014749E2,-2.75E1,-2.370195E-1,2.765675E3,1.41477E2,3.2725E3,1.8484651E3,2.5822872E-1,6.0093906E-3,-2.2569901E-1,1.42168E2,2.5585E3,-9.43855E4,-2.6396789E-2,-1.9443677E-1,2.5592804E-1,1.4889125E2,5.4058876E-2,2.6112115E-1,-3.5010785E-2,1.0481057E-1,-1.2618779E-1,2.2793366E-2],"split_indices":[5,5,5,5,0,0,5,1,0,0,5,2,0,0,0,0,5,2,4,0,0,0,5,0,0,0,0,0,0],"split_type":[0,0,0,0,0,0,0,0,0,0,0,0,0,0,0,0,0,0,0,0,0,0,0,0,0,0,0,0,0],"sum_hessian":[5.0567493E1,3.566104E1,1.4906453E1,3.391728E1,1.7437633E0,1.7021965E0,1.3204257E1,3.2335346E1,1.5819292E0,2.2892485E0,1.0915009E1,3.0286364E1,2.0489852E0,1.1088257E0,1.1804227E0,2.2558773E0,8.659131E0,5.4532094E0,2.4833153E1,1.0405178E0,1.0084676E0,1.3896003E0,7.269531E0,3.9406972E0,1.5125124E0,1.8006372E1,6.8267813E0,5.5255313E0,1.7439996E0],"tree_param":{"num_deleted":"0","num_feature":"6","num_nodes":"29","size_leaf_vector":"0"}},{"base_weights":[-6.791159E-3,2.0286007E-2,-6.3235193E-1,5.6127053E-1,-1.3816407E-2,1.5083218E-2,-5.515478E-1,-2.0193374E-2,6.421556E-1,-5.652304E-1,5.909576E-2,-1.0668922E-1,-7.768424E-1,5.730884E-1,-1.2989846E-2],"categories":[],"categories_nodes":[],"categories_segments":[],"categories_sizes":[],"default_left":[1,1,0,0,1,1,0,1,0,1,1,0,0,0,0],"id":11,"left_children":[1,3,-1,-1,5,7,-1,9,-1,11,13,-1,-1,-1,-1],"loss_changes":[8.569791E-1,9.069118E-1,0E0,0E0,7.35969E-1,1.0174557E0,0E0,1.9331528E0,0E0,4.6802747E-1,1.4629136E0,0E0,0E0,0E0,0E0],"parents":[2147483647,0,0,1,1,4,4,5,5,7,7,9,9,10,10],"right_children":[2,4,-1,-1,6,8,-1,10,-1,12,14,-1,-1,-1,-1],"split_conditions":[1.4916226E2,-4.0143424E7,-1.897056E-1,1.6838117E-1,1.9881668E7,1.9798336E7,-1.6546436E-1,-3.4372108E7,1.9264668E-1,1.3582074E2,-2.3486392E7,-3.2006767E-2,-2.3305273E-1,1.7192653E-1,-3.896954E-3],"split_indices":[5,4,0,0,2,2,0,4,0,5,4,0,0,0,0],"split_type":[0,0,0,0,0,0,0,0,0,0,0,0,0,0,0],"sum_hessian":[4.88365E1,4.773776E1,1.0987396E0,1.9141536E0,4.582361E1,4.4408863E1,1.4147424E0,4.2959908E1,1.4489557E0,4.677543E0,3.8282364E1,1.9519799E0,2.7255633E0,3.8537598E0,3.4428604E1],"tree_param":{"num_deleted":"0","num_feature":"6","num_nodes":"15","size_leaf_vector":"0"}},{"base_weights":[-7.6395087E-3,3.2467145E-2,-4.013764E-1,-2.9225096E-2,9.211591E-1,-7.378094E-1,1.2794429E-1,2.6552944E-2,-6.525383E-1,2.1156032E-1,-1.11312255E-1,6.575032E-2,6.99317E-1,-1.076781E0,1.1206297E-2,1.6737151E-1,-5.85228E-1,8.211753E-1,2.1508935E-1,-2.3156676E-1,3.7691283E-1],"categories":[],"categories_nodes":[],"categories_segments":[],"categories_sizes":[],"default_left":[1,1,1,1,0,0,0,1,0,1,1,1,1,0,1,0,0,0,0,0,0],"id":12,"left_children":[1,3,5,7,-1,-1,-1,9,-1,11,13,15,17,-1,19,-1,-1,-1,-1,-1,-1],"loss_changes":[7.9017544E-1,2.5263326E0,9.179018E-1,1.5331252E0,0E0,0E0,0E0,1.0687479E0,0E0,1.2229648E0,2.8670678E0,1.0796555E0,5.954957E-2,0E0,2.076726E0,0E0,0E0,0E0,0E0,0E0,0E0],"parents":[2147483647,0,0,1,1,2,2,3,3,7,7,9,9,10,10,11,11,12,12,14,14],"right_children":[2,4,6,8,-1,-1,-1,10,-1,12,14,16,18,-1,20,-1,-1,-1,-1,-1,-1],"split_conditions":[2.907545E3,2.883455E3,2.9809448E3,2.8403901E3,2.7634773E-1,-2.2134283E-1,3.838329E-2,-8.0031125E6,-1.957615E-1,-1.6050639E7,-6.765216E6,1.9881668E7,1.362845E2,-3.2303432E-1,2.75895E4,5.0211456E-2,-1.7556842E-1,2.463526E-1,6.452681E-2,-6.947003E-2,1.13073856E-1],"split_indices":[0,0,0,0,0,0,0,4,0,4,4,2,5,0,2,0,0,0,0,0,0],"split_type":[0,0,0,0,0,0,0,0,0,0,0,0,0,0,0,0,0,0,0,0,0],"sum_hessian":[4.8212894E1,4.4588573E1,3.6243205E0,4.2598534E1,1.9900396E0,1.9750873E0,1.6492332E0,3.997841E1,2.620123E0,1.6842361E1,2.313605E1,1.383987E1,3.0024903E0,1.7282672E0,2.1407782E1,1.2613697E1,1.2261732E0,1.8428757E0,1.1596146E0,1.308689E1,8.320891E0],"tree_param":{"num_deleted":"0","num_feature":"6","num_nodes":"21","size_leaf_vector":"0"}},{"base_weights":[-1.0509464E-2,-7.878356E-2,2.0297514E-1,4.1662652E-2,-5.2901703E-1,8.3985543E-1,-1.4877894E-2,-2.9613141E-2,6.3426197E-1,4.8123572E-2,-8.057587E-1,-2.0415653E-1,3.8193935E-1,2.1910539E-2,-5.4356974E-1,-8.692869E-2,1.0528647E0,-2.4157205E-1,3.4387457E-1,-9.83636E-1,-3.2573032E-1,4.49549E-2,-7.546837E-1,8.435141E-1,-2.4479608E-1,-3.7047513E-2,6.681821E-1,-3.4433502E-1,6.155221E-1,4.8248366E-2,-6.670579E-1,2.5525644E-1,-6.7577493E-1],"categories":[],"categories_nodes":[],"categories_segments":[],"categories_sizes":[],"default_left":[1,1,1,1,1,0,1,1,1,1,1,1,1,1,0,0,0,0,0,0,0,1,0,0,0,1,0,1,0,0,0,0,0],"id":13,"left_children":[1,3,5,7,9,-1,11,13,15,17,19,21,23,25,-1,-1,-1,-1,-1,-1,-1,27,-1,-1,-1,29,-1,31,-1,-1,-1,-1,-1],"loss_changes":[7.1868896E-1,2.0420232E0,1.672153E0,1.2992042E0,1.3061011E0,0E0,8.2122445E-1,7.537784E-1,1.0875475E0,3.8425106E-1,1.4234638E-1,1.0421307E0,1.2317448E0,1.0315799E0,0E0,0E0,0E0,0E0,0E0,0E0,0E0,1.5457681E0,0E0,0E0,0E0,1.3843354E0,0E0,1.0093127E0,0E0,0E0,0E0,0E0,0E0],"parents":[2147483647,0,0,1,1,2,2,3,3,4,4,6,6,7,7,8,8,9,9,10,10,11,11,12,12,13,13,21,21,25,25,27,27],"right_children":[2,4,6,8,10,-1,12,14,16,18,20,22,24,26,-1,-1,-1,-1,-1,-1,-1,28,-1,-1,-1,30,-1,32,-1,-1,-1,-1,-1],"split_conditions":[-9.43855E4,-1.948908E6,-8.69205E4,-3.2331545E6,3.404E3,2.5195664E-1,-4.2431E4,-5.7625625E6,1.03388504E2,-1.39419E5,-1.5E0,-5.1063E4,-3.05E1,-6.765216E6,-1.6307093E-1,-2.6078608E-2,3.158594E-1,-7.247162E-2,1.0316238E-1,-2.9509082E-1,-9.77191E-2,-6.29515E4,-2.2640511E-1,2.5305423E-1,-7.343883E-2,-8.0031125E6,2.0045464E-1,6.97375E1,1.8465663E-1,1.447451E-2,-2.0011736E-1,7.657693E-2,-2.0273249E-1],"split_indices":[4,4,4,4,2,0,4,4,5,4,3,4,1,4,0,0,0,0,0,0,0,4,0,0,0,4,0,5,0,0,0,0,0],"split_type":[0,0,0,0,0,0,0,0,0,0,0,0,0,0,0,0,0,0,0,0,0,0,0,0,0,0,0,0,0,0,0,0,0],"sum_hessian":[4.7211002E1,3.6249184E1,1.0961818E1,2.931446E1,6.9347243E0,2.066215E0,8.895602E0,2.7015194E1,2.2992656E0,2.515271E0,4.419453E0,6.351502E0,2.5441003E0,2.5423845E1,1.5913485E0,1.1354277E0,1.1638379E0,1.3631864E0,1.1520846E0,2.459099E0,1.9603542E0,5.0050693E0,1.3464326E0,1.2659068E0,1.2781936E0,2.4162249E1,1.2615983E0,3.2108536E0,1.7942158E0,2.2094353E1,2.067895E0,1.2248659E0,1.9859877E0],"tree_param":{"num_deleted":"0","num_feature":"6","num_nodes":"33","size_leaf_vector":"0"}},{"base_weights":[-7.991779E-3,2.6154174E-2,-3.6706364E-1,-1.55230975E-2,5.242934E-1,-7.0568776E-1,1.6932702E-1,1.9758241E-2,-5.532485E-1,9.1307014E-1,-8.71018E-2,1.4376645E-1,-7.7811316E-2,5.0546387E-3,6.453138E-1,1.5768696E-1,-4.0559238E-1,5.6384826E-1,-1.19201735E-1,1.2422949E-2,6.3333386E-1,-8.935513E-1,-1.287069E-3],"categories":[],"categories_nodes":[],"categories_segments":[],"categories_sizes":[],"default_left":[1,1,1,1,1,0,0,1,0,0,0,1,1,1,0,1,1,0,0,0,0,0,0],"id":14,"left_children":[1,3,5,7,9,-1,-1,11,-1,-1,-1,13,15,17,-1,19,21,-1,-1,-1,-1,-1,-1],"loss_changes":[5.8905715E-1,9.2349994E-1,8.770013E-1,8.012424E-1,8.9549434E-1,0E0,0E0,4.9586564E-1,0E0,0E0,0E0,1.2483342E0,1.8445953E0,1.1157031E0,0E0,9.6936905E-1,1.9567372E0,0E0,0E0,0E0,0E0,0E0,0E0],"parents":[2147483647,0,0,1,1,2,2,3,3,4,4,7,7,11,11,12,12,13,13,15,15,16,16],"right_children":[2,4,6,8,10,-1,-1,12,-1,-1,-1,14,16,18,-1,20,22,-1,-1,-1,-1,-1,-1],"split_conditions":[1.4514024E2,2.883455E3,2.9809448E3,2.851605E3,2.89031E3,-2.1170634E-1,5.0798107E-2,-8.0031125E6,-1.6597456E-1,2.7392104E-1,-2.6130542E-2,-1.6050639E7,1.1080875E2,1.2140925E2,1.9359414E-1,1.03751755E2,1.22032745E2,1.6915448E-1,-3.5760522E-2,3.726885E-3,1.9000016E-1,-2.680654E-1,-3.8612072E-4],"split_indices":[5,0,0,0,0,0,0,4,0,0,0,4,5,5,0,5,5,0,0,0,0,0,0],"split_type":[0,0,0,0,0,0,0,0,0,0,0,0,0,0,0,0,0,0,0,0,0,0,0],"sum_hessian":[4.6260746E1,4.309024E1,3.1705062E0,4.0657436E1,2.4328034E0,1.7500651E0,1.4204412E0,3.9058014E1,1.5994257E0,1.1855257E0,1.2472777E0,1.6990314E1,2.2067698E1,1.4100617E1,2.8896976E0,1.314351E1,8.924188E0,1.9215281E0,1.217909E1,1.08546E1,2.28891E0,3.4954338E0,5.428754E0],"tree_param":{"num_deleted":"0","num_feature":"6","num_nodes":"23","size_leaf_vector":"0"}},{"base_weights":[-2.8224008E-3,7.7054515E-2,-1.241814E-1,-1.1601248E-2,7.8990746E-1,-7.3305017E-1,-3.350254E-2,-9.389928E-2,5.2374554E-1,2.2679633E-1,-1.598119E-1,9.988934E-2,-3.7656036E-1,-5.394606E-3,7.557555E-1,-3.3873677E-1,4.9714407E-1,6.2165078E-2,-8.434817E-1,-3.5589686E-1,2.3261613E-1,3.525388E-1,-6.418321E-1,-2.023157E-1,3.6190823E-1,4.2544096E-3,-5.3446984E-1,7.4263823E-1,4.4985272E-2,-1.5056466E-1,7.23634E-1,1.3593343E-1,-8.303419E-1,-3.954111E-1,1.80899E-1,7.860175E-1,1.1112667E-2],"categories":[],"categories_nodes":[],"categories_segments":[],"categories_sizes":[],"default_left":[1,1,1,1,0,0,1,1,1,1,1,1,1,0,0,0,0,1,0,1,1,1,1,1,1,0,0,0,0,0,0,0,0,0,0,0,0],"id":15,"left_children":[1,3,5,7,-1,-1,9,11,13,15,17,19,21,-1,-1,-1,-1,23,-1,25,27,29,31,33,35,-1,-1,-1,-1,-1,-1,-1,-1,-1,-1,-1,-1],"loss_changes":[4.5587766E-1,1.8029153E0,1.0055741E0,1.2047709E0,0E0,0E0,6.0461956E-1,1.3293531E0,4.5179057E-1,1.0951209E0,1.9078354E0,9.7694767E-1,2.1219275E0,0E0,0E0,0E0,0E0,8.7872255E-1,0E0,2.4208155E-1,1.1199167E0,7.176275E-1,1.2185168E0,5.1841843E-1,7.532072E-1,0E0,0E0,0E0,0E0,0E0,0E0,0E0,0E0,0E0,0E0,0E0,0E0],"parents":[2147483647,0,0,1,1,2,2,3,3,6,6,7,7,8,8,9,9,10,10,11,11,12,12,17,17,19,19,20,20,21,21,22,22,23,23,24,24],"right_children":[2,4,6,8,-1,-1,10,12,14,16,18,20,22,-1,-1,-1,-1,24,-1,26,28,30,32,34,36,-1,-1,-1,-1,-1,-1,-1,-1,-1,-1,-1,-1],"split_conditions":[1.3436525E2,2.616525E3,2.6815352E3,1.917298E7,2.3697224E-1,-2.1991506E-1,-1.38885E4,1.1080875E2,-3.2563646E7,1.8986656E7,1.8825944E7,3.4775E3,-6.5E0,-1.6183818E-3,2.2672665E-1,-1.0162104E-1,1.4914323E-1,1.07295E4,-2.5304452E-1,3.2725E3,4.305E3,2.45472E3,3.1055E3,-1.38729E5,2.765585E3,1.2763229E-3,-1.6034096E-1,2.2279148E-1,1.3495582E-2,-4.51694E-2,2.170902E-1,4.078003E-2,-2.4910258E-1,-1.1862334E-1,5.42697E-2,2.3580526E-1,3.3338002E-3],"split_indices":[5,0,0,2,0,0,1,5,4,2,2,2,3,0,0,0,0,2,0,2,2,0,2,4,0,0,0,0,0,0,0,0,0,0,0,0,0],"split_type":[0,0,0,0,0,0,0,0,0,0,0,0,0,0,0,0,0,0,0,0,0,0,0,0,0,0,0,0,0,0,0,0,0,0,0,0,0],"sum_hessian":[4.5040745E1,2.7382807E1,1.7657938E1,2.5228878E1,2.1539278E0,1.3706434E0,1.6287294E1,2.2581985E1,2.6468928E0,5.061327E0,1.1225967E1,1.3780721E1,8.801265E0,1.1045402E0,1.5423527E0,1.5551611E0,3.506166E0,9.160701E0,2.065266E0,2.728743E0,1.1051977E1,2.2601829E0,6.541082E0,5.0392847E0,4.1214166E0,1.2280835E0,1.5006597E0,2.1768484E0,8.875129E0,1.2117083E0,1.0484747E0,1.3305047E0,5.2105775E0,3.3296857E0,1.7095987E0,1.3040993E0,2.8173172E0],"tree_param":{"num_deleted":"0","num_feature":"6","num_nodes":"37","size_leaf_vector":"0"}},{"base_weights":[3.0816398E-3,6.3766815E-2,-1.4677563E-1,-2.5909066E-2,5.29689E-1,-7.3240113E-1,-1.4909274E-2,3.9648946E-2,-7.2003305E-1,7.699467E-1,3.5248406E-2,4.3780944E-1,-1.633836E-1,-4.2064974E-1,1.1680786E-1,6.723545E-1,-2.504091E-2,-6.3405645E-1,3.0491436E-2,-1.446587E-1,-4.8919317E-1,8.2561624E-1,-3.1977277E-2,5.3498393E-1,-2.1716438E-1,-7.123724E-1,5.8127947E-2,-3.6227092E-1,1.4088348E-1],"categories":[],"categories_nodes":[],"categories_segments":[],"categories_sizes":[],"default_left":[1,1,1,1,1,0,1,1,0,0,0,1,1,1,1,0,0,0,1,0,0,0,1,0,1,0,0,0,0],"id":16,"left_children":[1,3,5,7,9,-1,11,13,-1,-1,-1,15,17,19,21,-1,-1,-1,23,-1,-1,-1,25,-1,27,-1,-1,-1,-1],"loss_changes":[4.0972885E-1,1.3521166E0,9.924046E-1,1.294323E0,5.9258795E-1,0E0,8.529486E-1,9.854583E-1,0E0,0E0,0E0,3.5801834E-1,8.846245E-1,4.943669E-3,2.4900749E0,0E0,0E0,0E0,1.0744942E0,0E0,0E0,0E0,1.2841618E0,0E0,3.552833E-1,0E0,0E0,0E0,0E0],"parents":[2147483647,0,0,1,1,2,2,3,3,4,4,6,6,7,7,11,11,12,12,13,13,14,14,18,18,22,22,24,24],"right_children":[2,4,6,8,10,-1,12,14,-1,-1,-1,16,18,20,22,-1,-1,-1,24,-1,-1,-1,26,-1,28,-1,-1,-1,-1],"split_conditions":[1.3767151E2,2.699025E3,1.390345E2,1.3423325E2,1.882504E7,-2.1972035E-1,1.4014749E2,-3.2901524E7,-2.1600993E-1,2.3098402E-1,1.0574522E-2,-6.6355E3,1.41477E2,1.23578995E2,-8.46075E6,2.0170636E-1,-7.5122733E-3,-1.9021694E-1,1.4270676E2,-4.3397613E-2,-1.4675796E-1,2.4768488E-1,-6.5560145E6,1.6049519E-1,1.4889125E2,-2.1371174E-1,1.7438386E-2,-1.08681284E-1,4.2265043E-2],"split_indices":[5,0,5,5,2,0,5,4,0,0,0,1,5,5,4,0,0,0,5,0,0,0,4,0,5,0,0,0,0],"split_type":[0,0,0,0,0,0,0,0,0,0,0,0,0,0,0,0,0,0,0,0,0,0,0,0,0,0,0,0,0],"sum_hessian":[4.3025116E1,3.1032778E1,1.1992337E1,2.681592E1,4.216859E0,1.3670554E0,1.0625282E1,2.5363308E1,1.4526122E0,2.4628885E0,1.7539701E0,2.1428168E0,8.482466E0,3.002124E0,2.2361183E1,1.1217442E0,1.0210726E0,1.8122952E0,6.6701703E0,1.21607E0,1.7860541E0,3.0902526E0,1.9270931E1,1.8142412E0,4.8559294E0,1.446001E0,1.782493E1,3.4471169E0,1.4088124E0],"tree_param":{"num_deleted":"0","num_feature":"6","num_nodes":"29","size_leaf_vector":"0"}},{"base_weights":[-3.2882418E-3,1.8955806E-2,-4.3737185E-1,-7.35546E-3,4.7594905E-1,6.726121E-2,-1.6380948E-1,1.5290927E-4,7.175489E-1,-3.2595992E-1,1.3029596E-1,-1.06474034E-1,3.3987254E-1,-5.3137084E-3,-6.630512E-1,6.9336617E-1,-3.0833083E-1,-2.014294E-2,-7.189378E-1,-1.264053E-1,7.335813E-1,-5.371763E-1,4.505598E-1,-6.2113553E-1,1.15018666E-1],"categories":[],"categories_nodes":[],"categories_segments":[],"categories_sizes":[],"default_left":[1,1,0,1,0,1,1,1,0,1,1,1,1,1,0,0,1,0,0,0,0,0,0,0,0],"id":17,"left_children":[1,3,-1,5,-1,7,9,11,-1,13,15,17,19,21,-1,-1,23,-1,-1,-1,-1,-1,-1,-1,-1],"loss_changes":[4.1715452E-1,4.9935344E-1,0E0,4.7772527E-1,0E0,1.2120874E0,6.7200327E-1,9.8448336E-1,0E0,9.470834E-1,1.5489141E0,1.079323E0,1.2845966E0,1.5793145E0,0E0,0E0,5.6551147E-1,0E0,0E0,0E0,0E0,0E0,0E0,0E0,0E0],"parents":[2147483647,0,0,1,1,3,3,5,5,6,6,7,7,9,9,10,10,11,11,12,12,13,13,16,16],"right_children":[2,4,-1,6,-1,8,10,12,-1,14,16,18,20,22,-1,-1,24,-1,-1,-1,-1,-1,-1,-1,-1],"split_conditions":[1.9881668E7,1.9798336E7,-1.3121156E-1,1.3637924E2,1.4278471E-1,2.719845E3,2.883455E3,1.76802E5,2.1526468E-1,2.7976802E3,2.907545E3,7.3471E4,-1.38385E4,1.3886674E2,-1.9891536E-1,2.0800985E-1,1.4889125E2,-6.0428823E-3,-2.1568136E-1,-3.7921593E-2,2.200744E-1,-1.611529E-1,1.3516794E-1,-1.8634066E-1,3.4505602E-2],"split_indices":[2,2,0,5,0,0,0,2,0,0,0,2,1,5,0,0,5,0,0,0,0,0,0,0,0],"split_type":[0,0,0,0,0,0,0,0,0,0,0,0,0,0,0,0,0,0,0,0,0,0,0,0,0],"sum_hessian":[4.134396E1,4.023833E1,1.1056292E0,3.897808E1,1.2602481E0,2.6777391E1,1.220069E1,2.5179188E1,1.5982034E0,7.7948256E0,4.4058647E0,1.9686743E1,5.4924455E0,4.5154376E0,3.2793875E0,1.6749486E0,2.730916E0,1.8159868E1,1.5268735E0,2.8253083E0,2.6671371E0,2.0017145E0,2.5137231E0,1.3018277E0,1.4290884E0],"tree_param":{"num_deleted":"0","num_feature":"6","num_nodes":"25","size_leaf_vector":"0"}},{"base_weights":[-2.5843864E-3,-2.4697104E-2,4.2097816E-1,-2.172369E-1,3.543763E-2,-5.1015753E-2,-6.192668E-1,7.330405E-1,-1.5770057E-2,-2.514536E-1,2.8673956E-1,5.903749E-2,-2.7036998E-1,1.1742673E-1,-5.7111824E-1,-2.2976415E-1,7.2399294E-1,3.9620888E-1,-9.13762E-2,1.5513323E-1,-7.1885175E-1,1.889663E-1,-8.9704397E-4,-1.4981753E-1,5.64894E-1,-4.1739333E-1,1.7854612E-2,-2.4969131E-1,4.9515918E-1],"categories":[],"categories_nodes":[],"categories_segments":[],"categories_sizes":[],"default_left":[1,1,0,1,1,1,0,0,1,1,1,1,1,1,0,0,0,1,1,1,0,0,0,0,0,0,0,0,0],"id":18,"left_children":[1,3,-1,5,7,9,-1,-1,11,13,15,17,19,21,-1,-1,-1,23,25,27,-1,-1,-1,-1,-1,-1,-1,-1,-1],"loss_changes":[3.953874E-1,4.709441E-1,0E0,6.140977E-1,1.131373E0,6.086638E-1,0E0,0E0,5.908211E-1,7.16408E-1,9.3849766E-1,1.2609278E0,1.453748E0,2.8831616E-2,0E0,0E0,0E0,7.880554E-1,6.3107324E-1,7.336746E-1,0E0,0E0,0E0,0E0,0E0,0E0,0E0,0E0,0E0],"parents":[2147483647,0,0,1,1,3,3,4,4,5,5,8,8,9,9,10,10,11,11,12,12,13,13,17,17,18,18,19,19],"right_children":[2,4,-1,6,8,10,-1,-1,12,14,16,18,20,22,-1,-1,-1,24,26,28,-1,-1,-1,-1,-1,-1,-1,-1,-1],"split_conditions":[-3.27185E4,1.449E3,1.2629345E-1,1.354775E3,1.7525E3,1.2180701E3,-1.8578005E-1,2.1991216E-1,-8.15E1,1.09575E2,4.831E3,1.2877576E2,3.3405E3,9.9935E1,-1.7133547E-1,-6.892925E-2,2.171979E-1,-3.2901524E7,2.6815352E3,1.22032745E2,-2.1565554E-1,5.6689892E-2,-2.691132E-4,-4.494526E-2,1.6946821E-1,-1.25218E-1,5.356384E-3,-7.490739E-2,1.4854775E-1],"split_indices":[4,0,0,0,0,0,0,0,1,0,2,5,2,0,0,0,0,4,0,5,0,0,0,0,0,0,0,0,0],"split_type":[0,0,0,0,0,0,0,0,0,0,0,0,0,0,0,0,0,0,0,0,0,0,0,0,0,0,0,0,0],"sum_hessian":[4.0104588E1,3.900972E1,1.094869E0,8.662277E0,3.0347443E1,6.925707E0,1.7365705E0,1.1647666E0,2.9182676E1,4.5067387E0,2.4189682E0,2.3149048E1,6.033628E0,2.3860211E0,2.1207178E0,1.326534E0,1.0924342E0,6.6370745E0,1.6511972E1,3.4317758E0,2.601852E0,1.1149098E0,1.2711114E0,1.5928712E0,5.0442033E0,3.4358664E0,1.3076106E1,1.6878923E0,1.7438836E0],"tree_param":{"num_deleted":"0","num_feature":"6","num_nodes":"29","size_leaf_vector":"0"}},{"base_weights":[-1.0597586E-3,-6.0264096E-2,1.4849253E-1,8.584025E-3,-5.8482474E-1,4.931079E-1,-1.4098682E-2,-2.997733E-1,6.867046E-2,-7.8158253E-1,-7.149857E-2,6.008157E-1,1.3819672E-1,-1.7146486E-1,3.1927946E-1,-7.285629E-1,7.7372044E-2,4.0756932E-1,-7.117044E-2,2.1631014E-2,-6.2795997E-1,7.395666E-1,-2.2827087E-1,3.520691E-1,-2.1212542E-1,-1.2327217E-1,5.840598E-1,-2.444368E-1,6.225622E-2,3.5970494E-1,-4.3046898E-1,8.3993185E-1,2.8571334E-1,1.3607606E-1,-3.3815655E-1,4.0328658E-1,-1.367387E-1,-1.293824E-1,6.778255E-1],"categories":[],"categories_nodes":[],"categories_segments":[],"categories_sizes":[],"default_left":[1,1,1,1,1,1,1,1,1,0,0,0,0,1,1,0,1,1,1,1,0,0,0,0,0,0,1,1,1,1,0,0,0,0,0,0,0,0,0],"id":19,"left_children":[1,3,5,7,9,11,13,15,17,-1,-1,-1,-1,19,21,-1,23,25,27,29,-1,-1,-1,-1,-1,-1,31,33,35,37,-1,-1,-1,-1,-1,-1,-1,-1,-1],"loss_changes":[3.6498898E-1,1.0710919E0,6.6212225E-1,5.223174E-1,2.914883E-1,6.1317086E-2,5.2254266E-1,8.006769E-1,1.1416255E0,0E0,0E0,0E0,0E0,6.048818E-1,9.072423E-1,0E0,3.4130648E-1,7.2841084E-1,4.1910994E-1,1.0231053E0,0E0,0E0,0E0,0E0,0E0,0E0,1.7472327E-1,3.2430297E-1,7.790461E-1,6.781628E-1,0E0,0E0,0E0,0E0,0E0,0E0,0E0,0E0,0E0],"parents":[2147483647,0,0,1,1,2,2,3,3,4,4,5,5,6,6,7,7,8,8,13,13,14,14,16,16,17,17,18,18,19,19,26,26,27,27,28,28,29,29],"right_children":[2,4,6,8,10,12,14,16,18,-1,-1,-1,-1,20,22,-1,24,26,28,30,-1,-1,-1,-1,-1,-1,32,34,36,38,-1,-1,-1,-1,-1,-1,-1,-1,-1],"split_conditions":[-9.99595E4,-2.12094E5,-8.69205E4,2.0469299E3,2.64687E3,1.647915E3,-4.2431E4,7.1775E4,1.2877576E2,-2.3447476E-1,-2.1449573E-2,1.8024471E-1,4.1459017E-2,-5.1063E4,-3.05E1,-2.1856888E-1,3.171015E5,-3.2901524E7,2.740005E3,4.484E3,-1.88388E-1,2.2186999E-1,-6.848127E-2,1.05620734E-1,-6.363763E-2,-3.6981653E-2,3.80985E4,-3.7804504E7,2.79819E3,2.5585E3,-1.291407E-1,2.5197956E-1,8.5714005E-2,4.082282E-2,-1.0144697E-1,1.2098598E-1,-4.102161E-2,-3.8814723E-2,2.0334767E-1],"split_indices":[4,4,4,0,0,0,4,2,5,0,0,0,0,4,1,0,2,4,0,2,0,0,0,0,0,0,2,4,0,2,0,0,0,0,0,0,0,0,0],"split_type":[0,0,0,0,0,0,0,0,0,0,0,0,0,0,0,0,0,0,0,0,0,0,0,0,0,0,0,0,0,0,0,0,0,0,0,0,0,0,0],"sum_hessian":[3.92117E1,2.8518799E1,1.0692904E1,2.607952E1,2.4392781E0,2.776099E0,7.916805E0,3.6025538E0,2.2476967E1,1.3855952E0,1.0536829E0,1.5982134E0,1.1778855E0,5.7080703E0,2.2087345E0,1.2498143E0,2.3527396E0,6.006334E0,1.6470633E1,4.6807456E0,1.0273246E0,1.0511858E0,1.1575488E0,1.0963249E0,1.2564148E0,1.573913E0,4.432421E0,6.8035827E0,9.667049E0,2.7950304E0,1.8857154E0,1.4088516E0,3.0235693E0,1.2552357E0,5.548347E0,3.1839292E0,6.4831204E0,1.3353374E0,1.4596931E0],"tree_param":{"num_deleted":"0","num_feature":"6","num_nodes":"39","size_leaf_vector":"0"}},{"base_weights":[1.7445844E-3,2.3587884E-2,-4.1144913E-1,-1.0453227E-2,3.3225712E-1,2.1220708E-2,-5.370827E-1,6.8565243E-1,-7.7076115E-2,-1.2959287E-2,5.1516956E-1,2.3098098E-2,-4.0801057E-1,-3.5422064E-2,5.6002814E-1],"categories":[],"categories_nodes":[],"categories_segments":[],"categories_sizes":[],"default_left":[1,1,0,1,1,1,0,0,0,1,0,1,0,0,0],"id":20,"left_children":[1,3,-1,5,7,9,-1,-1,-1,11,-1,13,-1,-1,-1],"loss_changes":[3.6287388E-1,4.0392327E-1,0E0,6.001337E-1,6.048624E-1,5.8500344E-1,0E0,0E0,0E0,4.796812E-1,0E0,1.0001305E0,0E0,0E0,0E0],"parents":[2147483647,0,0,1,1,3,3,4,4,5,5,9,9,11,11],"right_children":[2,4,-1,6,8,10,-1,-1,-1,12,-1,14,-1,-1,-1],"split_conditions":[1.9881668E7,1.9635452E7,-1.23434745E-1,1.9541992E7,1.4101901E2,1.917298E7,-1.6112481E-1,2.0569573E-1,-2.3122836E-2,1.4514024E2,1.5455088E-1,2.86658E3,-1.22403175E-1,-1.062662E-2,1.6800845E-1],"split_indices":[2,2,0,2,5,2,0,0,0,5,0,0,0,0,0],"split_type":[0,0,0,0,0,0,0,0,0,0,0,0,0,0,0],"sum_hessian":[3.8130035E1,3.7111088E1,1.0189478E0,3.4295044E1,2.8160417E0,3.325466E1,1.0403848E0,1.1490067E0,1.667035E0,3.2013195E1,1.241467E0,3.0198433E1,1.8147602E0,2.80728E1,2.1256342E0],"tree_param":{"num_deleted":"0","num_feature":"6","num_nodes":"15","size_leaf_vector":"0"}},{"base_weights":[3.5053992E-3,5.7727285E-2,-1.3151503E-1,6.807863E-3,6.650077E-1,-3.129E-1,1.2976186E-1,5.9825163E-2,-3.2402262E-1,-5.2493775E-1,8.240736E-2,4.8026454E-1,-1.8947071E-1,-4.780267E-2,4.7819275E-1,4.6113297E-2,-4.7165945E-1,1.373661E-1,-8.4386975E-1,3.8055417E-1,-2.14331E-1,9.512692E-2,-4.243443E-1,4.7377523E-2,-4.0657243E-1,6.591108E-1,4.502027E-2,-5.3516045E-2,5.119376E-1,-5.7532955E-2,-5.034997E-1],"categories":[],"categories_nodes":[],"categories_segments":[],"categories_sizes":[],"default_left":[1,1,1,1,0,1,1,1,1,1,1,0,1,1,1,0,0,0,0,0,0,0,0,1,1,0,0,0,0,0,0],"id":21,"left_children":[1,3,5,7,-1,9,11,13,15,17,19,-1,21,23,25,-1,-1,-1,-1,-1,-1,-1,-1,27,29,-1,-1,-1,-1,-1,-1],"loss_changes":[2.9002222E-1,8.68083E-1,5.7889557E-1,4.9377552E-1,0E0,6.2977445E-1,6.90856E-1,1.1105136E0,2.344065E-1,1.1066045E0,3.7416092E-1,0E0,2.758453E-1,7.0637184E-1,3.6478996E-1,0E0,0E0,0E0,0E0,0E0,0E0,0E0,0E0,8.147544E-1,1.17295444E-1,0E0,0E0,0E0,0E0,0E0,0E0],"parents":[2147483647,0,0,1,1,2,2,3,3,5,5,6,6,7,7,8,8,9,9,10,10,12,12,13,13,14,14,23,23,24,24],"right_children":[2,4,6,8,-1,10,12,14,16,18,20,-1,22,24,26,-1,-1,-1,-1,-1,-1,-1,-1,28,30,-1,-1,-1,-1,-1,-1],"split_conditions":[1.3767151E2,1.368575E2,1.8776564E7,1.3436525E2,1.9950232E-1,2.87965E3,1.9014136E7,2.537135E3,-1.2944E4,-6.05E1,2.9054102E3,1.4407937E-1,-3.8973572E7,2.3362148E3,-8.0031775E6,1.3833989E-2,-1.4149784E-1,4.120983E-2,-2.5316092E-1,1.1416625E-1,-6.42993E-2,2.8538076E-2,-1.273033E-1,2.1598398E3,1.20692E2,1.9773324E-1,1.3506082E-2,-1.6054815E-2,1.5358129E-1,-1.7259886E-2,-1.5104991E-1],"split_indices":[5,5,2,5,0,0,2,0,1,3,0,0,4,0,4,0,0,0,0,0,0,0,0,0,5,0,0,0,0,0,0],"split_type":[0,0,0,0,0,0,0,0,0,0,0,0,0,0,0,0,0,0,0,0,0,0,0,0,0,0,0,0,0,0,0],"sum_hessian":[3.7577766E1,2.7219385E1,1.0358383E1,2.6046629E1,1.1727549E0,5.9973154E0,4.361068E0,2.3155075E1,2.891554E0,3.690081E0,2.3072345E0,1.8382828E0,2.522785E0,1.9121645E1,4.0334296E0,1.0205703E0,1.870984E0,1.3844284E0,2.3056524E0,1.0099919E0,1.2972426E0,1.4096686E0,1.1131164E0,1.579835E1,3.323295E0,2.4772122E0,1.5562177E0,1.37063875E1,2.0919626E0,1.0686405E0,2.2546546E0],"tree_param":{"num_deleted":"0","num_feature":"6","num_nodes":"31","size_leaf_vector":"0"}},{"base_weights":[5.870252E-3,-4.8425958E-2,1.5068112E-1,3.0858018E-2,-3.4172714E-1,4.4436064E-1,-1.0569568E-1,-2.0315295E-2,4.5749778E-1,-6.8518627E-1,2.188665E-2,7.3305935E-1,1.3122787E-1,-5.8489144E-1,1.6450855E-1,2.9863784E-2,-3.7962767E-1,3.049828E-1,-3.78776E-1,-2.7221003E-1,4.9210414E-1,3.9629343E-1,-1.8342455E-1,-7.212166E-2,3.470733E-1,7.9662865E-1,-1.7869243E-1,1.7227589E-1,-2.034512E-1,-1.0513839E-1,6.522892E-1],"categories":[],"categories_nodes":[],"categories_segments":[],"categories_sizes":[],"default_left":[1,1,1,1,1,1,1,1,0,0,1,0,1,0,1,1,0,0,0,0,0,1,0,1,1,0,0,0,0,0,0],"id":22,"left_children":[1,3,5,7,9,11,13,15,-1,-1,17,-1,19,-1,21,23,-1,-1,-1,-1,-1,25,-1,27,29,-1,-1,-1,-1,-1,-1],"loss_changes":[3.0100653E-1,6.5991664E-1,8.3225703E-1,5.092588E-1,7.6745147E-1,3.6063665E-1,9.2184335E-1,3.9726612E-1,0E0,0E0,5.5739766E-1,0E0,6.642241E-1,0E0,4.644515E-1,6.62632E-1,0E0,0E0,0E0,0E0,0E0,8.8630444E-1,0E0,5.4031336E-1,7.541403E-1,0E0,0E0,0E0,0E0,0E0,0E0],"parents":[2147483647,0,0,1,1,2,2,3,3,4,4,5,5,6,6,7,7,10,10,12,12,14,14,15,15,21,21,23,23,24,24],"right_children":[2,4,6,8,10,12,14,16,-1,-1,18,-1,20,-1,22,24,-1,-1,-1,-1,-1,26,-1,28,30,-1,-1,-1,-1,-1,-1],"split_conditions":[-9.43855E4,-1.948908E6,-5.45E1,-2.849049E6,1.218195E2,5.259E3,-3.15E1,-5.7625625E6,1.3724934E-1,-2.0555589E-1,1.3771475E2,2.1991782E-1,-8.10855E4,-1.7546743E-1,1.024195E2,-4.0995E3,-1.1388831E-1,9.149484E-2,-1.13632806E-1,-8.166301E-2,1.4763124E-1,-4.00855E4,-5.5027366E-2,1.3436525E2,2.623455E3,2.3898861E-1,-5.3607732E-2,5.1682767E-2,-6.103536E-2,-3.154152E-2,1.9568677E-1],"split_indices":[4,4,1,4,5,2,1,4,0,0,5,0,4,0,5,1,0,0,0,0,0,4,0,5,0,0,0,0,0,0,0],"split_type":[0,0,0,0,0,0,0,0,0,0,0,0,0,0,0,0,0,0,0,0,0,0,0,0,0,0,0,0,0,0,0],"sum_hessian":[3.63549E1,2.6925056E1,9.429842E0,2.1899944E1,5.0251126E0,4.053419E0,5.376423E0,2.0404865E1,1.4950789E0,2.1293812E0,2.8957314E0,1.4112452E0,2.642174E0,1.5186082E0,3.8578146E0,1.8708984E1,1.695881E0,1.836746E0,1.0589855E0,1.3635285E0,1.2786455E0,2.231949E0,1.6258656E0,1.4741961E1,3.9670238E0,1.0885608E0,1.1433882E0,5.0438433E0,9.698117E0,1.8627212E0,2.1043024E0],"tree_param":{"num_deleted":"0","num_feature":"6","num_nodes":"31","size_leaf_vector":"0"}},{"base_weights":[9.152071E-3,2.7813168E-2,-3.1977776E-1,-3.468104E-3,2.8293964E-1,3.0355128E-2,-3.9586812E-1,-5.200338E-2,4.8219737E-1,-1.6434686E-2,2.8065786E-1,-3.1652966E-1,5.4200478E-2,6.202654E-1,-1.5338206E-1,4.8137646E-2,-4.965891E-1,-4.4747293E-2,3.946127E-1],"categories":[],"categories_nodes":[],"categories_segments":[],"categories_sizes":[],"default_left":[1,1,0,1,1,1,0,0,0,1,1,1,1,0,0,0,0,0,0],"id":23,"left_children":[1,3,-1,5,7,9,-1,-1,-1,11,13,15,17,-1,-1,-1,-1,-1,-1],"loss_changes":[2.3229769E-1,2.8319162E-1,0E0,4.431971E-1,2.8364596E-1,3.6577684E-1,0E0,0E0,0E0,5.8791417E-1,8.1919533E-1,3.7036335E-1,7.8056574E-1,0E0,0E0,0E0,0E0,0E0,0E0],"parents":[2147483647,0,0,1,1,3,3,4,4,5,5,9,9,10,10,11,11,12,12],"right_children":[2,4,-1,6,8,10,-1,-1,-1,12,14,16,18,-1,-1,-1,-1,-1,-1],"split_conditions":[2.98498E3,2.883455E3,-9.593333E-2,2.8403901E3,-4.6605E3,2.748945E3,-1.18760444E-1,-1.5601015E-2,1.4465922E-1,-3.2901524E7,-8.496E3,-3.7804504E7,1.76802E5,1.8607964E-1,-4.601462E-2,1.4441295E-2,-1.4897673E-1,-1.3424189E-2,1.1838382E-1],"split_indices":[0,0,0,0,1,0,0,0,0,4,1,4,2,0,0,0,0,0,0],"split_type":[0,0,0,0,0,0,0,0,0,0,0,0,0,0,0,0,0,0,0],"sum_hessian":[3.5395683E1,3.4361694E1,1.03399E0,3.1487402E1,2.8742905E0,2.9838123E1,1.6492785E0,1.3477684E0,1.526522E0,2.5926035E1,3.9120882E0,4.2764134E0,2.1649622E1,1.9540901E0,1.957998E0,1.6557481E0,2.620665E0,1.744688E1,4.2027426E0],"tree_param":{"num_deleted":"0","num_feature":"6","num_nodes":"19","size_leaf_vector":"0"}},{"base_weights":[6.825607E-3,-4.7666978E-2,1.3736677E-1,9.85633E-3,-4.9180734E-1,4.3685368E-1,-1.3222105E-2,-2.837375E-1,7.0732325E-2,-1.5497023E-1,2.8256702E-1,-6.454843E-1,3.1165946E-2,3.4079704E-1,-4.132813E-2,2.5621948E-1,-2.972762E-1,3.4223866E-1,-2.667049E-1,1.3471219E-1,6.6262376E-1,6.780091E-2,-2.630935E-1,-6.3310355E-1,1.2257579E-1,3.8587463E-1,-3.4882727E-1,1.479833E-1,-2.7585256E-1,-6.719967E-1,7.629326E-2,-3.539781E-2,2.1723938E-1],"categories":[],"categories_nodes":[],"categories_segments":[],"categories_sizes":[],"default_left":[1,1,1,1,0,0,1,1,1,1,0,0,1,1,1,0,1,0,0,1,0,1,1,0,1,0,0,0,0,0,0,0,0],"id":24,"left_children":[1,3,5,7,-1,-1,9,11,13,15,-1,-1,17,19,21,-1,23,-1,-1,25,-1,27,29,-1,31,-1,-1,-1,-1,-1,-1,-1,-1],"loss_changes":[2.6252976E-1,6.724263E-1,4.9534327E-1,4.5105636E-1,0E0,0E0,3.8733926E-1,5.1460713E-1,6.427572E-1,4.380901E-1,0E0,0E0,3.9470172E-1,3.2194495E-1,3.9472607E-1,0E0,7.9074585E-1,0E0,0E0,7.4607164E-1,0E0,3.5032618E-1,7.924664E-1,0E0,5.3831685E-2,0E0,0E0,0E0,0E0,0E0,0E0,0E0,0E0],"parents":[2147483647,0,0,1,1,2,2,3,3,6,6,7,7,8,8,9,9,12,12,13,13,14,14,16,16,19,19,21,21,22,22,24,24],"right_children":[2,4,6,8,-1,-1,10,12,14,16,-1,-1,18,20,22,-1,24,-1,-1,26,-1,28,30,-1,32,-1,-1,-1,-1,-1,-1,-1,-1],"split_conditions":[-9.99595E4,-2.12094E5,-8.69205E4,2.0469299E3,-1.4754221E-1,1.3105612E-1,-4.2431E4,7.1775E4,1.2877576E2,6.73125E1,8.477011E-2,-1.9364531E-1,3.171015E5,2.50597E3,1.9014136E7,7.6865844E-2,-3.15E1,1.026716E-1,-8.001147E-2,1.2064725E2,1.9878714E-1,2.9138599E3,1.9635452E7,-1.8993108E-1,-5.37665E4,1.1576239E-1,-1.0464819E-1,4.4394992E-2,-8.2755774E-2,-2.0159902E-1,2.2887979E-2,-1.0619343E-2,6.5171815E-2],"split_indices":[4,4,4,0,0,0,4,2,5,5,0,0,2,0,2,0,1,0,0,5,0,0,2,0,4,0,0,0,0,0,0,0,0],"split_type":[0,0,0,0,0,0,0,0,0,0,0,0,0,0,0,0,0,0,0,0,0,0,0,0,0,0,0,0,0,0,0,0,0],"sum_hessian":[3.4985233E1,2.5129942E1,9.855292E0,2.3114103E1,2.0158393E0,2.661402E0,7.19389E0,3.3408556E0,1.9773247E1,5.1851435E0,2.0087469E0,1.0662317E0,2.2746239E0,5.200031E0,1.4573216E1,1.1273137E0,4.0578294E0,1.0397948E0,1.2348291E0,4.0348573E0,1.1651733E0,1.02322645E1,4.3409514E0,1.972313E0,2.0855165E0,2.7884474E0,1.2464099E0,8.7581625E0,1.474102E0,1.5243444E0,2.8166072E0,1.0160351E0,1.0694815E0],"tree_param":{"num_deleted":"0","num_feature":"6","num_nodes":"33","size_leaf_vector":"0"}},{"base_weights":[-1.0887709E-3,-4.786101E-2,1.2194445E-1,-3.4766817E-1,1.770868E-2,3.9716604E-1,-1.1474188E-1,-7.032742E-1,2.82848E-2,9.6410416E-2,-1.582414E-1,6.020522E-1,1.4638127E-1,-4.97423E-1,1.0090465E-1,2.876429E-1,-2.2636838E-1,3.3122078E-1,-8.931972E-2,-5.2812564E-1,8.6719155E-2,-2.1594368E-1,4.5767987E-1,3.0935138E-1,-1.8729934E-1,4.9227053E-1,-1.0865111E-1,-4.3020093E-1,9.048852E-2,2.972475E-1,-1.8377759E-1,7.08234E-1,1.4200407E-1,-5.651063E-1,-1.5020825E-1,7.253549E-1,-1.4119656E-1],"categories":[],"categories_nodes":[],"categories_segments":[],"categories_sizes":[],"default_left":[1,1,1,1,1,1,1,0,1,1,1,0,1,0,1,0,0,1,1,0,1,0,0,0,0,1,0,1,1,0,0,0,0,0,0,0,0],"id":25,"left_children":[1,3,5,7,9,11,13,-1,15,17,19,-1,21,-1,23,-1,-1,25,27,-1,29,-1,-1,-1,-1,31,-1,33,35,-1,-1,-1,-1,-1,-1,-1,-1],"loss_changes":[2.0687918E-1,5.178895E-1,6.907914E-1,6.5091527E-1,3.2421532E-1,1.5870172E-1,5.5368173E-1,0E0,2.8014052E-1,7.2899497E-1,7.048818E-1,0E0,4.9148297E-1,0E0,3.423101E-1,0E0,0E0,5.702887E-1,6.360544E-1,0E0,3.527445E-1,0E0,0E0,0E0,0E0,3.1705344E-1,0E0,4.8755646E-2,1.162064E0,0E0,0E0,0E0,0E0,0E0,0E0,0E0,0E0],"parents":[2147483647,0,0,1,1,2,2,3,3,4,4,5,5,6,6,8,8,9,9,10,10,12,12,14,14,17,17,18,18,20,20,25,25,27,27,28,28],"right_children":[2,4,6,8,10,12,14,-1,16,18,20,-1,22,-1,24,-1,-1,26,28,-1,30,-1,-1,-1,-1,32,-1,34,36,-1,-1,-1,-1,-1,-1,-1,-1],"split_conditions":[-9.43855E4,2.0469299E3,-5.45E1,7.1775E4,1.4014749E2,5.259E3,-3.15E1,-2.1098226E-1,3.171015E5,3.80705E4,1.88245E4,1.8061566E-1,-8.10855E4,-1.492269E-1,1.024195E2,8.629287E-2,-6.7910515E-2,-8.15E1,1.76802E5,-1.584377E-1,-3.8575264E7,-6.4783104E-2,1.3730396E-1,9.2805415E-2,-5.6189805E-2,1.3436525E2,-3.2595333E-2,7.0556E4,1.19835495E2,8.9174256E-2,-5.513328E-2,2.1247022E-1,4.2601224E-2,-1.6953188E-1,-4.5062475E-2,2.1760648E-1,-4.2358972E-2],"split_indices":[4,0,1,2,5,2,1,0,2,2,2,0,4,0,5,0,0,1,2,0,4,0,0,0,0,5,0,2,5,0,0,0,0,0,0,0,0],"split_type":[0,0,0,0,0,0,0,0,0,0,0,0,0,0,0,0,0,0,0,0,0,0,0,0,0,0,0,0,0,0,0,0,0,0,0,0,0],"sum_hessian":[3.3936382E1,2.5031435E1,8.904945E0,3.7200084E0,2.1311426E1,3.8038073E0,5.101138E0,1.4643071E0,2.2557013E0,1.5037344E1,6.2740827E0,1.3225981E0,2.4812093E0,1.3675889E0,3.733549E0,1.0533462E0,1.2023551E0,6.2952256E0,8.742118E0,2.0391126E0,4.23497E0,1.2881851E0,1.1930242E0,2.1239803E0,1.6095687E0,4.5208793E0,1.7743466E0,2.5380046E0,6.2041135E0,2.3258555E0,1.9091147E0,2.1643941E0,2.356485E0,1.0255753E0,1.5124295E0,1.089065E0,5.1150484E0],"tree_param":{"num_deleted":"0","num_feature":"6","num_nodes":"37","size_leaf_vector":"0"}},{"base_weights":[-6.27685E-4,1.9241871E-2,-2.7842596E-1,-8.497345E-3,2.9776236E-1,1.7654294E-2,-2.9892668E-1,-2.794946E-2,4.6275377E-1,1.2444464E-2,-4.247986E-1,2.470128E-1,-5.2790936E-2],"categories":[],"categories_nodes":[],"categories_segments":[],"categories_sizes":[],"default_left":[1,1,0,1,0,1,0,1,0,1,0,0,0],"id":26,"left_children":[1,3,-1,5,-1,7,-1,9,-1,11,-1,-1,-1],"loss_changes":[1.9224842E-1,2.5388584E-1,0E0,2.3738298E-1,0E0,6.011621E-1,0E0,4.4177783E-1,0E0,4.0607876E-1,0E0,0E0,0E0],"parents":[2147483647,0,0,1,1,3,3,5,5,7,7,9,9],"right_children":[2,4,-1,6,-1,8,-1,10,-1,12,-1,-1,-1],"split_conditions":[1.9846948E7,1.9635452E7,-8.352779E-2,2.907545E3,8.932871E-2,2.87158E3,-8.9678004E-2,1.4014749E2,1.3882613E-1,3.2355E3,-1.2743959E-1,7.410384E-2,-1.5837282E-2],"split_indices":[2,2,0,0,0,0,0,5,0,2,0,0,0],"split_type":[0,0,0,0,0,0,0,0,0,0,0,0,0],"sum_hessian":[3.2858727E1,3.1533989E1,1.3247381E0,2.9559505E1,1.9744844E0,2.7979326E1,1.5801785E0,2.622916E1,1.7501664E0,2.468518E1,1.5439787E0,4.765018E0,1.9920162E1],"tree_param":{"num_deleted":"0","num_feature":"6","num_nodes":"13","size_leaf_vector":"0"}},{"base_weights":[-1.1254548E-3,-1.9204226E-1,2.3344288E-2,5.1567234E-2,-4.00112E-1,3.2520324E-1,-2.7915293E-2,-4.8163358E-2,5.289853E-1,-2.4604553E-1,3.6522362E-2,9.0576895E-2,-4.7609282E-1,-3.905524E-2,3.0518863E-1,-1.7503011E-1,2.8635013E-1,7.4714564E-2,-2.4699035E-1,6.6686654E-1,-6.8649195E-2,-4.2880695E-2,5.5689096E-1,-5.065265E-1,2.7461034E-1,-4.3294147E-1,2.7817225E-1],"categories":[],"categories_nodes":[],"categories_segments":[],"categories_sizes":[],"default_left":[1,1,1,0,0,1,1,0,0,1,1,1,0,1,1,0,0,1,1,0,1,0,0,0,0,0,0],"id":27,"left_children":[1,3,5,-1,-1,7,9,-1,-1,11,13,15,-1,17,19,-1,-1,21,23,-1,25,-1,-1,-1,-1,-1,-1],"loss_changes":[1.6102825E-1,2.1909204E-1,4.824644E-1,0E0,0E0,3.6939597E-1,3.8953096E-1,0E0,0E0,5.3124166E-1,4.5397463E-1,2.268664E-1,0E0,4.4137684E-1,7.0737255E-1,0E0,0E0,7.226106E-1,1.0264156E0,0E0,5.3898287E-1,0E0,0E0,0E0,0E0,0E0,0E0],"parents":[2147483647,0,0,1,1,2,2,5,5,6,6,9,9,10,10,11,11,13,13,14,14,17,17,18,18,20,20],"right_children":[2,4,6,-1,-1,8,10,-1,-1,12,14,16,-1,18,20,-1,-1,22,24,-1,26,-1,-1,-1,-1,-1,-1],"split_conditions":[1.714E3,1.3582074E2,3.2355E3,1.547017E-2,-1.2003361E-1,1.22032745E2,5.049E3,-1.4449008E-2,1.5869561E-1,7.3876495E1,-1.215E3,1.347105E3,-1.4282785E-1,-8.0031125E6,-9.10415E4,-5.2509036E-2,8.5905045E-2,-1.3638804E7,1.76802E5,2.0005997E-1,-8.10855E4,-1.2864209E-2,1.6706729E-1,-1.5195796E-1,8.23831E-2,-1.2988244E-1,8.345168E-2],"split_indices":[2,5,2,0,0,5,2,0,0,5,1,0,0,4,4,0,0,4,2,0,4,0,0,0,0,0,0],"split_type":[0,0,0,0,0,0,0,0,0,0,0,0,0,0,0,0,0,0,0,0,0,0,0,0,0,0,0],"sum_hessian":[3.2509354E1,2.9153304E0,2.9594023E1,1.6894612E0,1.2258693E0,3.5201595E0,2.6073864E1,1.5125463E0,2.0076132E0,5.3032594E0,2.0770605E1,2.399053E0,2.904206E0,1.6877487E1,3.8931165E0,1.062927E0,1.3361262E0,1.1322932E1,5.554556E0,1.5803407E0,2.3127756E0,9.83532E0,1.4876119E0,3.728328E0,1.8262278E0,1.0068716E0,1.305904E0],"tree_param":{"num_deleted":"0","num_feature":"6","num_nodes":"27","size_leaf_vector":"0"}},{"base_weights":[3.9695823E-3,2.0593297E-1,-1.6230153E-2,-3.405395E-1,2.1136768E-2,-4.2110604E-1,-1.09968275E-1,2.8582636E-1,-2.8255964E-2,-4.950316E-2,3.982344E-1,-5.77953E-1,2.8129585E-2,-1.2279533E-2,5.9287846E-1,4.4777015E-1,-2.7576137E-2,-2.9868576E-1,6.028859E-2],"categories":[],"categories_nodes":[],"categories_segments":[],"categories_sizes":[],"default_left":[1,0,1,1,1,0,0,1,1,0,1,0,1,0,0,0,1,0,0],"id":28,"left_children":[1,-1,3,5,7,-1,-1,9,11,-1,13,-1,15,-1,-1,-1,17,-1,-1],"loss_changes":[1.3730575E-1,0E0,3.8018674E-1,1.3848603E-2,3.812042E-1,0E0,0E0,1.9228399E-1,7.89955E-1,0E0,2.900914E-1,0E0,5.6387454E-1,0E0,0E0,0E0,5.366E-1,0E0,0E0],"parents":[2147483647,0,0,2,2,3,3,4,4,7,7,8,8,10,10,12,12,16,16],"right_children":[2,-1,4,6,8,-1,-1,10,12,-1,14,-1,16,-1,-1,-1,18,-1,-1],"split_conditions":[6.453225E1,6.1779894E-2,7.2136505E1,1.347105E3,1.0138275E2,-1.2633182E-1,-3.2990485E-2,-9.60135E4,1.03751755E2,-1.4850948E-2,3.725E3,-1.733859E-1,1.1080875E2,-3.68386E-3,1.7786354E-1,1.3433105E-1,2.495755E3,-8.9605734E-2,1.8086577E-2],"split_indices":[5,0,5,0,5,0,0,4,5,0,2,0,5,0,0,0,0,0,0],"split_type":[0,0,0,0,0,0,0,0,0,0,0,0,0,0,0,0,0,0,0],"sum_hessian":[3.1837337E1,2.058724E0,2.9778614E1,2.2383626E0,2.754025E1,1.0463762E0,1.1919862E0,3.5782168E0,2.3962034E1,1.0388346E0,2.5393822E0,1.3686998E0,2.2593334E1,1.1181216E0,1.4212606E0,1.8229103E0,2.0770424E1,4.4966073E0,1.6273817E1],"tree_param":{"num_deleted":"0","num_feature":"6","num_nodes":"19","size_leaf_vector":"0"}},{"base_weights":[1.2169168E-3,3.6101677E-2,-1.2561661E-1,6.810797E-2,-2.984804E-1,-2.3528127E-1,2.3159902E-1,3.1580773E-1,3.132998E-3,-6.4331114E-2,-5.446613E-1,5.180083E-2,6.624975E-1,-1.8363343E-1,5.380909E-2,-2.7873787E-1,3.2844046E-1,-3.0592513E-1,3.2696792E-1,1.0271829E-1,-5.1398957E-1,5.7237583E-1,-2.2251954E-2,5.0566163E-2,-4.5667976E-1,-6.166908E-2,2.2865607E-1,-3.6201414E-1,4.585894E-2],"categories":[],"categories_nodes":[],"categories_segments":[],"categories_sizes":[],"default_left":[1,1,1,1,0,1,0,1,1,1,0,1,0,1,1,1,0,0,0,1,0,0,1,0,0,0,0,0,0],"id":29,"left_children":[1,3,5,7,-1,9,-1,11,13,15,-1,17,-1,19,21,23,-1,-1,-1,25,-1,-1,27,-1,-1,-1,-1,-1,-1],"loss_changes":[1.4835542E-1,3.0164772E-1,3.3791444E-1,3.979984E-1,0E0,2.8396627E-1,0E0,4.3628228E-1,2.0531633E-1,5.142052E-1,0E0,4.941265E-1,0E0,4.9112976E-1,6.838719E-1,2.4503204E-1,0E0,0E0,0E0,8.2742E-2,0E0,0E0,3.8227236E-1,0E0,0E0,0E0,0E0,0E0,0E0],"parents":[2147483647,0,0,1,1,2,2,3,3,5,5,7,7,8,8,9,9,11,11,13,13,14,14,15,15,19,19,22,22],"right_children":[2,4,6,8,-1,10,-1,12,14,16,-1,18,-1,20,22,24,-1,-1,-1,26,-1,-1,28,-1,-1,-1,-1,-1,-1],"split_conditions":[1.4014749E2,-2.75E1,1.4889125E2,3.2355E3,-8.954412E-2,2.907545E3,6.947971E-2,2.5585E3,1.2180701E3,2.88377E3,-1.6339839E-1,2.444505E3,1.9874926E-1,1.15795E2,6.6145996E1,-3.8473936E7,9.853214E-2,-9.177754E-2,9.809038E-2,-1.1775E3,-1.5419687E-1,1.7171276E-1,1.449E3,1.516985E-2,-1.3700393E-1,-1.8500725E-2,6.8596825E-2,-1.08604245E-1,1.3757682E-2],"split_indices":[5,1,5,2,0,0,0,2,0,0,0,0,0,0,5,4,0,0,0,1,0,0,0,0,0,0,0,0,0],"split_type":[0,0,0,0,0,0,0,0,0,0,0,0,0,0,0,0,0,0,0,0,0,0,0,0,0,0,0,0,0],"sum_hessian":[3.1505047E1,2.5270042E1,6.235004E0,2.3790655E1,1.4793874E0,5.0316434E0,1.2033603E0,4.14157E0,1.9649086E1,4.0189047E0,1.012739E0,3.003669E0,1.1379013E0,3.6336436E0,1.6015442E1,2.7875586E0,1.231346E0,1.2573259E0,1.7463431E0,2.3155766E0,1.3180671E0,1.2139299E0,1.4801512E1,1.228988E0,1.5585705E0,1.225823E0,1.0897536E0,1.7511351E0,1.3050377E1],"tree_param":{"num_deleted":"0","num_feature":"6","num_nodes":"29","size_leaf_vector":"0"}},{"base_weights":[-4.564672E-4,-2.0348331E-2,2.1269357E-1,1.2262935E-2,-2.549916E-1,-4.223433E-2,2.2143792E-1,1.5894886E-2,-4.4100165E-1,2.899032E-2,-4.3292823E-1,4.518551E-1,-3.219137E-2,-1.6158916E-2,3.8430485E-1,-5.944004E-1,-1.315567E-1,5.378591E-1,1.4613622E-1,1.896179E-1,-2.0792276E-1,1.4296587E-1,-9.5796466E-2],"categories":[],"categories_nodes":[],"categories_segments":[],"categories_sizes":[],"default_left":[1,1,0,1,1,1,1,0,0,1,1,1,1,1,0,0,0,0,0,0,0,0,0],"id":30,"left_children":[1,3,-1,5,7,9,11,-1,-1,13,15,17,19,21,-1,-1,-1,-1,-1,-1,-1,-1,-1],"loss_changes":[1.393251E-1,2.3294964E-1,0E0,3.208257E-1,1.9398628E-1,6.391031E-1,3.5394248E-1,0E0,0E0,3.2675502E-1,9.380555E-2,3.158331E-3,1.8357061E-1,2.505194E-1,0E0,0E0,0E0,0E0,0E0,0E0,0E0,0E0,0E0],"parents":[2147483647,0,0,1,1,3,3,4,4,5,5,6,6,9,9,10,10,11,11,12,12,13,13],"right_children":[2,4,-1,6,8,10,12,-1,-1,14,16,18,20,22,-1,-1,-1,-1,-1,-1,-1,-1,-1],"split_conditions":[-4.2431E4,-6.9422E4,6.3808076E-2,-1.38729E5,1.0138275E2,-1.948908E6,3.6035E3,4.768466E-3,-1.323005E-1,-2.849049E6,1.21254745E2,-4.3E1,-9.10415E4,-6.5E0,1.1529146E-1,-1.7832012E-1,-3.9467014E-2,1.6135773E-1,4.384087E-2,5.6885373E-2,-6.237683E-2,4.2889763E-2,-2.873894E-2],"split_indices":[4,4,0,4,5,4,2,0,0,4,5,1,4,3,0,0,0,0,0,0,0,0,0],"split_type":[0,0,0,0,0,0,0,0,0,0,0,0,0,0,0,0,0,0,0,0,0,0,0],"sum_hessian":[3.0839315E1,2.9034275E1,1.805039E0,2.6323511E1,2.7107646E0,2.1515957E1,4.8075542E0,1.4759241E0,1.2348405E0,1.898139E1,2.5345657E0,2.1095304E0,2.6980238E0,1.7688292E1,1.2931E0,1.0172268E0,1.5173389E0,1.0537632E0,1.0557674E0,1.1577204E0,1.5403035E0,5.634573E0,1.2053718E1],"tree_param":{"num_deleted":"0","num_feature":"6","num_nodes":"23","size_leaf_vector":"0"}},{"base_weights":[8.1858283E-4,-1.9550331E-1,2.679558E-2,2.9437149E-2,-3.809007E-1,2.6640376E-1,-1.2897679E-2,-4.855251E-2,4.3036196E-1,-3.7186176E-1,1.8036867E-2,-1.7272664E-2,3.279778E-1,-4.8531163E-2,3.291999E-1,1.4667751E-2,-2.5216258E-1],"categories":[],"categories_nodes":[],"categories_segments":[],"categories_sizes":[],"default_left":[1,1,1,0,0,1,1,0,0,0,1,1,0,1,0,0,0],"id":31,"left_children":[1,3,5,-1,-1,7,9,-1,-1,-1,11,13,-1,15,-1,-1,-1],"loss_changes":[1.6616482E-1,1.7001669E-1,2.7684495E-1,0E0,0E0,2.3425013E-1,2.9115185E-1,0E0,0E0,0E0,2.7419388E-1,2.6482707E-1,0E0,2.8614736E-1,0E0,0E0,0E0],"parents":[2147483647,0,0,1,1,2,2,5,5,6,6,10,10,11,11,13,13],"right_children":[2,4,6,-1,-1,8,10,-1,-1,-1,12,14,-1,16,-1,-1,-1],"split_conditions":[1.714E3,1.3582074E2,3.2355E3,8.831145E-3,-1.1427022E-1,1.22032745E2,3.394E3,-1.4565754E-2,1.291086E-1,-1.11558534E-1,-4.2431E4,1.4889125E2,9.839334E-2,1.39172E2,9.875998E-2,4.4003255E-3,-7.564878E-2],"split_indices":[2,5,2,0,0,5,2,0,0,0,4,5,0,5,0,0,0],"split_type":[0,0,0,0,0,0,0,0,0,0,0,0,0,0,0,0,0],"sum_hessian":[3.0555065E1,2.8079426E0,2.7747124E1,1.6487525E0,1.1591902E0,3.13161E0,2.4615513E1,1.3130921E0,1.8185178E0,1.0785944E0,2.3536919E1,2.1977444E1,1.5594742E0,2.0947504E1,1.0299404E0,1.6694254E1,4.253249E0],"tree_param":{"num_deleted":"0","num_feature":"6","num_nodes":"17","size_leaf_vector":"0"}},{"base_weights":[1.1627809E-3,-7.318205E-2,6.160853E-2,3.091304E-3,-5.100223E-1,6.451999E-1,-1.9795494E-2,-7.8549504E-2,3.5848528E-1,-3.565437E-1,6.63189E-2,-8.933699E-3,-3.8816378E-1,-7.54875E-1,2.0863664E-1,3.7799445E-1,-5.607925E-2,-1.6218568E-1,1.1059797E-1,-1.4549081E-1,6.947417E-1,3.8708743E-2,-4.6748152E-1,-1.4505253E-2,-3.4181383E-1,2.908681E-1,-2.479767E-1,3.2834974E-1,-1.4791621E-1],"categories":[],"categories_nodes":[],"categories_segments":[],"categories_sizes":[],"default_left":[1,1,1,1,0,0,1,1,0,1,1,1,0,0,0,1,1,1,1,0,0,1,0,0,0,0,0,0,0],"id":32,"left_children":[1,3,5,7,-1,-1,9,11,-1,13,15,17,-1,-1,-1,19,21,23,25,-1,-1,27,-1,-1,-1,-1,-1,-1,-1],"loss_changes":[1.4516807E-1,4.8449147E-1,8.5872436E-1,4.15014E-1,0E0,0E0,5.049526E-1,2.479097E-1,0E0,9.537399E-1,5.575886E-1,2.1111085E-1,0E0,0E0,0E0,7.799047E-1,4.4575152E-1,1.2837747E-1,4.9351743E-1,0E0,0E0,5.802782E-1,0E0,0E0,0E0,0E0,0E0,0E0,0E0],"parents":[2147483647,0,0,1,1,2,2,3,3,6,6,7,7,9,9,10,10,11,11,15,15,16,16,17,17,18,18,21,21],"right_children":[2,4,6,8,-1,-1,10,12,-1,14,16,18,-1,-1,-1,20,22,24,26,-1,-1,28,-1,-1,-1,-1,-1,-1,-1],"split_conditions":[1.34495E4,5.601E3,3.65135E4,5.049E3,-1.5300669E-1,1.9355997E-1,7.1392E4,4.1775E3,1.0754559E-1,-1.2375E3,1.1744375E2,-1.38729E5,-1.1644914E-1,-2.2646251E-1,6.2590994E-2,1.2180701E3,-7.9858915E6,-1.6465E3,-5.1063E4,-4.3647245E-2,2.0842253E-1,1.882638E7,-1.4024447E-1,-4.3515763E-3,-1.0254415E-1,8.726043E-2,-7.439301E-2,9.850492E-2,-4.4374865E-2],"split_indices":[2,2,2,2,0,0,2,2,0,1,5,4,0,0,0,0,4,1,4,0,0,2,0,0,0,0,0,0,0],"split_type":[0,0,0,0,0,0,0,0,0,0,0,0,0,0,0,0,0,0,0,0,0,0,0,0,0,0,0,0,0],"sum_hessian":[3.030058E1,1.3493562E1,1.6807018E1,1.23330965E1,1.1604646E0,1.2095767E0,1.5597441E1,1.0662659E1,1.6704379E0,2.5368402E0,1.30606E1,9.545285E0,1.1173733E0,1.291191E0,1.2456492E0,3.0939379E0,9.966662E0,4.026304E0,5.5189815E0,1.3701599E0,1.7237779E0,8.8366E0,1.1300621E0,2.8027709E0,1.223533E0,3.798262E0,1.7207198E0,3.1650496E0,5.6715508E0],"tree_param":{"num_deleted":"0","num_feature":"6","num_nodes":"29","size_leaf_vector":"0"}},{"base_weights":[-4.199873E-3,-4.772557E-2,9.971004E-2,1.026739E-3,-2.9658523E-1,3.171767E-1,-3.4593478E-2,-1.4712845E-1,1.415062E-1,-7.8657675E-1,3.8032576E-1,-1.3206114E-1,6.056372E-1,-3.6224625E-1,1.766733E-1,8.903799E-3,-4.4420764E-1,3.3348572E-4,4.4501287E-1,4.682067E-1,-1.0760405E-1,-2.1667102E-1,1.8269514E-1,-6.320443E-2,-6.819293E-1,1.678598E-1,-3.7183738E-1,1.7695585E-1,-3.4150654E-1,-3.1806973E-1,2.3760507E-2,-1.8679686E-1,3.8412565E-1,-7.63333E-2,5.107807E-1],"categories":[],"categories_nodes":[],"categories_segments":[],"categories_sizes":[],"default_left":[1,1,1,1,1,1,1,1,1,0,0,0,0,0,1,1,1,1,0,0,1,1,1,0,0,1,0,0,0,0,0,0,0,0,0],"id":33,"left_children":[1,3,5,7,9,11,13,15,17,-1,-1,-1,-1,-1,19,21,23,25,-1,-1,27,29,31,-1,-1,33,-1,-1,-1,-1,-1,-1,-1,-1,-1],"loss_changes":[1.4244418E-1,2.688189E-1,2.829141E-1,4.267299E-1,1.5027936E0,5.533918E-1,5.2486485E-1,4.6667933E-1,4.506237E-1,0E0,0E0,0E0,0E0,0E0,4.4155502E-1,3.3459657E-1,2.7002406E-1,5.7250917E-1,0E0,0E0,2.7361107E-1,9.8546654E-2,4.284847E-1,0E0,0E0,5.691198E-1,0E0,0E0,0E0,0E0,0E0,0E0,0E0,0E0,0E0],"parents":[2147483647,0,0,1,1,2,2,3,3,4,4,5,5,6,6,7,7,8,8,14,14,15,15,16,16,17,17,20,20,21,21,22,22,25,25],"right_children":[2,4,6,8,10,12,14,16,18,-1,-1,-1,-1,-1,20,22,24,26,-1,-1,28,30,32,-1,-1,34,-1,-1,-1,-1,-1,-1,-1,-1,-1],"split_conditions":[-5E-1,1.48637E5,1.3436525E2,2.1598398E3,-6.5205165E6,-3.2924774E7,1.390345E2,1.0138275E2,1.07295E4,-2.3597303E-1,1.1409774E-1,-3.9618343E-2,1.8169117E-1,-1.0867388E-1,2.8409248E3,-8.56745E4,2.057075E3,2.7986802E3,1.3350387E-1,1.4046201E-1,-4.0143424E7,1.449E3,3.4735E3,-1.8961329E-2,-2.045788E-1,2.719845E3,-1.1155122E-1,5.3086758E-2,-1.02451965E-1,-9.542092E-2,7.1281525E-3,-5.603906E-2,1.152377E-1,-2.289999E-2,1.5323421E-1],"split_indices":[3,2,5,0,4,4,5,5,2,0,0,0,0,0,0,4,0,0,0,0,4,0,2,0,0,0,0,0,0,0,0,0,0,0,0],"split_type":[0,0,0,0,0,0,0,0,0,0,0,0,0,0,0,0,0,0,0,0,0,0,0,0,0,0,0,0,0,0,0,0,0,0,0],"sum_hessian":[2.9442854E1,2.113186E1,8.310994E0,1.8502953E1,2.6289067E0,2.6532166E0,5.6577773E0,8.982414E0,9.520539E0,1.431028E0,1.1978788E0,1.249491E0,1.4037255E0,1.9378047E0,3.7199724E0,6.525246E0,2.4571679E0,7.1813254E0,2.339214E0,1.5171208E0,2.2028515E0,2.7322083E0,3.7930377E0,1.4304389E0,1.026729E0,5.330751E0,1.8505744E0,1.1036464E0,1.0992053E0,1.6946156E0,1.0375928E0,1.3638754E0,2.4291623E0,3.5676436E0,1.7631071E0],"tree_param":{"num_deleted":"0","num_feature":"6","num_nodes":"35","size_leaf_vector":"0"}},{"base_weights":[-6.991337E-3,1.3947734E-1,-3.8184714E-2,3.8973388E-1,-5.0339382E-2,-3.3383575E-1,-1.7210416E-3,-1.8521667E-1,1.2335774E-1,2.066648E-1,-4.7604386E-2,4.052423E-1,-5.6458563E-2,-3.7345526E-1,-6.732517E-3,-9.553377E-2,1.3727069E-1,3.239857E-2,-5.308829E-1,3.6332852E-1,-1.7844798E-1],"categories":[],"categories_nodes":[],"categories_segments":[],"categories_sizes":[],"default_left":[1,1,1,0,1,0,1,0,0,1,1,0,0,0,1,1,1,0,0,0,0],"id":34,"left_children":[1,3,5,-1,7,-1,9,-1,-1,11,13,-1,-1,-1,15,17,19,-1,-1,-1,-1],"loss_changes":[1.4017855E-1,2.7600142E-1,2.7021545E-1,0E0,1.15501024E-1,0E0,2.3324898E-1,0E0,0E0,2.5297052E-1,2.6334482E-1,0E0,0E0,0E0,2.52956E-1,6.961892E-1,6.047239E-1,0E0,0E0,0E0,0E0],"parents":[2147483647,0,0,1,1,2,2,4,4,6,6,9,9,10,10,14,14,15,15,16,16],"right_children":[2,4,6,-1,8,-1,10,-1,-1,12,14,-1,-1,-1,16,18,20,-1,-1,-1,-1],"split_conditions":[-3.7804504E7,1.373015E2,-3.3404634E7,1.16920166E-1,1.9708058E7,-1.0015073E-1,-1.9223412E7,-5.5565003E-2,3.7007324E-2,1.3423325E2,-1.6050639E7,1.21572696E-1,-1.6937569E-2,-1.1203658E-1,1.22032745E2,1.1080875E2,1.3776599E2,9.719571E-3,-1.5926488E-1,1.0899856E-1,-5.3534396E-2],"split_indices":[4,5,4,0,2,0,4,0,0,5,4,0,0,0,5,5,5,0,0,0,0],"split_type":[0,0,0,0,0,0,0,0,0,0,0,0,0,0,0,0,0,0,0,0,0],"sum_hessian":[2.8515648E1,4.397199E0,2.4118448E1,1.4423616E0,2.9548373E0,1.7526329E0,2.2365816E1,1.6259521E0,1.3288852E0,3.403625E0,1.896219E1,1.6319102E0,1.7717148E0,1.2064613E0,1.775573E1,1.1191157E1,6.5645723E0,9.364787E0,1.8263702E0,3.737608E0,2.8269641E0],"tree_param":{"num_deleted":"0","num_feature":"6","num_nodes":"21","size_leaf_vector":"0"}},{"base_weights":[-8.847611E-3,-1.7315459E-1,1.4380907E-2,-2.7819732E-1,3.674366E-2,2.5814423E-1,-2.6760763E-2,-6.911303E-3,3.8541067E-1,2.3232418E-1,-6.390295E-2,2.9315725E-1,6.624037E-2,1.3297097E-1,-9.649483E-2,-1.2201673E-1,3.4001535E-1,8.222172E-2,-1.6023181E-1,-7.140741E-2,3.887774E-1,-3.7444308E-1,-2.7097907E-2],"categories":[],"categories_nodes":[],"categories_segments":[],"categories_sizes":[],"default_left":[1,1,1,0,0,1,1,0,0,1,1,0,0,1,1,0,0,1,1,0,0,0,0],"id":35,"left_children":[1,3,5,-1,-1,7,9,-1,-1,11,13,-1,-1,15,17,-1,-1,19,21,-1,-1,-1,-1],"loss_changes":[1.1295124E-1,9.0952344E-2,2.7047282E-1,0E0,0E0,1.338498E-1,2.3994422E-1,0E0,0E0,1.2393445E-2,1.4913678E-1,0E0,0E0,2.2297916E-1,2.2738285E-1,0E0,0E0,2.9170918E-1,3.9484352E-1,0E0,0E0,0E0,0E0],"parents":[2147483647,0,0,1,1,2,2,5,5,6,6,9,9,10,10,13,13,14,14,17,17,18,18],"right_children":[2,4,6,-1,-1,8,10,-1,-1,12,14,-1,-1,16,18,-1,-1,20,22,-1,-1,-1,-1],"split_conditions":[1.714E3,2.722E3,3.2355E3,-8.34592E-2,1.1023099E-2,1.22032745E2,-3.8991372E7,-2.0733909E-3,1.15623206E-1,1.935053E7,-6.5E0,8.7947175E-2,1.9872112E-2,-2.5E1,8.6870255E1,-3.660502E-2,1.0200461E-1,1.449E3,7.0556E4,-2.1422222E-2,1.1663323E-1,-1.1233293E-1,-8.129372E-3],"split_indices":[2,0,2,0,0,5,4,0,0,2,3,0,0,3,5,0,0,0,2,0,0,0,0],"split_type":[0,0,0,0,0,0,0,0,0,0,0,0,0,0,0,0,0,0,0,0,0,0,0],"sum_hessian":[2.7942226E1,2.661525E0,2.5280703E1,1.5569596E0,1.1045655E0,2.88899E0,2.2391712E1,1.243944E0,1.6450459E0,2.148673E0,2.0243038E1,1.0126454E0,1.1360277E0,2.437747E0,1.7805292E1,1.2764254E0,1.1613218E0,4.604473E0,1.3200819E1,3.5782924E0,1.026181E0,4.365016E0,8.835802E0],"tree_param":{"num_deleted":"0","num_feature":"6","num_nodes":"23","size_leaf_vector":"0"}},{"base_weights":[2.7136374E-4,-2.15071E-1,1.7002357E-2,3.891696E-2,-1.7635925E-1,1.9522941E-1,-5.4355296E-3,-5.6569964E-2,3.0931988E-1,4.2957645E-2,-4.5538265E-1,5.639272E-1,1.7900918E-2,-2.1182839E-2,5.459082E-1,2.854482E-2,-2.779732E-1],"categories":[],"categories_nodes":[],"categories_segments":[],"categories_sizes":[],"default_left":[1,0,1,1,0,1,1,0,1,1,0,0,0,1,0,0,0],"id":36,"left_children":[1,-1,3,5,-1,7,9,-1,11,13,-1,-1,-1,15,-1,-1,-1],"loss_changes":[1.06853E-1,0E0,1.2341175E-1,1.7801344E-1,0E0,1.8034355E-1,4.736713E-1,0E0,2.9082063E-1,6.484886E-1,0E0,0E0,0E0,2.438314E-1,0E0,0E0,0E0],"parents":[2147483647,0,0,2,2,3,3,5,5,6,6,8,8,9,9,13,13],"right_children":[2,-1,4,6,-1,8,10,-1,12,14,-1,-1,-1,16,-1,-1,-1],"split_conditions":[-2.22055E4,-6.45213E-2,1.4514024E2,-1.38885E4,-5.2907776E-2,1.2983325E2,1.9548936E7,-1.697099E-2,1.373015E2,1.8776564E7,-1.366148E-1,1.6917816E-1,5.3702756E-3,1.48637E5,1.6377246E-1,8.563447E-3,-8.3391964E-2],"split_indices":[1,0,5,1,0,5,2,0,5,2,0,0,0,2,0,0,0],"split_type":[0,0,0,0,0,0,0,0,0,0,0,0,0,0,0,0,0],"sum_hessian":[2.7642628E1,1.138212E0,2.6504416E1,2.4523756E1,1.9806604E0,4.668542E0,1.9855213E1,1.6129353E0,3.0556068E0,1.874379E1,1.111424E0,1.1317286E0,1.9238782E0,1.7473328E1,1.2704626E0,1.5383198E1,2.0901287E0],"tree_param":{"num_deleted":"0","num_feature":"6","num_nodes":"17","size_leaf_vector":"0"}},{"base_weights":[2.8018153E-6,-6.4702384E-2,5.542265E-2,1.2518866E-2,-3.46199E-1,4.933589E-1,-1.1835485E-2,-2.689308E-1,7.990724E-2,-2.863511E-1,5.6632824E-2,4.2042547E-1,-2.022916E-2,1.13404505E-2,-4.402442E-1,3.42063E-1,-5.832678E-2,-3.1760523E-1,8.534418E-2,-1.2349053E-1,6.31591E-1,-1.3094668E-1,2.873205E-1,2.0884377E-1,-1.5991916E-1,-4.3066466E-1,-5.8790343E-3],"categories":[],"categories_nodes":[],"categories_segments":[],"categories_sizes":[],"default_left":[1,1,1,1,0,0,1,0,1,1,1,0,1,0,0,1,1,0,1,0,0,1,0,0,0,0,0],"id":37,"left_children":[1,3,5,7,-1,-1,9,-1,11,13,15,-1,17,-1,-1,19,21,-1,23,-1,-1,25,-1,-1,-1,-1,-1],"loss_changes":[1.05185255E-1,2.9850033E-1,4.7122264E-1,2.4120763E-1,0E0,0E0,2.920052E-1,0E0,3.5349774E-1,1.4674723E-1,4.3269846E-1,0E0,3.025191E-1,0E0,0E0,5.8444333E-1,2.841519E-1,0E0,2.5337306E-1,0E0,0E0,3.2745677E-1,0E0,0E0,0E0,0E0,0E0],"parents":[2147483647,0,0,1,1,2,2,3,3,6,6,8,8,9,9,10,10,12,12,15,15,16,16,18,18,21,21],"right_children":[2,4,6,8,-1,-1,10,-1,12,14,16,-1,18,-1,-1,20,22,-1,24,-1,-1,26,-1,-1,-1,-1,-1],"split_conditions":[1.34495E4,5.3485E3,3.8532E4,-3.2861052E7,-1.0385971E-1,1.4800768E-1,7.1392E4,-8.067924E-2,-6.128E3,1.31189E3,1.1744375E2,1.2612765E-1,-1.38729E5,3.4021353E-3,-1.3207327E-1,1.2180701E3,1.4869775E2,-9.528157E-2,-5.1063E4,-3.704716E-2,1.8947731E-1,1.1961946E7,8.6196154E-2,6.265313E-2,-4.797575E-2,-1.291994E-1,-1.7637104E-3],"split_indices":[2,2,2,4,0,0,2,0,1,0,5,0,4,0,0,0,5,0,4,0,0,2,0,0,0,0,0],"split_type":[0,0,0,0,0,0,0,0,0,0,0,0,0,0,0,0,0,0,0,0,0,0,0,0,0,0,0],"sum_hessian":[2.7332586E1,1.2532652E1,1.4799935E1,1.0584577E1,1.9480748E0,1.1269231E0,1.3673012E1,1.4669702E0,9.117606E0,2.094224E0,1.1578788E1,1.3450788E0,7.7725277E0,1.0293512E0,1.0648727E0,2.7572868E0,8.821501E0,1.510214E0,6.262314E0,1.277146E0,1.4801409E0,7.8032146E0,1.0182867E0,4.263811E0,1.9985024E0,1.5780492E0,6.2251654E0],"tree_param":{"num_deleted":"0","num_feature":"6","num_nodes":"27","size_leaf_vector":"0"}},{"base_weights":[-2.5884056E-4,1.6455477E-2,-2.1089159E-1,-1.6594091E-2,2.2404204E-1,-1.9017968E-1,3.7784077E-2,4.557573E-1,-1.9333592E-1,1.8729097E-1,-3.172353E-1,3.8730156E-1,-1.9340351E-2,4.8258822E-2,-6.6286516E-1,-2.3316886E-1,2.4925534E-2,2.6477388E-1,-1.7209925E-1,-5.897513E-2,2.528127E-1],"categories":[],"categories_nodes":[],"categories_segments":[],"categories_sizes":[],"default_left":[1,1,0,1,1,1,1,0,0,0,1,0,1,1,0,0,1,0,0,0,0],"id":38,"left_children":[1,3,-1,5,7,9,11,-1,-1,-1,13,-1,15,17,-1,-1,19,-1,-1,-1,-1],"loss_changes":[1.01293825E-1,1.8669794E-1,0E0,2.3315202E-1,4.4904834E-1,3.4123236E-1,3.8809913E-1,0E0,0E0,0E0,6.342525E-1,0E0,1.6991538E-1,2.0059527E-1,0E0,0E0,3.0681774E-1,0E0,0E0,0E0,0E0],"parents":[2147483647,0,0,1,1,3,3,4,4,5,5,6,6,10,10,12,12,13,13,16,16],"right_children":[2,4,-1,6,8,10,12,-1,-1,-1,14,-1,16,18,-1,-1,20,-1,-1,-1,-1],"split_conditions":[1.9846948E7,1.9187608E7,-6.326748E-2,-1.2276E4,2.842415E3,-3.981056E7,-2.0258758E7,1.367272E-1,-5.8000777E-2,5.618729E-2,5.572555E5,1.1619047E-1,-4.054E3,2.365975E3,-1.9885956E-1,-6.995066E-2,2.616525E3,7.943217E-2,-5.1629778E-2,-1.769254E-2,7.584382E-2],"split_indices":[2,2,0,1,0,4,4,0,0,0,2,0,1,0,0,0,0,0,0,0,0],"split_type":[0,0,0,0,0,0,0,0,0,0,0,0,0,0,0,0,0,0,0,0,0],"sum_hessian":[2.6786171E1,2.567098E1,1.1151905E0,2.2938963E1,2.7320185E0,4.876114E0,1.8062849E1,1.6976067E0,1.0344118E0,1.1085694E0,3.7675445E0,1.7254807E0,1.6337368E1,2.2493222E0,1.5182223E0,2.070115E0,1.4267253E1,1.0328869E0,1.2164353E0,1.0969754E1,3.2974985E0],"tree_param":{"num_deleted":"0","num_feature":"6","num_nodes":"21","size_leaf_vector":"0"}},{"base_weights":[-5.871801E-4,2.4930328E-2,-1.4432582E-1,-3.2244555E-3,3.171383E-1,-3.0702662E-1,1.4985573E-1,-2.4565005E-1,2.3651345E-2,5.4618202E-2,-2.41597E-1,-1.4309237E-2,3.8484737E-1,-8.848911E-2,2.1233633E-1,1.09419696E-1,4.6950635E-1],"categories":[],"categories_nodes":[],"categories_segments":[],"categories_sizes":[],"default_left":[1,1,1,1,0,0,0,0,1,1,0,1,1,0,0,0,0],"id":39,"left_children":[1,3,5,7,-1,-1,-1,-1,9,11,-1,13,15,-1,-1,-1,-1],"loss_changes":[1.03932485E-1,1.9916017E-1,2.5045508E-1,1.5538377E-1,0E0,0E0,0E0,0E0,1.904364E-1,4.638834E-1,0E0,3.151039E-1,3.0548334E-2,0E0,0E0,0E0,0E0],"parents":[2147483647,0,0,1,1,2,2,3,3,8,8,9,9,11,11,12,12],"right_children":[2,4,6,8,-1,-1,-1,-1,10,12,-1,14,16,-1,-1,-1,-1],"split_conditions":[1.4270676E2,1.41477E2,1.4889125E2,-3.794215E7,9.51415E-2,-9.210799E-2,4.495672E-2,-7.369502E-2,2.77327E3,2.719845E3,-7.24791E-2,1.76802E5,-9.188E3,-2.6546733E-2,6.37009E-2,3.282591E-2,1.4085191E-1],"split_indices":[5,5,5,4,0,0,0,0,0,0,0,2,1,0,0,0,0],"split_type":[0,0,0,0,0,0,0,0,0,0,0,0,0,0,0,0,0],"sum_hessian":[2.6355083E1,2.3083664E1,3.2714183E0,2.195703E1,1.1266353E0,2.078316E0,1.1931025E0,1.3788955E0,2.0578133E1,1.913793E1,1.440203E0,1.6624609E1,2.513321E0,1.2984442E1,3.6401672E0,1.1298777E0,1.3834432E0],"tree_param":{"num_deleted":"0","num_feature":"6","num_nodes":"17","size_leaf_vector":"0"}},{"base_weights":[3.7376313E-3,5.398638E-2,-6.9103725E-2,-1.4300794E-2,3.282516E-1,1.575733E-1,-1.8898734E-1,4.4932444E-2,-2.779949E-1,4.5549482E-1,2.0295965E-2,-2.0694253E-1,3.325389E-1,-6.5207106E-1,-2.1371577E-2,-1.5991963E-2,2.8844815E-1,4.2960986E-1,7.6891206E-2,1.5880649E-1,-2.0225814E-1,-3.8503692E-1,7.1672894E-2,-1.7883094E-1,4.0920714E-1,-4.407185E-1,4.3154165E-2,3.001833E-1,-3.9113272E-2],"categories":[],"categories_nodes":[],"categories_segments":[],"categories_sizes":[],"default_left":[1,1,1,1,1,1,1,1,0,0,0,0,1,0,1,1,0,0,0,1,1,0,1,0,0,0,0,0,0],"id":40,"left_children":[1,3,5,7,9,11,13,15,-1,-1,-1,-1,17,-1,19,21,-1,-1,-1,23,25,-1,27,-1,-1,-1,-1,-1,-1],"loss_changes":[1.02891974E-1,3.1547308E-1,3.422423E-1,2.3497415E-1,1.22012496E-1,3.572727E-1,6.051156E-1,1.8994659E-1,0E0,0E0,0E0,0E0,5.2323252E-2,0E0,2.5666845E-1,3.8152006E-1,0E0,0E0,0E0,4.1235468E-1,2.4595979E-1,0E0,2.56871E-1,0E0,0E0,0E0,0E0,0E0,0E0],"parents":[2147483647,0,0,1,1,2,2,3,3,4,4,5,5,6,6,7,7,12,12,14,14,15,15,19,19,20,20,22,22],"right_children":[2,4,6,8,10,12,14,16,-1,-1,-1,-1,18,-1,20,22,-1,-1,-1,24,26,-1,28,-1,-1,-1,-1,-1,-1],"split_conditions":[1.3436525E2,2.537135E3,-1.38885E4,2.3458198E3,-4.9605E3,1.8986656E7,1.36009E2,2.1598398E3,-8.3398476E-2,1.3664845E-1,6.0887896E-3,-6.208276E-2,1.9756668E7,-1.9562133E-1,2.7976802E3,3.394E3,8.653445E-2,1.2888296E-1,2.3067363E-2,1.3886674E2,-8.961086E6,-1.1551108E-1,4.305E3,-5.3649284E-2,1.2276214E-1,-1.3221556E-1,1.294625E-2,9.005499E-2,-1.1733982E-2],"split_indices":[5,0,1,0,1,2,5,0,0,0,0,0,2,0,0,2,0,0,0,5,4,0,2,0,0,0,0,0,0],"split_type":[0,0,0,0,0,0,0,0,0,0,0,0,0,0,0,0,0,0,0,0,0,0,0,0,0,0,0,0,0],"sum_hessian":[2.609187E1,1.5593634E1,1.0498235E1,1.3243977E1,2.3496575E0,3.5228372E0,6.975398E0,1.1492122E1,1.7518551E0,1.3236504E0,1.0260072E0,1.0832595E0,2.4395776E0,1.0856696E0,5.889728E0,9.939675E0,1.5524464E0,1.2749827E0,1.164595E0,3.0117953E0,2.8779328E0,1.2567897E0,8.682885E0,1.4042038E0,1.6075915E0,1.056009E0,1.8219237E0,2.2769063E0,6.405979E0],"tree_param":{"num_deleted":"0","num_feature":"6","num_nodes":"29","size_leaf_vector":"0"}},{"base_weights":[5.0194305E-4,4.5096826E-2,-1.0468505E-1,-1.9147316E-2,3.3438742E-1,-2.435105E-1,8.517191E-2,4.5897212E-2,-2.8089896E-1,4.6465936E-1,5.9979027E-3,-3.8621223E-1,9.6089035E-2,3.342152E-1,-1.6578436E-1,-1.8153004E-2,4.4401082E-1,1.6492924E-2,-4.1310194E-1,5.011398E-2,-5.6968975E-1,-3.722509E-1,5.094996E-2,1.19176544E-1,-3.2251838E-1],"categories":[],"categories_nodes":[],"categories_segments":[],"categories_sizes":[],"default_left":[1,1,1,1,1,1,1,1,1,0,0,1,0,0,0,1,0,0,0,0,0,0,1,0,0],"id":41,"left_children":[1,3,5,7,9,11,13,15,17,-1,-1,19,-1,-1,-1,21,-1,-1,-1,-1,-1,-1,23,-1,-1],"loss_changes":[1.2892462E-1,3.6497957E-1,2.3645827E-1,2.977883E-1,1.495179E-1,2.7877504E-1,3.177622E-1,3.717418E-1,1.4328039E-1,0E0,0E0,3.255977E-1,0E0,0E0,0E0,3.4309915E-1,0E0,0E0,0E0,0E0,0E0,0E0,3.4326422E-1,0E0,0E0],"parents":[2147483647,0,0,1,1,2,2,3,3,4,4,5,5,6,6,7,7,8,8,11,11,15,15,22,22],"right_children":[2,4,6,8,10,12,14,16,18,-1,-1,20,-1,-1,-1,22,-1,-1,-1,-1,-1,-1,24,-1,-1],"split_conditions":[1.3767151E2,2.699025E3,1.8776564E7,1.2877576E2,1.882504E7,1.44979E2,1.9014136E7,2.44787E3,2.5950498E3,1.3939781E-1,1.7993709E-3,-5.85E1,2.8826712E-2,1.00264564E-1,-4.973531E-2,2.5585E3,1.3320325E-1,4.9478775E-3,-1.2393059E-1,1.5034194E-2,-1.7090693E-1,-1.1167528E-1,1.17414505E2,3.5752963E-2,-9.675552E-2],"split_indices":[5,0,2,5,2,5,2,0,0,0,0,3,0,0,0,2,0,0,0,0,0,0,5,0,0],"split_type":[0,0,0,0,0,0,0,0,0,0,0,0,0,0,0,0,0,0,0,0,0,0,0,0,0],"sum_hessian":[2.547813E1,1.8293655E1,7.1844745E0,1.5733463E1,2.5601926E0,3.986733E0,3.1977415E0,1.3262439E1,2.4710245E0,1.535927E0,1.0242654E0,2.710505E0,1.276228E0,1.43847E0,1.7592716E0,1.2246562E1,1.0158768E0,1.029777E0,1.4412475E0,1.0175483E0,1.6929567E0,1.2833759E0,1.0963186E1,9.845471E0,1.1177149E0],"tree_param":{"num_deleted":"0","num_feature":"6","num_nodes":"25","size_leaf_vector":"0"}},{"base_weights":[-3.7080394E-3,1.8872026E-2,-1.892255E-1,-9.472242E-3,3.126332E-1,2.0207407E-2,-2.244187E-1,-2.0687267E-2,2.8561142E-1,2.5023507E-2,-3.324497E-1,-1.7561551E-2,3.6591002E-1],"categories":[],"categories_nodes":[],"categories_segments":[],"categories_sizes":[],"default_left":[1,1,0,1,0,1,0,1,0,1,0,0,0],"id":42,"left_children":[1,3,-1,5,-1,7,-1,9,-1,11,-1,-1,-1],"loss_changes":[1.12477705E-1,2.0351693E-1,0E0,1.5086633E-1,0E0,2.3461668E-1,0E0,2.8181037E-1,0E0,2.6289412E-1,0E0,0E0,0E0],"parents":[2147483647,0,0,1,1,3,3,5,5,7,7,9,9],"right_children":[2,4,-1,6,-1,8,-1,10,-1,12,-1,-1,-1],"split_conditions":[1.4514024E2,2.883455E3,-5.676765E-2,2.79819E3,9.378996E-2,2.748945E3,-6.7325614E-2,2.724855E3,8.568343E-2,2.699025E3,-9.973492E-2,-5.2684657E-3,1.0977301E-1],"split_indices":[5,0,0,0,0,0,0,0,0,0,0,0,0],"split_type":[0,0,0,0,0,0,0,0,0,0,0,0,0],"sum_hessian":[2.4998266E1,2.308658E1,1.9116858E0,2.193763E1,1.1489508E0,2.007208E1,1.8655494E0,1.8191156E1,1.8809236E0,1.6667147E1,1.5240105E0,1.5659389E1,1.0077577E0],"tree_param":{"num_deleted":"0","num_feature":"6","num_nodes":"13","size_leaf_vector":"0"}},{"base_weights":[-3.2757068E-4,3.56353E-2,-8.659129E-2,-1.8557856E-2,2.8520536E-1,-2.167352E-1,8.601999E-2,3.4571666E-2,-2.3342635E-1,3.71922E-1,3.7006192E-2,-3.5043314E-1,9.22388E-2,2.9081225E-1,-1.3172333E-1,-2.0924829E-2,3.1637555E-1,1.6655367E-2,-3.491883E-1,-3.2795355E-2,-5.651666E-1,-3.0133563E-1,3.4390707E-2,9.80493E-2,-2.0800026E-1],"categories":[],"categories_nodes":[],"categories_segments":[],"categories_sizes":[],"default_left":[1,1,1,1,1,1,1,1,1,0,0,1,0,0,0,1,0,0,0,0,0,0,1,0,0],"id":43,"left_children":[1,3,5,7,9,11,13,15,17,-1,-1,19,-1,-1,-1,21,-1,-1,-1,-1,-1,-1,23,-1,-1],"loss_changes":[8.318036E-2,2.6131976E-1,1.9584167E-1,1.9633597E-1,6.0239166E-2,2.2983673E-1,2.214309E-1,2.270258E-1,1.04199275E-1,0E0,0E0,2.2330311E-1,0E0,0E0,0E0,2.0754626E-1,0E0,0E0,0E0,0E0,0E0,0E0,1.9808039E-1,0E0,0E0],"parents":[2147483647,0,0,1,1,2,2,3,3,4,4,5,5,6,6,7,7,8,8,11,11,15,15,22,22],"right_children":[2,4,6,8,10,12,14,16,18,-1,-1,20,-1,-1,-1,22,-1,-1,-1,-1,-1,-1,24,-1,-1],"split_conditions":[1.3767151E2,2.699025E3,1.8776564E7,1.2877576E2,1.882504E7,1.44979E2,1.42168E2,2.40215E3,2.5950498E3,1.115766E-1,1.1101858E-2,5.4805E3,2.767164E-2,8.7243676E-2,-3.9517E-2,2.5585E3,9.491267E-2,4.9966103E-3,-1.047565E-1,-9.838607E-3,-1.6954999E-1,-9.0400696E-2,1.1080875E2,2.941479E-2,-6.240008E-2],"split_indices":[5,0,2,5,2,5,5,0,0,0,0,2,0,0,0,2,0,0,0,0,0,0,5,0,0],"split_type":[0,0,0,0,0,0,0,0,0,0,0,0,0,0,0,0,0,0,0,0,0,0,0,0,0],"sum_hessian":[2.4817905E1,1.7929922E1,6.8879833E0,1.5491619E1,2.4383035E0,3.781338E0,3.1066456E0,1.3093223E1,2.3983965E0,1.4375615E0,1.000742E0,2.545623E0,1.2357147E0,1.4280038E0,1.6786417E0,1.1712409E1,1.3808136E0,1.0298104E0,1.3685861E0,1.4917395E0,1.0538836E0,1.1969812E0,1.0515428E1,8.799837E0,1.7155901E0],"tree_param":{"num_deleted":"0","num_feature":"6","num_nodes":"25","size_leaf_vector":"0"}},{"base_weights":[-4.882431E-3,-8.134983E-2,3.2987393E-2,3.2723233E-2,-4.578852E-1,3.7732044E-1,-2.0884227E-2,-2.2107E-1,1.3393854E-1,4.935635E-2,-1.4857583E-1,4.0182588E-1,-4.0138103E-2,-2.2569051E-2,3.6531392E-1,7.7435516E-2,-5.011854E-1,-3.2953122E-1,1.5520762E-1,2.1261801E-1,-1.2528913E-1,3.4077767E-1,-1.13381214E-1,-1.2956178E-2,2.3675075E-1,-1.7962454E-1,5.265564E-1,1.342303E-1,-3.635764E-1,1.8527561E-1,-3.6020443E-1],"categories":[],"categories_nodes":[],"categories_segments":[],"categories_sizes":[],"default_left":[1,1,1,1,0,0,1,0,1,1,1,0,1,1,0,1,0,0,1,1,1,0,1,0,0,0,0,0,0,0,0],"id":44,"left_children":[1,3,5,7,-1,-1,9,-1,11,13,15,-1,17,19,-1,21,-1,-1,23,25,27,-1,29,-1,-1,-1,-1,-1,-1,-1,-1],"loss_changes":[7.6500855E-2,3.9002213E-1,3.3731762E-1,2.2572511E-1,0E0,0E0,1.5357096E-1,0E0,2.9968607E-1,2.6434097E-1,5.197928E-1,0E0,3.1089938E-1,2.7115437E-1,0E0,2.6698023E-1,0E0,0E0,5.0005138E-2,5.191144E-1,5.23351E-1,0E0,3.1628144E-1,0E0,0E0,0E0,0E0,0E0,0E0,0E0,0E0],"parents":[2147483647,0,0,1,1,2,2,3,3,6,6,8,8,9,9,10,10,12,12,13,13,15,15,18,18,19,19,20,20,22,22],"right_children":[2,4,6,8,-1,-1,10,-1,12,14,16,-1,18,20,-1,22,-1,-1,24,26,28,-1,30,-1,-1,-1,-1,-1,-1,-1,-1],"split_conditions":[1.03751755E2,1.0138275E2,1.1080875E2,3.4775E3,-1.3736556E-1,1.13196135E-1,-7.9858915E6,-6.632101E-2,4.305E3,-1.3638804E7,3.6342E4,1.20547764E-1,5.4465E3,1.3436525E2,1.0959418E-1,-2.12094E5,-1.5035564E-1,-9.885937E-2,1.2180701E3,-3.2901524E7,-1.38885E4,1.02233306E-1,3.048E3,-3.8868536E-3,7.102523E-2,-5.3887364E-2,1.5796691E-1,4.026909E-2,-1.0907293E-1,5.5582687E-2,-1.08061336E-1],"split_indices":[5,5,5,2,0,0,4,0,2,4,2,0,2,5,0,4,0,0,0,4,1,0,2,0,0,0,0,0,0,0,0],"split_type":[0,0,0,0,0,0,0,0,0,0,0,0,0,0,0,0,0,0,0,0,0,0,0,0,0,0,0,0,0,0,0],"sum_hessian":[2.4491114E1,7.731465E0,1.675965E1,6.6345825E0,1.0968821E0,1.4550825E0,1.5304567E1,1.5539529E0,5.0806293E0,1.0269174E1,5.035393E0,1.4857991E0,3.5948305E0,9.121338E0,1.1478357E0,3.5441203E0,1.4912732E0,1.1718665E0,2.4229639E0,2.4475558E0,6.6737823E0,1.1588818E0,2.3852384E0,1.0659016E0,1.3570622E0,1.2782781E0,1.1692778E0,3.403599E0,3.270183E0,1.192124E0,1.1931144E0],"tree_param":{"num_deleted":"0","num_feature":"6","num_nodes":"31","size_leaf_vector":"0"}},{"base_weights":[-2.0591053E-3,1.8154927E-2,-1.6386037E-1,-6.5020905E-3,2.697952E-1,2.0655146E-2,-2.615516E-1,2.1488361E-1,-3.5496823E-2,-8.075166E-2,4.6529272E-1,-2.2776602E-1,2.392352E-2,-1.363889E-1,1.6107602E-2,-4.4968528E-1,9.28433E-2,-5.0505325E-2,2.1654119E-1],"categories":[],"categories_nodes":[],"categories_segments":[],"categories_sizes":[],"default_left":[1,1,0,1,0,1,0,1,1,1,0,1,1,0,0,0,0,0,0],"id":45,"left_children":[1,3,-1,5,-1,7,-1,9,11,13,-1,15,17,-1,-1,-1,-1,-1,-1],"loss_changes":[8.418994E-2,1.4430092E-1,0E0,1.5709305E-1,0E0,2.3360153E-1,0E0,3.920628E-1,1.9888145E-1,1.8622778E-2,0E0,3.329106E-1,2.0933434E-1,0E0,0E0,0E0,0E0,0E0,0E0],"parents":[2147483647,0,0,1,1,3,3,5,5,7,7,8,8,9,9,11,11,12,12],"right_children":[2,4,-1,6,-1,8,-1,10,12,14,-1,16,18,-1,-1,-1,-1,-1,-1],"split_conditions":[1.4514024E2,2.883455E3,-4.915811E-2,-2.75E1,8.093856E-2,3.2355E3,-7.846548E-2,1.65E3,5.049E3,1.354365E2,1.3958782E-1,-8.56745E4,-1.215E3,-4.091667E-2,4.832281E-3,-1.3490559E-1,2.7852992E-2,-1.51515985E-2,6.496236E-2],"split_indices":[5,0,0,1,0,2,0,2,2,5,0,4,1,0,0,0,0,0,0],"split_type":[0,0,0,0,0,0,0,0,0,0,0,0,0,0,0,0,0,0,0],"sum_hessian":[2.3831432E1,2.197399E1,1.857443E0,2.0900238E1,1.0737524E0,1.971955E1,1.1806886E0,3.788474E0,1.5931074E1,2.0480494E0,1.7404246E0,3.0922391E0,1.2838836E1,1.0416168E0,1.0064327E0,1.5894549E0,1.5027843E0,9.792672E0,3.0461636E0],"tree_param":{"num_deleted":"0","num_feature":"6","num_nodes":"19","size_leaf_vector":"0"}},{"base_weights":[-1.480571E-3,-1.0110076E-1,3.8465258E-2,-2.1077003E-1,2.669295E-1,2.4287689E-1,-2.6962587E-3,1.3013138E-1,-3.4389192E-1,3.3289406E-1,3.0720044E-2,-2.791363E-1,3.675458E-2,-6.982334E-2,-4.6942487E-1,3.0866885E-1,-8.089629E-3,-7.775713E-2,-6.262961E-1,-2.6561823E-1,3.814156E-2,2.558155E-1,-3.936533E-2],"categories":[],"categories_nodes":[],"categories_segments":[],"categories_sizes":[],"default_left":[1,1,1,1,0,1,1,0,1,0,0,0,1,0,1,0,1,0,0,0,1,0,0],"id":46,"left_children":[1,3,5,7,-1,9,11,-1,13,-1,-1,-1,15,-1,17,-1,19,-1,-1,-1,21,-1,-1],"loss_changes":[1.0138128E-1,3.5040152E-1,1.5388507E-1,3.2490605E-1,0E0,4.827936E-2,1.8636708E-1,0E0,1.2941289E-1,0E0,0E0,0E0,1.8558697E-1,0E0,1.3922E-1,0E0,1.7519121E-1,0E0,0E0,0E0,2.2312346E-1,0E0,0E0],"parents":[2147483647,0,0,1,1,2,2,3,3,5,5,6,6,8,8,12,12,14,14,16,16,20,20],"right_children":[2,4,6,8,-1,10,12,-1,14,-1,-1,-1,16,-1,18,-1,20,-1,-1,-1,22,-1,-1],"split_conditions":[1.449E3,-4.2431E4,1.02223E2,-1.948908E6,8.0078855E-2,-5.75E1,2.1598398E3,3.9039414E-2,6.73125E1,9.986822E-2,9.216013E-3,-8.374089E-2,2.3362148E3,-2.0947002E-2,1.2072E2,9.260066E-2,2.495755E3,-2.3327138E-2,-1.8788885E-1,-7.968547E-2,1.3436525E2,7.674465E-2,-1.18096E-2],"split_indices":[0,4,5,4,0,1,0,0,5,0,0,0,0,0,0,0,0,0,0,0,5,0,0],"split_type":[0,0,0,0,0,0,0,0,0,0,0,0,0,0,0,0,0,0,0,0,0,0,0],"sum_hessian":[2.3499207E1,6.2876368E0,1.721157E1,5.1733375E0,1.1142994E0,2.0634952E0,1.5148075E1,1.4591582E0,3.714179E0,1.0492213E0,1.0142739E0,1.1330456E0,1.401503E1,1.6556697E0,2.0585093E0,1.1512501E0,1.286378E1,1.016426E0,1.0420835E0,1.2355843E0,1.1628196E1,2.449199E0,9.178996E0],"tree_param":{"num_deleted":"0","num_feature":"6","num_nodes":"23","size_leaf_vector":"0"}},{"base_weights":[-1.8207732E-3,4.590309E-2,-6.939994E-2,-1.5470418E-3,2.677404E-1,-3.680613E-1,3.726553E-2,-9.9582784E-2,1.1701926E-1,2.7699164E-1,-5.7588667E-2,-1.4384724E-2,-3.010503E-1,3.3061078E-1,-3.1924088E-2,6.895751E-2,-2.325387E-1,1.1086611E-1,-2.3024072E-1,-2.2914818E-1,2.1161781E-1,-1.3449341E-1,3.18716E-1,-4.1080374E-1,5.764525E-2,-1.4408718E-1,2.5239697E-1,-5.1014775E-1,1.5397567E-1,5.6729764E-2,-2.4524055E-1],"categories":[],"categories_nodes":[],"categories_segments":[],"categories_sizes":[],"default_left":[1,1,1,1,0,0,1,1,1,0,1,1,0,0,1,1,1,1,0,1,0,1,0,0,0,0,0,0,0,0,0],"id":47,"left_children":[1,3,5,7,-1,-1,9,11,13,-1,15,17,-1,-1,19,21,23,25,-1,27,-1,29,-1,-1,-1,-1,-1,-1,-1,-1,-1],"loss_changes":[8.105072E-2,1.556991E-1,3.4473905E-1,1.6447075E-1,0E0,0E0,2.1070085E-1,1.2846951E-1,2.1448237E-1,0E0,1.7022087E-1,2.0092556E-1,0E0,0E0,2.736954E-1,2.874059E-1,1.8672478E-1,2.088621E-1,0E0,4.0914056E-1,0E0,8.4970295E-2,0E0,0E0,0E0,0E0,0E0,0E0,0E0,0E0,0E0],"parents":[2147483647,0,0,1,1,2,2,3,3,6,6,7,7,8,8,10,10,11,11,14,14,15,15,16,16,17,17,19,19,21,21],"right_children":[2,4,6,8,-1,-1,10,12,14,-1,16,18,-1,-1,20,22,24,26,-1,28,-1,30,-1,-1,-1,-1,-1,-1,-1,-1,-1],"split_conditions":[-1.948908E6,-3.468047E6,-1.38729E5,2.748945E3,8.0322124E-2,-1.10418394E-1,-9.1791E4,2.724855E3,2.79819E3,8.3097495E-2,4.305E3,-8.0031125E6,-9.0315096E-2,9.918324E-2,1.8986656E7,3.4735E3,7.28E1,-3.3923412E7,-6.907222E-2,-5.526E3,6.348535E-2,-3.05E1,9.56148E-2,-1.2324113E-1,1.7293576E-2,-4.3226156E-2,7.5719096E-2,-1.5304433E-1,4.6192702E-2,1.701893E-2,-7.3572166E-2],"split_indices":[4,4,4,0,0,0,4,0,0,0,2,4,0,0,2,2,5,4,0,1,0,1,0,0,0,0,0,0,0,0,0],"split_type":[0,0,0,0,0,0,0,0,0,0,0,0,0,0,0,0,0,0,0,0,0,0,0,0,0,0,0,0,0,0,0],"sum_hessian":[2.3143164E1,1.3752213E1,9.390952E0,1.2147036E1,1.605177E0,1.8264134E0,7.5645385E0,6.7368364E0,5.410199E0,1.6001862E0,5.964352E0,5.4876E0,1.2492366E0,1.7216157E0,3.6885834E0,3.812506E0,2.151846E0,3.780403E0,1.7071971E0,2.0707548E0,1.6178285E0,2.3553588E0,1.4571471E0,1.0754882E0,1.0763577E0,1.3430232E0,2.4373796E0,1.0033251E0,1.0674298E0,1.0427073E0,1.3126515E0],"tree_param":{"num_deleted":"0","num_feature":"6","num_nodes":"31","size_leaf_vector":"0"}},{"base_weights":[-5.4111453E-3,2.4860771E-2,-1.084462E-1,-3.1724922E-2,2.6519984E-1,-3.1184843E-1,6.620057E-2,3.2935295E-2,-3.448822E-1,3.8409296E-1,4.858098E-2,2.0952897E-1,-7.808275E-2,-1.6936718E-2,2.0697993E-1,1.3896939E-1,-1.1818477E-1,-1.7989506E-1,4.5640597E-1,-1.8126132E-1,3.0243835E-1,-5.2943563E-1,3.8015526E-2],"categories":[],"categories_nodes":[],"categories_segments":[],"categories_sizes":[],"default_left":[1,1,1,1,1,0,1,1,0,0,0,0,0,1,1,1,1,0,0,0,0,0,0],"id":48,"left_children":[1,3,5,7,9,-1,11,13,-1,-1,-1,-1,-1,15,17,19,21,-1,-1,-1,-1,-1,-1],"loss_changes":[7.6544635E-2,2.6835144E-1,2.1826378E-1,3.427124E-1,7.7902704E-2,0E0,9.5316134E-2,1.2915963E-1,0E0,0E0,0E0,0E0,0E0,2.086317E-1,4.005341E-1,3.298432E-1,5.290607E-1,0E0,0E0,0E0,0E0,0E0,0E0],"parents":[2147483647,0,0,1,1,2,2,3,3,4,4,6,6,7,7,13,13,14,14,15,15,16,16],"right_children":[2,4,6,8,10,-1,12,14,-1,-1,-1,-1,-1,16,18,20,22,-1,-1,-1,-1,-1,-1],"split_conditions":[-5.45E1,-9.43855E4,1.4854551E3,-1.948908E6,5.499E3,-9.3554534E-2,3.048E3,-6.2530975E6,-1.0346466E-1,1.1522789E-1,1.4574295E-2,6.285869E-2,-2.3424825E-2,1.329815E5,7.2437E4,-3.2861052E7,1.2074446E7,-5.396852E-2,1.369218E-1,-5.4378398E-2,9.073151E-2,-1.588307E-1,1.1404658E-2],"split_indices":[1,4,0,4,2,0,2,4,0,0,0,0,0,2,2,4,2,0,0,0,0,0,0],"split_type":[0,0,0,0,0,0,0,0,0,0,0,0,0,0,0,0,0,0,0,0,0,0,0],"sum_hessian":[2.2676485E1,1.8113436E1,4.56305E0,1.5364096E1,2.74934E0,1.7450656E0,2.8179843E0,1.3476349E1,1.8877467E0,1.2759151E0,1.4734249E0,1.186817E0,1.6311674E0,1.1176455E1,2.2998946E0,4.2537627E0,6.9226913E0,1.010818E0,1.2890766E0,1.4007988E0,2.8529642E0,1.247845E0,5.674846E0],"tree_param":{"num_deleted":"0","num_feature":"6","num_nodes":"23","size_leaf_vector":"0"}},{"base_weights":[-6.610697E-3,-2.348795E-2,1.759804E-1,1.2409396E-2,-2.8604484E-1,-3.862422E-2,1.3749397E-1,-3.5410893E-1,9.707294E-3,-1.0713272E-1,2.562681E-1,-6.5784395E-2,2.6505578E-1,4.7052646E-1,4.712654E-2,-2.4930146E-1,3.5727702E-2,-2.4458515E-2,3.9735767E-1,3.0998847E-1,-2.1591645E-1],"categories":[],"categories_nodes":[],"categories_segments":[],"categories_sizes":[],"default_left":[1,1,0,1,0,1,1,0,1,0,1,1,1,0,1,0,0,0,0,0,0],"id":49,"left_children":[1,3,-1,5,-1,7,9,-1,11,-1,13,15,17,-1,19,-1,-1,-1,-1,-1,-1],"loss_changes":[7.584101E-2,2.1262397E-1,0E0,1.3600077E-1,0E0,2.3705432E-1,2.061964E-1,0E0,2.9230744E-1,0E0,1.7660111E-1,2.288564E-1,1.4196238E-1,0E0,2.989839E-1,0E0,0E0,0E0,0E0,0E0,0E0],"parents":[2147483647,0,0,1,1,3,3,5,5,6,6,8,8,10,10,11,11,12,12,14,14],"right_children":[2,4,-1,6,-1,8,10,-1,12,-1,14,16,18,-1,20,-1,-1,-1,-1,-1,-1],"split_conditions":[1.4889125E2,1.4270676E2,5.2794125E-2,2.719845E3,-8.5813455E-2,-3.3923412E7,-3.794215E7,-1.0623268E-1,1.76802E5,-3.2139815E-2,-1.1412E4,-1.2145E3,1.4175549E3,1.4115794E-1,5.4805E3,-7.479044E-2,1.0718311E-2,-7.337555E-3,1.1920731E-1,9.2996545E-2,-6.477494E-2],"split_indices":[5,5,0,0,0,4,4,0,2,0,1,1,0,0,2,0,0,0,0,0,0],"split_type":[0,0,0,0,0,0,0,0,0,0,0,0,0,0,0,0,0,0,0,0,0],"sum_hessian":[2.2269325E1,2.1182728E1,1.0865978E0,1.9473064E1,1.7096629E0,1.4321294E1,5.1517706E0,1.0620538E0,1.325924E1,1.7158426E0,3.435928E0,1.0806702E1,2.4525385E0,1.0798552E0,2.356073E0,3.330261E0,7.4764404E0,1.0248988E0,1.4276398E0,1.0891759E0,1.266897E0],"tree_param":{"num_deleted":"0","num_feature":"6","num_nodes":"21","size_leaf_vector":"0"}},{"base_weights":[-2.707496E-3,-8.278259E-2,3.7247106E-2,-1.9894533E-1,2.1919504E-1,3.3433652E-1,-1.1384852E-2,-3.0750695E-1,1.3503404E-1,-2.0310596E-1,2.1238124E-2,-1.4495317E-2,-4.2297062E-1,2.0937544E-1,-3.321195E-2,-2.435981E-1,4.6027806E-2,2.6697853E-1,-6.00923E-2],"categories":[],"categories_nodes":[],"categories_segments":[],"categories_sizes":[],"default_left":[1,1,1,1,0,0,1,1,0,0,1,0,0,0,1,0,1,0,0],"id":50,"left_children":[1,3,5,7,-1,-1,9,11,-1,-1,13,-1,-1,-1,15,-1,17,-1,-1],"loss_changes":[7.65078E-2,3.224692E-1,2.3497535E-1,2.6868963E-1,0E0,0E0,9.635751E-2,1.6416389E-1,0E0,0E0,1.4506203E-1,0E0,0E0,0E0,1.9990721E-1,0E0,2.2854921E-1,0E0,0E0],"parents":[2147483647,0,0,1,1,2,2,3,3,6,6,7,7,10,10,14,14,16,16],"right_children":[2,4,6,8,-1,-1,10,12,-1,-1,14,-1,-1,-1,16,-1,18,-1,-1],"split_conditions":[1.03751755E2,-3.15E1,1.1080875E2,7.1775E4,6.575851E-2,1.0030096E-1,2.30273E3,6.73125E1,4.0510215E-2,-6.093179E-2,1.2877576E2,-4.348595E-3,-1.268912E-1,6.2812634E-2,2.712395E3,-7.307944E-2,1.3767151E2,8.009356E-2,-1.8027691E-2],"split_indices":[5,1,5,2,0,0,0,5,0,0,5,0,0,0,0,0,5,0,0],"split_type":[0,0,0,0,0,0,0,0,0,0,0,0,0,0,0,0,0,0,0],"sum_hessian":[2.194965E1,6.949627E0,1.5000023E1,5.265371E0,1.6842558E0,1.2836231E0,1.37164E1,4.0335193E0,1.2318516E0,1.2346518E0,1.2481749E1,1.458311E0,2.5752084E0,2.1629596E0,1.0318789E1,2.2556682E0,8.063121E0,2.1243126E0,5.938808E0],"tree_param":{"num_deleted":"0","num_feature":"6","num_nodes":"19","size_leaf_vector":"0"}},{"base_weights":[7.970198E-4,3.4237333E-2,-1.12127475E-1,-2.20515E-2,2.6249844E-1,-2.7993318E-1,5.2082833E-2,3.462836E-2,-2.9543224E-1,3.6063698E-1,6.558603E-2,2.395667E-1,-1.470216E-1,-2.3909392E-2,1.6602203E-1,1.3047846E-1,-1.1068504E-1,-4.257049E-2,2.730457E-1,-1.4892508E-1,3.2634673E-1,1.2998544E-1,-3.354236E-1,3.743822E-1,3.741747E-2],"categories":[],"categories_nodes":[],"categories_segments":[],"categories_sizes":[],"default_left":[1,1,1,1,1,0,1,1,0,0,0,0,0,1,1,1,1,0,1,0,0,0,0,0,0],"id":51,"left_children":[1,3,5,7,9,-1,11,13,-1,-1,-1,-1,-1,15,17,19,21,-1,23,-1,-1,-1,-1,-1,-1],"loss_changes":[8.954895E-2,2.4062955E-1,1.6391939E-1,2.5171512E-1,4.7715694E-2,0E0,1.6894397E-1,1.10137686E-1,0E0,0E0,0E0,0E0,0E0,1.5408267E-1,1.0940727E-1,2.789685E-1,4.3377703E-1,0E0,5.8334857E-2,0E0,0E0,0E0,0E0,0E0,0E0],"parents":[2147483647,0,0,1,1,2,2,3,3,4,4,6,6,7,7,13,13,14,14,15,15,16,16,18,18],"right_children":[2,4,6,8,10,-1,12,14,-1,-1,-1,-1,-1,16,18,20,22,-1,24,-1,-1,-1,-1,-1,-1],"split_conditions":[-5.45E1,-9.43855E4,-3.15E1,-1.948908E6,5.499E3,-8.397996E-2,-2.75E1,-4.0995E3,-8.862968E-2,1.08191095E-1,1.967581E-2,7.1870014E-2,-4.4106483E-2,1.3436525E2,7.0556E4,-3.2901524E7,-1.38885E4,-1.2771147E-2,1.401715E5,-4.4677526E-2,9.790402E-2,3.899563E-2,-1.0062708E-1,1.12314664E-1,1.1225242E-2],"split_indices":[1,4,1,4,2,0,1,1,0,0,0,0,0,5,2,4,1,0,2,0,0,0,0,0,0],"split_type":[0,0,0,0,0,0,0,0,0,0,0,0,0,0,0,0,0,0,0,0,0,0,0,0,0],"sum_hessian":[2.1697237E1,1.7277628E1,4.4196095E0,1.4584505E1,2.6931226E0,1.8373286E0,2.5822809E0,1.2803331E1,1.781174E0,1.2424455E0,1.4506772E0,1.2252861E0,1.3569946E0,9.423196E0,3.3801355E0,3.2094455E0,6.21375E0,1.3503984E0,2.0297372E0,1.4214427E0,1.7880027E0,3.2041113E0,3.0096388E0,1.0075516E0,1.0221856E0],"tree_param":{"num_deleted":"0","num_feature":"6","num_nodes":"25","size_leaf_vector":"0"}},{"base_weights":[4.2321715E-3,-9.8073415E-2,4.4639524E-2,-1.9867356E-1,2.2449324E-1,9.67634E-2,-8.1573315E-2,3.762588E-2,-3.2040307E-1,1.5433681E-1,-1.0989833E-1,-2.2337347E-1,1.1763287E-1,-5.398124E-1,-1.6815962E-2,2.2180581E-1,-1.4419863E-1,-2.321109E-1,4.768911E-2,-4.4951218E-1,7.18189E-2,9.519569E-2,4.0252408E-1,2.3566997E-1,-1.4574577E-1],"categories":[],"categories_nodes":[],"categories_segments":[],"categories_sizes":[],"default_left":[1,1,1,1,0,