{"learner":{"attributes":{"best_iteration":"99","best_ntree_limit":"100","scikit_learn":"{\"use_label_encoder\": null, \"n_estimators\": 100, \"objective\": \"binary:logistic\", \"max_depth\": null, \"max_leaves\": null, \"max_bin\": null, \"grow_policy\": null, \"learning_rate\": null, \"verbosity\": null, \"booster\": null, \"tree_method\": null, \"gamma\": null, \"min_child_weight\": null, \"max_delta_step\": null, \"subsample\": null, \"sampling_method\": null, \"colsample_bytree\": null, \"colsample_bylevel\": null, \"colsample_bynode\": null, \"reg_alpha\": null, \"reg_lambda\": null, \"scale_pos_weight\": null, \"base_score\": null, \"missing\": NaN, \"num_parallel_tree\": null, \"random_state\": 42, \"n_jobs\": null, \"monotone_constraints\": null, \"interaction_constraints\": null, \"importance_type\": null, \"gpu_id\": null, \"validate_parameters\": null, \"predictor\": null, \"enable_categorical\": false, \"feature_types\": null, \"max_cat_to_onehot\": null, \"max_cat_threshold\": null, \"eval_metric\": null, \"early_stopping_rounds\": null, \"callbacks\": null, \"classes_\": [0.0, 1.0], \"n_classes_\": 2, \"_estimator_type\": \"classifier\"}"},"feature_names":["Price","Qty","Owned","ΔOwn","Value","ClosePrice"],"feature_types":["float","float","float","float","float","float"],"gradient_booster":{"model":{"gbtree_model_param":{"num_parallel_tree":"1","num_trees":"100","size_leaf_vector":"0"},"tree_info":[0,0,0,0,0,0,0,0,0,0,0,0,0,0,0,0,0,0,0,0,0,0,0,0,0,0,0,0,0,0,0,0,0,0,0,0,0,0,0,0,0,0,0,0,0,0,0,0,0,0,0,0,0,0,0,0,0,0,0,0,0,0,0,0,0,0,0,0,0,0,0,0,0,0,0,0,0,0,0,0,0,0,0,0,0,0,0,0,0,0,0,0,0,0,0,0,0,0,0,0],"trees":[{"base_weights":[-3.314917E-2,-4.1666666E-1,1.3170732E0,-1E0,-0E0,1.6756756E0,-1E0,5.4545456E-1,-1.245283E0,7.1428573E-1,-3.125E-1,-4E-1,-1.4285715E0,1.3333334E0,2E-1,-1.0588236E0,-3.9215688E-2,-8E-1,2.2222222E-1,-1.5555556E0,-4E-1,-8E-1,8.5714287E-1,-1.2727273E0,-4E-1,4E-1,-5.6E-1,1.2E0,-0E0,6.666667E-1,-4E-1,-1.2E0,2.857143E-1],"categories":[],"categories_nodes":[],"categories_segments":[],"categories_sizes":[],"default_left":[1,1,1,1,1,0,0,0,1,1,1,1,1,0,1,1,1,0,0,0,0,0,1,0,0,1,1,0,0,0,0,0,0],"id":0,"left_children":[1,3,5,7,9,-1,-1,-1,11,13,15,17,19,-1,21,23,25,-1,-1,-1,-1,-1,27,-1,-1,29,31,-1,-1,-1,-1,-1,-1],"loss_changes":[2.3980762E1,8.75E0,1.0192486E1,6.3653526E0,5.1339283E0,0E0,0E0,0E0,1.4814014E0,1.9619048E0,3.2218137E0,1.1111112E0,7.4920654E-1,0E0,3.9714286E0,8.9839935E-2,3.1403923E0,0E0,0E0,0E0,0E0,0E0,1.0285714E0,0E0,0E0,1.8666668E0,3.7257142E0,0E0,0E0,0E0,0E0,0E0,0E0],"parents":[2147483647,0,0,1,1,2,2,3,3,4,4,8,8,9,9,10,10,11,11,12,12,14,14,15,15,16,16,22,22,25,25,26,26],"right_children":[2,4,6,8,10,-1,-1,-1,12,14,16,18,20,-1,22,24,26,-1,-1,-1,-1,-1,28,-1,-1,30,32,-1,-1,-1,-1,-1,-1],"split_conditions":[9.72535E5,1.85555E4,3.6560498E2,3.065E0,2.6217E4,5.027027E-1,-3E-1,1.6363637E-1,3.8582333E1,7.3264E2,-5.9302385E6,3.14785E2,8.9707996E2,4.0000004E-1,8.5737E2,2.56175E2,2.2454834E2,-2.4000001E-1,6.666667E-2,-4.666667E-1,-1.20000005E-1,-2.4000001E-1,3.4737E2,-3.818182E-1,-1.20000005E-1,1.93193E5,2.5957166E2,3.6E-1,-0E0,2.0000002E-1,-1.20000005E-1,-3.6E-1,8.5714296E-2],"split_indices":[2,2,5,0,2,0,0,0,5,0,4,0,0,0,0,5,5,0,0,0,0,0,5,0,0,2,5,0,0,0,0,0,0],"split_type":[0,0,0,0,0,0,0,0,0,0,0,0,0,0,0,0,0,0,0,0,0,0,0,0,0,0,0,0,0,0,0,0,0],"sum_hessian":[4.425E1,3.5E1,9.25E0,1.4E1,2.1E1,8.25E0,1E0,1.75E0,1.225E1,6E0,1.5E1,2.75E0,9.5E0,2E0,4E0,3.25E0,1.175E1,1.5E0,1.25E0,8E0,1.5E0,1.5E0,2.5E0,1.75E0,1.5E0,6.5E0,5.25E0,1.5E0,1E0,5E0,1.5E0,2.75E0,2.5E0],"tree_param":{"num_deleted":"0","num_feature":"6","num_nodes":"33","size_leaf_vector":"0"}},{"base_weights":[-3.656372E-2,-2.8055736E-1,1.2644076E0,-7.678114E-1,2.3152702E-2,4.4343472E-1,-9.6692616E-1,1.9076034E-1,-1.2368917E0,-2.2667134E-1,-1.0812684E0,-1.15393244E-1,1.122648E0,-3.232376E-1,-1.1854345E0,3.6281505E-1,-6.9338614E-1,1.3243551E0,4.7794735E-1,-5.664827E-1,5.469942E-1,-5.483628E-3,-1.1156604E0],"categories":[],"categories_nodes":[],"categories_segments":[],"categories_sizes":[],"default_left":[1,1,0,1,1,0,1,1,0,0,1,1,1,0,0,1,1,0,0,0,0,0,0],"id":1,"left_children":[1,3,-1,5,7,-1,9,11,-1,-1,13,15,17,-1,-1,19,21,-1,-1,-1,-1,-1,-1],"loss_changes":[1.4291884E1,5.610198E0,0E0,3.9354687E0,5.3575473E0,0E0,8.3846664E-1,6.483222E0,0E0,0E0,4.714632E-1,5.1355066E0,9.5300674E-2,0E0,0E0,2.07724E0,2.417593E0,0E0,0E0,0E0,0E0,0E0,0E0],"parents":[2147483647,0,0,1,1,3,3,4,4,6,6,7,7,10,10,11,11,12,12,15,15,16,16],"right_children":[2,4,-1,6,8,-1,10,12,-1,-1,14,16,18,-1,-1,20,22,-1,-1,-1,-1,-1,-1],"split_conditions":[2.9985625E6,1.85555E4,3.7932232E-1,3.065E0,3.5749835E2,1.3303041E-1,2.2841667E1,8.51795E2,-3.7106752E-1,-6.8001404E-2,-1.8010906E7,2.2454834E2,9.4091E4,-9.697128E-2,-3.5563034E-1,-5.9302385E6,-3.625E3,3.9730656E-1,1.4338422E-1,-1.6994482E-1,1.6409826E-1,-1.6450884E-3,-3.3469814E-1],"split_indices":[2,2,0,0,5,0,5,0,0,0,4,5,2,0,0,4,1,0,0,0,0,0,0],"split_type":[0,0,0,0,0,0,0,0,0,0,0,0,0,0,0,0,0,0,0,0,0,0,0],"sum_hessian":[4.290638E1,3.6790726E1,6.1156535E0,1.35399475E1,2.3250778E1,1.7383372E0,1.180161E1,2.1270096E1,1.9806814E0,1.9780506E0,9.82356E0,1.6669748E1,4.600349E0,1.6825448E0,8.141015E0,9.326039E0,7.3437085E0,2.7010548E0,1.8992943E0,1.1992692E0,8.12677E0,3.1786084E0,4.1651E0],"tree_param":{"num_deleted":"0","num_feature":"6","num_nodes":"23","size_leaf_vector":"0"}},{"base_weights":[-3.1327523E-2,-2.2393675E-1,1.0580866E0,-6.059877E-1,9.36269E-3,1.1495597E0,3.1341305E-1,5.09184E-1,-7.556975E-1,1.4775747E-1,-1.0381058E0,4.2424127E-2,-8.387549E-1,-1.03843555E-1,9.3221426E-1,-2.9892075E-1,-1.0683706E0,9.1839975E-1,-3.0729827E-1,1.1063132E0,3.918031E-1,3.4619328E-1,-6.1813784E-1,-1.1535398E0,-2.8991568E-1,2.2216073E-1,-6.3840944E-1],"categories":[],"categories_nodes":[],"categories_segments":[],"categories_sizes":[],"default_left":[1,1,1,1,1,0,0,0,1,1,0,0,1,1,1,1,1,0,1,0,0,0,0,0,0,0,0],"id":2,"left_children":[1,3,5,7,9,-1,-1,-1,11,13,-1,-1,15,17,19,21,23,-1,25,-1,-1,-1,-1,-1,-1,-1,-1],"loss_changes":[8.967718E0,3.2307181E0,7.742834E-2,2.6775832E0,3.5527143E0,0E0,0E0,0E0,8.648939E-1,4.357668E0,0E0,0E0,1.0911579E0,3.8689215E0,6.922102E-2,1.1992221E0,1.6912556E-1,0E0,2.7946334E0,0E0,0E0,0E0,0E0,0E0,0E0,0E0,0E0],"parents":[2147483647,0,0,1,1,2,2,3,3,4,4,8,8,9,9,12,12,13,13,14,14,15,15,16,16,18,18],"right_children":[2,4,6,8,10,-1,-1,-1,12,14,-1,-1,16,18,20,22,24,-1,26,-1,-1,-1,-1,-1,-1,-1,-1],"split_conditions":[2.9985625E6,1.85555E4,1.0821599E3,5.45E-1,3.5749835E2,3.4486794E-1,9.402392E-2,1.527552E-1,-8.8E1,8.51795E2,-3.1143177E-1,1.2727239E-2,5.3849E1,1.99095E4,9.4091E4,-1.717E3,1.8093E4,2.7551994E-1,1.9259E2,3.3189398E-1,1.1754093E-1,1.0385799E-1,-1.8544136E-1,-3.4606194E-1,-8.697471E-2,6.664822E-2,-1.9152284E-1],"split_indices":[2,2,0,0,5,0,0,0,3,0,0,0,5,2,2,1,2,0,5,0,0,0,0,0,0,0,0],"split_type":[0,0,0,0,0,0,0,0,0,0,0,0,0,0,0,0,0,0,0,0,0,0,0,0,0,0,0],"sum_hessian":[4.060855E1,3.518267E1,5.425879E0,1.2733248E1,2.2449423E1,4.348068E0,1.0778106E0,1.222895E0,1.1510353E1,2.0588186E1,1.8612363E0,1.1310451E0,1.0379308E1,1.6245382E1,4.3428035E0,3.7842476E0,6.59506E0,2.1132894E0,1.4132093E1,2.4926133E0,1.8501902E0,1.2247041E0,2.5595436E0,5.5103517E0,1.0847082E0,5.564037E0,8.568056E0],"tree_param":{"num_deleted":"0","num_feature":"6","num_nodes":"27","size_leaf_vector":"0"}},{"base_weights":[-1.346644E-2,-2.1081048E-1,7.6834416E-1,-5.429851E-1,-3.2490313E-3,1.0354909E0,-5.3232485E-1,-8.078584E-1,-5.9698123E-2,2.4177651E-1,-6.0555613E-1,2.3632617E-1,-1.0341158E0,3.9741254E-1,-8.466155E-1,5.765855E-1,-1.1324007E-1,-8.070533E-1,1.9375168E-1,-7.909419E-3,6.742679E-1,7.647705E-1,-3.047539E-2,3.8004324E-1,-7.096609E-1,-2.516376E-1,-9.940771E-1,9.044968E-2,1.145329E0,-1.4114846E-1,9.147316E-1,-9.8919904E-1,-1.0110438E-1],"categories":[],"categories_nodes":[],"categories_segments":[],"categories_sizes":[],"default_left":[1,1,1,1,1,0,0,1,1,1,1,0,0,1,0,1,1,1,0,0,0,1,0,1,1,0,0,0,0,0,0,0,0],"id":3,"left_children":[1,3,5,7,9,-1,-1,11,13,15,17,-1,-1,19,-1,21,23,25,-1,-1,-1,27,-1,29,31,-1,-1,-1,-1,-1,-1,-1,-1],"loss_changes":[6.201586E0,2.2073364E0,3.3674293E0,1.5282893E0,3.2050366E0,0E0,0E0,2.105052E0,2.293239E0,1.9013234E0,1.1675692E0,0E0,0E0,4.678403E-1,0E0,9.5021653E-1,2.7212842E0,2.9083824E-1,0E0,0E0,0E0,1.4956605E0,0E0,1.5815806E0,6.0100913E-1,0E0,0E0,0E0,0E0,0E0,0E0,0E0,0E0],"parents":[2147483647,0,0,1,1,2,2,3,3,4,4,7,7,8,8,9,9,10,10,13,13,15,15,16,16,17,17,21,21,23,23,24,24],"right_children":[2,4,6,8,10,-1,-1,12,14,16,18,-1,-1,20,-1,22,24,26,-1,-1,-1,28,-1,30,32,-1,-1,-1,-1,-1,-1,-1,-1],"split_conditions":[9.72535E5,-2.0769895E6,3.5875833E2,7.99695E2,-1.0525E3,3.1064728E-1,-1.5969746E-1,1.3550333E2,3.5571667E2,5.55655E4,1.8691E4,7.0897855E-2,-3.1023476E-1,2.9517166E2,-2.5398466E-1,2.25725E2,-8.027505E5,3.8582333E1,5.8125507E-2,-2.3728258E-3,2.0228037E-1,9.9537E1,-9.142617E-3,7.84355E4,-5.665625E5,-7.549129E-2,-2.9822314E-1,2.7134907E-2,3.4359872E-1,-4.234454E-2,2.744195E-1,-2.9675972E-1,-3.0331315E-2],"split_indices":[2,4,5,0,1,0,0,5,5,2,2,0,0,5,0,5,4,5,0,0,0,5,0,2,4,0,0,0,0,0,0,0,0],"split_type":[0,0,0,0,0,0,0,0,0,0,0,0,0,0,0,0,0,0,0,0,0,0,0,0,0,0,0,0,0,0,0,0,0],"sum_hessian":[3.8145638E1,3.104072E1,7.1049194E0,1.1315592E1,1.9725128E1,6.063421E0,1.0414984E0,6.8756747E0,4.4399176E0,1.4446647E1,5.278481E0,1.2165873E0,5.6590877E0,3.121596E0,1.3183213E0,7.113726E0,7.3329206E0,4.2079983E0,1.0704826E0,1.6611172E0,1.4604788E0,5.232036E0,1.8816898E0,4.212046E0,3.1208744E0,1.6508512E0,2.557147E0,2.3340147E0,2.8980215E0,2.505656E0,1.7063903E0,1.709937E0,1.4109373E0],"tree_param":{"num_deleted":"0","num_feature":"6","num_nodes":"33","size_leaf_vector":"0"}},{"base_weights":[-1.4766364E-2,-1.4405955E-1,8.286284E-1,-6.645623E-2,-9.0375453E-1,9.3036556E-1,2.1007906E-1,-1.912958E-1,7.2372633E-1,2.8997695E-2,-5.663334E-1,1.011821E0,2.405061E-1,-2.3562165E-1,3.8297603E-1,-9.580369E-1,1.4725582E-2,1.1191845E-1,-1.1832155E0,-6.0995734E-1,6.788034E-1,9.5007646E-1,-5.93373E-1],"categories":[],"categories_nodes":[],"categories_segments":[],"categories_sizes":[],"default_left":[1,1,1,1,0,0,0,1,1,1,1,0,0,1,1,0,1,0,0,0,0,0,0],"id":4,"left_children":[1,3,5,7,-1,-1,-1,9,11,13,15,-1,-1,17,19,-1,21,-1,-1,-1,-1,-1,-1],"loss_changes":[4.1234107E0,1.8671824E0,1.21017694E-1,3.1707947E0,0E0,0E0,0E0,2.2749357E0,3.6960435E-1,1.7924422E0,2.3275206E0,0E0,0E0,3.7609053E0,2.809342E0,0E0,3.451881E0,0E0,0E0,0E0,0E0,0E0,0E0],"parents":[2147483647,0,0,1,1,2,2,3,3,7,7,8,8,9,9,10,10,13,13,14,14,16,16],"right_children":[2,4,6,8,-1,-1,-1,10,12,14,16,-1,-1,18,20,-1,22,-1,-1,-1,-1,-1,-1],"split_conditions":[2.9985625E6,3.5749835E2,-2.047905E5,8.98615E2,-2.7112636E-1,2.791097E-1,6.302372E-2,6.62485E2,-1.65E1,1.7363E2,2.5586166E2,3.035463E-1,7.215183E-2,1.4109E2,-1.04775E4,-2.874111E-1,2.7341998E2,3.3575535E-2,-3.5496467E-1,-1.8298721E-1,2.0364103E-1,2.8502294E-1,-1.7801191E-1],"split_indices":[2,5,1,0,0,0,0,0,3,5,5,0,0,5,1,0,5,0,0,0,0,0,0],"split_type":[0,0,0,0,0,0,0,0,0,0,0,0,0,0,0,0,0,0,0,0,0,0,0],"sum_hessian":[3.5719074E1,3.169014E1,4.0289364E0,2.9739689E1,1.9504507E0,3.026962E0,1.0019743E0,2.6336706E1,3.4029818E0,1.7172453E1,9.164254E0,1.4466058E0,1.956376E0,1.0017873E1,7.1545796E0,5.086539E0,4.0777154E0,7.9748898E0,2.0429833E0,1.3985457E0,5.756034E0,1.3849984E0,2.692717E0],"tree_param":{"num_deleted":"0","num_feature":"6","num_nodes":"23","size_leaf_vector":"0"}},{"base_weights":[-1.3692539E-2,-1.2189284E-1,7.4197066E-1,-5.536772E-2,-8.054716E-1,8.351112E-1,2.1065718E-1,-1.9290116E-1,5.3102535E-1,2.2781494E-3,-6.096583E-1,-2.9426256E-1,7.6644623E-1,-2.0303571E-1,3.6726955E-1,-8.7453127E-1,-3.331118E-1,1.2574884E-1,1.0109038E0,4.1184317E-2,-8.118473E-1,4.2530254E-2,9.6930975E-1,1.0641395E-1,-8.956728E-1],"categories":[],"categories_nodes":[],"categories_segments":[],"categories_sizes":[],"default_left":[1,1,1,1,0,0,0,1,1,1,1,0,1,1,1,0,1,0,0,0,0,0,0,0,0],"id":5,"left_children":[1,3,5,7,-1,-1,-1,9,11,13,15,-1,17,19,21,-1,23,-1,-1,-1,-1,-1,-1,-1,-1],"loss_changes":[2.9296744E0,1.375805E0,4.6298027E-2,2.4846647E0,0E0,0E0,0E0,2.0073018E0,1.3676198E0,1.4077843E0,2.8509617E-1,0E0,6.3266015E-1,1.8221157E0,1.2805691E0,0E0,1.4465884E0,0E0,0E0,0E0,0E0,0E0,0E0,0E0,0E0],"parents":[2147483647,0,0,1,1,2,2,3,3,7,7,8,8,9,9,10,10,12,12,13,13,14,14,16,16],"right_children":[2,4,6,8,-1,-1,-1,10,12,14,16,-1,18,20,22,-1,24,-1,-1,-1,-1,-1,-1,-1,-1],"split_conditions":[2.9985625E6,3.5749835E2,1.070155E3,8.51795E2,-2.4164149E-1,2.5053337E-1,6.319716E-2,6.62485E2,1.6549234E2,4.1707E2,1.85555E4,-8.827877E-2,-2.5625E4,-1.3055E3,2.1711166E2,-2.6235938E-1,2.7341998E2,3.7724655E-2,3.0327117E-1,1.2355296E-2,-2.435542E-1,1.2759076E-2,2.9079294E-1,3.1924188E-2,-2.6870185E-1],"split_indices":[2,5,0,0,0,0,0,0,5,0,2,0,1,1,5,0,5,0,0,0,0,0,0,0,0],"split_type":[0,0,0,0,0,0,0,0,0,0,0,0,0,0,0,0,0,0,0,0,0,0,0,0,0],"sum_hessian":[3.372517E1,3.0234684E1,3.4904857E0,2.853836E1,1.6963245E0,2.4833603E0,1.0071251E0,2.366012E1,4.8782396E0,1.6790964E1,6.869156E0,1.0272355E0,3.8510041E0,1.1030081E1,5.7608833E0,2.4041555E0,4.4650006E0,1.4817898E0,2.3692145E0,8.53763E0,2.492451E0,4.437791E0,1.3230922E0,2.9618015E0,1.5031989E0],"tree_param":{"num_deleted":"0","num_feature":"6","num_nodes":"25","size_leaf_vector":"0"}},{"base_weights":[-1.3532547E-2,8.0567545E-1,-9.906587E-2,-3.6103465E-2,-8.1478864E-1,-1.6114955E-1,4.3682843E-1,3.923226E-2,-4.9636915E-1,2.6532458E-3,7.466442E-1,-1.6656622E-1,5.145373E-1,-2.6454514E-1,-9.4195956E-1,4.7787386E-1,-5.4939395E-1,1.9955802E-1,-4.4231623E-1,-2.8881627E-1,8.4066474E-1,3.4604484E-1,-5.2455044E-1],"categories":[],"categories_nodes":[],"categories_segments":[],"categories_sizes":[],"default_left":[1,0,1,1,0,1,1,1,1,1,0,1,1,1,0,0,0,0,0,0,0,0,0],"id":6,"left_children":[1,-1,3,5,-1,7,9,11,13,15,-1,17,19,21,-1,-1,-1,-1,-1,-1,-1,-1,-1],"loss_changes":[2.3810353E0,0E0,1.3507738E0,1.7970843E0,0E0,1.619668E0,8.55564E-1,1.6347924E0,6.790285E-1,1.22228E0,0E0,1.2802813E0,1.5605437E0,1.3406329E0,0E0,0E0,0E0,0E0,0E0,0E0,0E0,0E0,0E0],"parents":[2147483647,0,0,2,2,3,3,5,5,6,6,7,7,8,8,9,9,11,11,12,12,13,13],"right_children":[2,-1,4,6,-1,8,10,12,14,16,-1,18,20,22,-1,-1,-1,-1,-1,-1,-1,-1,-1],"split_conditions":[-3.45522E5,2.4170265E-1,3.6179834E2,8.51795E2,-2.444366E-1,5.98315E2,-6.5E0,4.1707E2,-7.864505E5,9.4166003E2,2.2399327E-1,-3.7535E3,-1.9E1,2.25725E2,-2.825879E-1,1.4336216E-1,-1.648182E-1,5.9867408E-2,-1.3269487E-1,-8.664489E-2,2.5219944E-1,1.03813455E-1,-1.5736514E-1],"split_indices":[1,0,5,0,0,0,3,0,4,0,0,1,3,5,0,0,0,0,0,0,0,0,0],"split_type":[0,0,0,0,0,0,0,0,0,0,0,0,0,0,0,0,0,0,0,0,0,0,0],"sum_hessian":[3.1841934E1,2.2143393E0,2.9627594E1,2.8197495E1,1.4301008E0,2.2822372E1,5.3751206E0,1.4836582E1,7.985791E0,2.65832E0,2.7168005E0,1.0806934E1,4.029648E0,6.3012056E0,1.6845853E0,1.5007688E0,1.1575513E0,4.761375E0,6.045559E0,1.1965582E0,2.8330896E0,1.7830412E0,4.5181646E0],"tree_param":{"num_deleted":"0","num_feature":"6","num_nodes":"23","size_leaf_vector":"0"}},{"base_weights":[-1.0816755E-2,7.361658E-1,-8.323676E-2,-2.7969034E-2,-7.3364246E-1,-1.2031266E-1,4.758241E-1,-7.017242E-1,-3.8909573E-2,1.6397761E-2,7.591227E-1,5.700484E-1,-1.044776E-1,-4.0520784E-1,1.23867616E-1],"categories":[],"categories_nodes":[],"categories_segments":[],"categories_sizes":[],"default_left":[1,0,1,1,0,1,1,0,1,0,0,0,1,0,0],"id":7,"left_children":[1,-1,3,5,-1,7,9,-1,11,-1,-1,-1,13,-1,-1],"loss_changes":[1.7444165E0,0E0,1.0313536E0,1.3603342E0,0E0,1.1308002E0,5.7854307E-1,0E0,9.5885557E-1,0E0,0E0,0E0,1.5045367E0,0E0,0E0],"parents":[2147483647,0,0,2,2,3,3,5,5,6,6,8,8,12,12],"right_children":[2,-1,4,6,-1,8,10,-1,12,-1,-1,-1,14,-1,-1],"split_conditions":[-3.45522E5,2.2084975E-1,3.6179834E2,8.98615E2,-2.2009274E-1,3.9635E3,-6.5E0,-2.1051726E-1,-1.8010906E7,4.9193287E-3,2.2773683E-1,1.7101452E-1,-1.1122705E6,-1.21562354E-1,3.7160285E-2],"split_indices":[1,0,5,0,0,2,3,0,4,0,0,0,4,0,0],"split_type":[0,0,0,0,0,0,0,0,0,0,0,0,0,0,0],"sum_hessian":[3.0113678E1,1.8514549E0,2.8262222E1,2.7010065E1,1.2521572E0,2.3469389E1,3.5406756E0,1.9464864E0,2.1522903E1,1.7540342E0,1.7866415E0,1.3442533E0,2.017865E1,8.374676E0,1.1803974E1],"tree_param":{"num_deleted":"0","num_feature":"6","num_nodes":"15","size_leaf_vector":"0"}},{"base_weights":[-3.4988222E-3,6.743131E-1,-6.4118624E-2,-1.110261E-2,-6.133136E-1,-7.337463E-2,6.7829126E-1,3.614168E-2,-3.2733345E-1,-1.24530025E-1,6.354293E-1,2.573275E-1,-4.846838E-1,4.205597E-2,-4.6555325E-1,9.682735E-1,1.027481E-1,-1.748616E-1,-7.9539275E-1],"categories":[],"categories_nodes":[],"categories_segments":[],"categories_sizes":[],"default_left":[1,0,1,1,0,1,0,1,1,1,1,0,1,0,0,0,0,0,0],"id":8,"left_children":[1,-1,3,5,-1,7,-1,9,11,13,15,-1,17,-1,-1,-1,-1,-1,-1],"loss_changes":[1.2790952E0,0E0,8.236338E-1,1.2101341E0,0E0,7.2640353E-1,0E0,1.8943385E0,8.4603506E-1,9.1161776E-1,6.362226E-1,0E0,4.8901904E-1,0E0,0E0,0E0,0E0,0E0,0E0],"parents":[2147483647,0,0,2,2,3,3,5,5,7,7,8,8,9,9,10,10,12,12],"right_children":[2,-1,4,6,-1,8,-1,10,12,14,16,-1,18,-1,-1,-1,-1,-1,-1],"split_conditions":[-3.45522E5,2.0229395E-1,3.5749835E2,9.9187E2,-1.8399408E-1,-1.3055E3,2.0348738E-1,-2.183E3,-7.864505E5,-3.7535E3,6.39565E2,7.719825E-2,5.98315E2,1.2616791E-2,-1.3966598E-1,2.9048207E-1,3.0824432E-2,-5.245848E-2,-2.3861784E-1],"split_indices":[1,0,5,0,0,1,0,1,4,1,0,0,0,0,0,0,0,0,0],"split_type":[0,0,0,0,0,0,0,0,0,0,0,0,0,0,0,0,0,0,0],"sum_hessian":[2.9077745E1,1.5559919E0,2.7521753E1,2.602926E1,1.4924934E0,2.4692396E1,1.3368645E0,1.7851753E1,6.8406415E0,1.4702225E1,3.1495292E0,1.3158833E0,5.524758E0,1.0466255E1,4.23597E0,1.4350853E0,1.7144439E0,3.5488343E0,1.9759237E0],"tree_param":{"num_deleted":"0","num_feature":"6","num_nodes":"19","size_leaf_vector":"0"}},{"base_weights":[5.0958567E-3,6.1859804E-1,-4.6191677E-2,-2.3064184E-1,7.716857E-2,-5.078227E-1,1.0151426E-1,6.1756504E-1,-7.503624E-2,-3.066185E-2,-8.207135E-1,3.694509E-1,-5.1048326E-1,-7.1680495E-3,9.548636E-1,3.327595E-1,-3.3866462E-1,6.634187E-1,-8.5729694E-1,6.5908945E-1,9.2645034E-2,8.0410564E-1,-1.4044344E-1,-8.417283E-1,-1.5870476E-1,-3.196427E-1,3.8089424E-1,-4.4683677E-1,2.1013667E-1,-6.9738317E-1,8.829529E-2],"categories":[],"categories_nodes":[],"categories_segments":[],"categories_sizes":[],"default_left":[1,0,1,1,1,1,1,1,1,1,0,1,0,0,0,1,1,0,0,0,1,0,1,0,1,0,0,0,0,0,0],"id":9,"left_children":[1,-1,3,5,7,9,11,13,15,17,-1,19,-1,-1,-1,21,23,-1,-1,-1,25,-1,27,-1,29,-1,-1,-1,-1,-1,-1],"loss_changes":[9.4531864E-1,0E0,6.5076685E-1,1.1010532E0,1.4790558E0,9.2743516E-1,1.1755433E0,8.363019E-1,1.6696644E0,2.6145847E0,0E0,3.2106608E-1,0E0,0E0,0E0,1.4937515E0,7.0760536E-1,0E0,0E0,0E0,5.496593E-1,0E0,5.1718307E-1,0E0,1.1361086E0,0E0,0E0,0E0,0E0,0E0,0E0],"parents":[2147483647,0,0,2,2,3,3,4,4,5,5,6,6,7,7,8,8,9,9,11,11,15,15,16,16,20,20,22,22,24,24],"right_children":[2,-1,4,6,8,10,12,14,16,18,-1,20,-1,-1,-1,22,24,-1,-1,-1,26,-1,28,-1,30,-1,-1,-1,-1,-1,-1],"split_conditions":[-3.45522E5,1.8557942E-1,-2.0769895E6,2.6349167E2,-3.7535E3,4.34785E2,3.5749835E2,-1.47E6,-7.864505E5,-3.404681E6,-2.4621406E-1,2.929E2,-1.5314499E-1,-2.150415E-3,2.864591E-1,2.25725E2,-7.214625E5,1.9902562E-1,-2.571891E-1,1.9772685E-1,9.0038E2,2.412317E-1,7.6756E2,-2.525185E-1,1.7038501E2,-9.589281E-2,1.1426828E-1,-1.3405104E-1,6.3041E-2,-2.0921496E-1,2.6488587E-2],"split_indices":[1,0,4,5,1,0,5,4,4,4,0,5,0,0,0,5,4,0,0,0,0,0,0,0,0,0,0,0,0,0,0],"split_type":[0,0,0,0,0,0,0,0,0,0,0,0,0,0,0,0,0,0,0,0,0,0,0,0,0,0,0,0,0,0,0],"sum_hessian":[2.813536E1,1.3172328E0,2.6818129E1,1.0399289E1,1.641884E1,5.380472E0,5.0188165E0,2.9362726E0,1.3482567E1,2.5657222E0,2.8147502E0,3.7662475E0,1.2525688E0,1.3726484E0,1.5636244E0,5.1908417E0,8.291725E0,1.5020115E0,1.0637107E0,1.1655791E0,2.6006684E0,2.250194E0,2.9406474E0,1.2157844E0,7.075941E0,1.025281E0,1.5753876E0,1.4226996E0,1.5179478E0,1.6512793E0,5.4246616E0],"tree_param":{"num_deleted":"0","num_feature":"6","num_nodes":"31","size_leaf_vector":"0"}},{"base_weights":[1.4575484E-3,-2.4105093E-1,1.2506784E-1,3.054038E-1,-4.2993528E-1,5.4513556E-1,-1.5624041E-3,-1.5195636E-1,-6.8988746E-1,7.438625E-1,1.6835327E-1,-3.7334615E-1,1.3647394E-1,-5.468488E-1,6.483265E-1,-8.061408E-1,-2.1243344E-1,5.8724668E-2,-9.01212E-1,9.139303E-1,-7.421005E-2,4.459056E-2,-8.0439764E-1,5.492261E-1,-4.042158E-1,-4.6924326E-1,2.3483637E-1,-7.961392E-1,-1.0876875E-1,6.149102E-1,3.2155637E-2],"categories":[],"categories_nodes":[],"categories_segments":[],"categories_sizes":[],"default_left":[1,1,1,0,1,1,1,1,1,0,0,1,1,1,0,0,0,1,0,0,1,0,0,0,0,1,1,0,0,0,0],"id":10,"left_children":[1,3,5,-1,7,9,11,13,15,-1,-1,17,19,21,-1,-1,-1,23,-1,-1,25,-1,-1,-1,-1,27,29,-1,-1,-1,-1],"loss_changes":[8.6114544E-1,1.1326165E0,1.0126163E0,0E0,4.4612336E-1,2.0486534E-1,8.521547E-1,1.9242306E0,3.1761885E-2,0E0,0E0,1.0780575E0,2.0526042E0,6.2510836E-1,0E0,0E0,0E0,9.964276E-1,0E0,0E0,1.3870215E0,0E0,0E0,0E0,0E0,4.9366224E-1,4.835967E-1,0E0,0E0,0E0,0E0],"parents":[2147483647,0,0,1,1,2,2,4,4,5,5,6,6,7,7,8,8,11,11,12,12,13,13,17,17,20,20,25,25,26,26],"right_children":[2,4,6,-1,8,10,12,14,16,-1,-1,18,20,22,-1,-1,-1,24,-1,-1,26,-1,-1,-1,-1,28,30,-1,-1,-1,-1],"split_conditions":[1.85555E4,2.33235E2,2.6217E4,9.1621146E-2,-1.672E3,2.7341998E2,1.7363E2,-2.183E3,1.04975E4,2.2315876E-1,5.0505985E-2,1.4138666E2,1.9259E2,-1.8010906E7,1.9449796E-1,-2.4184224E-1,-6.373004E-2,9.75535E4,-2.703636E-1,2.741791E-1,2.5957166E2,1.3377168E-2,-2.413193E-1,1.6476783E-1,-1.2126475E-1,-1.7999475E6,2.7432166E2,-2.3884176E-1,-3.2630626E-2,1.8447307E-1,9.646691E-3],"split_indices":[2,0,2,0,1,5,5,1,2,0,0,5,5,4,0,0,0,2,0,0,5,0,0,0,0,4,5,0,0,0,0],"split_type":[0,0,0,0,0,0,0,0,0,0,0,0,0,0,0,0,0,0,0,0,0,0,0,0,0,0,0,0,0,0,0],"sum_hessian":[2.67216E1,8.701068E0,1.8020533E1,2.0765607E0,6.6245074E0,3.4085352E0,1.4611997E1,3.9669833E0,2.6575239E0,1.593711E0,1.8148242E0,3.494717E0,1.111728E1,2.868318E0,1.0986652E0,1.583539E0,1.073985E0,2.4104536E0,1.0842633E0,1.6586578E0,9.458622E0,1.1209701E0,1.747348E0,1.0798885E0,1.3305651E0,3.9242103E0,5.534412E0,1.424142E0,2.5000682E0,1.2174752E0,4.3169365E0],"tree_param":{"num_deleted":"0","num_feature":"6","num_nodes":"31","size_leaf_vector":"0"}},{"base_weights":[-4.940181E-4,5.576818E-1,-4.622235E-2,8.6093E-2,-1.9163273E-1,-6.6759914E-2,4.40775E-1,-5.1445603E-1,9.317952E-2,1.0715647E-1,-5.4947484E-1,-8.291204E-2,6.5821874E-1,-2.0611188E-1,-7.676493E-1,7.7157885E-1,-1.7389172E-1,-3.6426908E-1,2.7483794E-1,-6.504762E-1,5.6974155E-1,-7.130595E-1,1.0420331E-1,4.6115443E-1,-2.9255113E-1,4.4096997E-1,-4.8427776E-1],"categories":[],"categories_nodes":[],"categories_segments":[],"categories_sizes":[],"default_left":[1,0,1,1,1,1,1,1,1,1,0,0,0,1,0,0,1,0,1,0,0,0,1,0,0,0,0],"id":11,"left_children":[1,-1,3,5,7,9,11,13,15,17,-1,-1,-1,19,-1,-1,21,-1,23,-1,-1,-1,25,-1,-1,-1,-1],"loss_changes":[7.0257384E-1,0E0,5.057968E-1,7.8870666E-1,1.1904405E0,9.5345217E-1,5.498566E-1,3.0846345E-1,1.483671E0,7.8549355E-1,0E0,0E0,0E0,1.7711508E0,0E0,0E0,9.980023E-1,0E0,8.7125397E-1,0E0,0E0,0E0,1.1919115E0,0E0,0E0,0E0,0E0],"parents":[2147483647,0,0,2,2,3,3,4,4,5,5,6,6,7,7,8,8,9,9,13,13,16,16,18,18,22,22],"right_children":[2,-1,4,6,8,10,12,14,16,18,-1,-1,-1,20,-1,-1,22,-1,24,-1,-1,-1,26,-1,-1,-1,-1],"split_conditions":[-3.45522E5,1.6730455E-1,5.98315E2,4.1707E2,2.5586166E2,-1.3055E3,-1.125E4,2.25725E2,2.7432166E2,-2.2364455E6,-1.6484246E-1,-2.4873614E-2,1.9746563E-1,2.1711166E2,-2.302948E-1,2.3147367E-1,8.6041E2,-1.0928073E-1,1.917955E5,-1.9514288E-1,1.7092247E-1,-2.1391785E-1,3.5749835E2,1.3834633E-1,-8.776534E-2,1.32291E-1,-1.4528333E-1],"split_indices":[1,0,0,0,5,1,1,5,5,4,0,0,0,5,0,0,0,0,2,0,0,0,5,0,0,0,0],"split_type":[0,0,0,0,0,0,0,0,0,0,0,0,0,0,0,0,0,0,0,0,0,0,0,0,0,0,0],"sum_hessian":[2.5515617E1,1.0843331E0,2.4431284E1,1.3005203E1,1.1426081E1,9.655756E0,3.3494468E0,4.9777274E0,6.4483533E0,7.6702647E0,1.9854914E0,1.1642317E0,2.185215E0,3.0623646E0,1.9153627E0,1.2878901E0,5.1604633E0,1.7048377E0,5.9654274E0,2.0498989E0,1.0124656E0,1.2237616E0,3.9367018E0,4.6317196E0,1.3337077E0,2.6632712E0,1.2734306E0],"tree_param":{"num_deleted":"0","num_feature":"6","num_nodes":"27","size_leaf_vector":"0"}},{"base_weights":[-7.062364E-3,-5.661831E-2,4.488239E-1,5.8963597E-2,-1.9659899E-1,-7.101006E-2,3.618159E-1,-4.5341352E-1,5.3977117E-2,-2.571467E-1,2.4911192E-1,-6.989048E-2,5.473605E-1,-1.6375658E-1,-7.0064306E-1,6.652033E-1,-2.2162014E-1,6.9177575E-2,-7.848397E-1,7.472185E-1,-2.315545E-1,-4.9232283E-1,3.200224E-1,-6.442694E-1,5.1075205E-2,4.9951673E-1,-2.0120981E-1,-4.7341022E-1,4.4104892E-1],"categories":[],"categories_nodes":[],"categories_segments":[],"categories_sizes":[],"default_left":[1,1,0,1,1,1,1,1,1,1,1,0,0,1,0,0,1,1,0,0,0,0,0,0,1,0,0,0,0],"id":12,"left_children":[1,3,-1,5,7,9,11,13,15,17,19,-1,-1,21,-1,-1,23,25,-1,-1,-1,-1,-1,-1,27,-1,-1,-1,-1],"loss_changes":[5.8539104E-1,3.876709E-1,0E0,5.571352E-1,7.158286E-1,6.767739E-1,3.7614655E-1,2.728305E-1,1.2139549E0,1.2586843E0,1.1998177E0,0E0,0E0,7.611302E-1,0E0,0E0,6.2230253E-1,7.1030253E-1,0E0,0E0,0E0,0E0,0E0,0E0,1.0340763E0,0E0,0E0,0E0,0E0],"parents":[2147483647,0,0,1,1,3,3,4,4,5,5,6,6,7,7,8,8,9,9,10,10,13,13,16,16,17,17,24,24],"right_children":[2,4,-1,6,8,10,12,14,16,18,20,-1,-1,22,-1,-1,24,26,-1,-1,-1,-1,-1,-1,28,-1,-1,-1,-1],"split_conditions":[2.9985625E6,5.98315E2,1.3464718E-1,4.1707E2,2.5586166E2,7.9079E4,-1.125E4,2.25725E2,2.7432166E2,1.4058667E2,1.917955E5,-2.0967145E-2,1.6420814E-1,2.1494833E2,-2.1019293E-1,1.9956098E-1,8.6041E2,-3.5E3,-2.3545192E-1,2.2416556E-1,-6.946635E-2,-1.4769685E-1,9.600673E-2,-1.9328083E-1,-2.5625E4,1.4985502E-1,-6.0362946E-2,-1.4202307E-1,1.3231468E-1],"split_indices":[2,0,0,0,5,2,1,5,5,5,2,0,0,5,0,0,0,1,0,0,0,0,0,0,1,0,0,0,0],"split_type":[0,0,0,0,0,0,0,0,0,0,0,0,0,0,0,0,0,0,0,0,0,0,0,0,0,0,0,0,0],"sum_hessian":[2.378676E1,2.2244532E1,1.5422287E0,1.2501132E1,9.743399E0,9.2828045E0,3.2183273E0,4.412036E0,5.331363E0,5.9941797E0,3.288625E0,1.1547934E0,2.063534E0,2.7971866E0,1.6148491E0,1.217495E0,4.113868E0,4.2406664E0,1.7535136E0,1.3426806E0,1.9459443E0,1.6553016E0,1.141885E0,1.0789739E0,3.0348945E0,1.3093457E0,2.9313204E0,1.202998E0,1.8318964E0],"tree_param":{"num_deleted":"0","num_feature":"6","num_nodes":"29","size_leaf_vector":"0"}},{"base_weights":[-5.0915317E-3,3.8854282E-2,-4.5287043E-1,-5.2644912E-2,5.062017E-1,-5.3597957E-1,1.3984481E-2,1.0223869E-1,6.268348E-1,5.296277E-1,-5.512691E-2,-5.1627433E-1,2.7093953E-2,2.8103784E-1,-1.00856066E-1],"categories":[],"categories_nodes":[],"categories_segments":[],"categories_sizes":[],"default_left":[1,1,0,1,1,0,1,0,0,0,1,0,1,0,0],"id":13,"left_children":[1,3,-1,5,7,-1,9,-1,-1,-1,11,-1,13,-1,-1],"loss_changes":[4.8085937E-1,9.827706E-1,0E0,6.388331E-1,1.1890143E-1,0E0,6.779162E-1,0E0,0E0,0E0,6.569624E-1,0E0,5.2683896E-1,0E0,0E0],"parents":[2147483647,0,0,1,1,3,3,4,4,6,6,10,10,12,12],"right_children":[2,4,-1,6,8,-1,10,-1,-1,-1,12,-1,14,-1,-1],"split_conditions":[3.5749835E2,8.98615E2,-1.3586113E-1,3.9635E3,-2.9301222E8,-1.6079387E-1,-1.8010906E7,3.067161E-2,1.8805045E-1,1.5888831E-1,-5.9302385E6,-1.5488231E-1,-3.7535E3,8.431135E-2,-3.025682E-2],"split_indices":[5,0,0,2,4,0,4,0,0,0,4,0,1,0,0],"split_type":[0,0,0,0,0,0,0,0,0,0,0,0,0,0,0],"sum_hessian":[2.2542189E1,2.135919E1,1.1829998E0,1.8604147E1,2.7550428E0,1.400515E0,1.7203632E1,1.0583786E0,1.6966641E0,1.2457372E0,1.5957894E1,1.6158806E0,1.4342013E1,4.4042945E0,9.937719E0],"tree_param":{"num_deleted":"0","num_feature":"6","num_nodes":"15","size_leaf_vector":"0"}},{"base_weights":[-4.6445383E-3,-4.5664236E-2,3.8200817E-1,6.0535915E-2,-1.8116583E-1,-9.070317E-2,2.7719513E-1,1.2822512E-1,-3.4867045E-1,-3.7567404E-1,1.3129336E-1,5.6256574E-1,-1.7070073E-1,-2.0519568E-1,3.828721E-1,-6.593706E-1,-1.6567805E-1,1.4828202E-1,-8.2892036E-1,4.4647118E-1,-1.9795628E-1,7.26128E-1,8.256395E-2,-5.10773E-1,1.7905742E-1,1.0805248E-1,-3.8388827E-1,3.0843672E-1,-5.1301915E-2],"categories":[],"categories_nodes":[],"categories_segments":[],"categories_sizes":[],"default_left":[1,1,0,1,1,1,1,1,1,1,1,1,0,0,0,0,1,0,0,0,1,0,0,0,1,0,0,0,0],"id":14,"left_children":[1,3,-1,5,7,9,11,13,15,17,19,21,-1,-1,-1,-1,23,-1,-1,-1,25,-1,-1,-1,27,-1,-1,-1,-1],"loss_changes":[3.8122988E-1,3.2222956E-1,0E0,4.4704372E-1,5.5022305E-1,5.766846E-1,8.0408084E-1,4.3153322E-1,2.6584142E-1,1.051292E0,6.5153277E-1,2.2398043E-1,0E0,0E0,0E0,0E0,7.442768E-1,0E0,0E0,0E0,2.3191196E-1,0E0,0E0,0E0,1.1970647E-1,0E0,0E0,0E0,0E0],"parents":[2147483647,0,0,1,1,3,3,4,4,5,5,6,6,7,7,8,8,9,9,10,10,11,11,16,16,20,20,24,24],"right_children":[2,4,-1,6,8,10,12,14,16,18,20,22,-1,-1,-1,-1,24,-1,-1,-1,26,-1,-1,-1,28,-1,-1,-1,-1],"split_conditions":[2.9985625E6,5.98315E2,1.14602454E-1,3.14785E2,-1.65E1,-6.5E0,1.4109E2,1.86115E4,2.1717667E2,1.4E2,-7.79146E5,-6E0,-5.121022E-2,-6.1558705E-2,1.1486164E-1,-1.9781119E-1,-1.5095E3,4.4484608E-2,-2.4867612E-1,1.3394137E-1,6.48485E4,2.178384E-1,2.4769187E-2,-1.532319E-1,-9.594505E5,3.2415744E-2,-1.15166485E-1,9.253102E-2,-1.5390575E-2],"split_indices":[2,0,0,0,3,3,5,2,5,0,4,3,0,0,0,0,1,0,0,0,2,0,0,0,4,0,0,0,0],"split_type":[0,0,0,0,0,0,0,0,0,0,0,0,0,0,0,0,0,0,0,0,0,0,0,0,0,0,0,0,0],"sum_hessian":[2.1936766E1,2.063004E1,1.3067267E0,1.1875665E1,8.7543745E0,7.336071E0,4.539593E0,3.157248E0,5.597126E0,2.9092698E0,4.4268017E0,2.6165047E0,1.9230886E0,1.4512529E0,1.7059952E0,1.1097056E0,4.4874206E0,1.6614573E0,1.2478124E0,2.0798328E0,2.3469687E0,1.5690756E0,1.047429E0,2.0018477E0,2.4855728E0,1.0453619E0,1.3016069E0,1.3746023E0,1.1109706E0],"tree_param":{"num_deleted":"0","num_feature":"6","num_nodes":"29","size_leaf_vector":"0"}},{"base_weights":[-7.0478604E-3,3.2210723E-2,-4.0634775E-1,-6.4097315E-2,3.9344317E-1,4.0351074E-2,-3.466159E-1,1.8016103E-1,5.6758285E-1,-1.1589187E-1,2.5085384E-1,-5.3195107E-1,-2.7010225E-2,-1.0418508E-1,4.1393536E-1,1.3626902E-1,-8.2781374E-1,6.7498684E-1,-3.344125E-3,-1.3581364E-1,4.4667634E-1,-4.3279678E-1,2.965162E-1],"categories":[],"categories_nodes":[],"categories_segments":[],"categories_sizes":[],"default_left":[1,1,0,1,1,1,1,1,0,1,1,0,0,0,0,1,0,0,1,0,0,0,0],"id":15,"left_children":[1,3,-1,5,7,9,11,13,-1,15,17,-1,-1,-1,-1,19,-1,-1,21,-1,-1,-1,-1],"loss_changes":[3.6191258E-1,7.622976E-1,0E0,5.32956E-1,6.8580925E-2,4.808353E-1,2.7299428E-1,2.7794236E-1,0E0,1.6509193E0,6.6722894E-1,0E0,0E0,0E0,0E0,6.675379E-1,0E0,0E0,7.530918E-1,0E0,0E0,0E0,0E0],"parents":[2147483647,0,0,1,1,3,3,4,4,5,5,6,6,7,7,9,9,10,10,15,15,18,18],"right_children":[2,4,-1,6,8,10,12,14,-1,16,18,-1,-1,-1,-1,20,-1,-1,22,-1,-1,-1,-1],"split_conditions":[3.5749835E2,8.51795E2,-1.2190433E-1,6.62485E2,9.9187E2,1.7363E2,2.5586166E2,-6.1375E3,1.7027485E-1,1.4109E2,1.9259E2,-1.5958533E-1,-8.103068E-3,-3.1255525E-2,1.24180615E-1,3.14785E2,-2.4834414E-1,2.0249607E-1,2.64695E2,-4.0744092E-2,1.3400291E-1,-1.2983903E-1,8.8954866E-2],"split_indices":[5,0,0,0,0,5,5,1,0,5,5,0,0,0,0,0,0,0,0,0,0,0,0],"split_type":[0,0,0,0,0,0,0,0,0,0,0,0,0,0,0,0,0,0,0,0,0,0,0],"sum_hessian":[2.1252169E1,2.0186766E1,1.0654014E0,1.6587057E1,3.5997095E0,1.2735763E1,3.8512948E0,2.5325189E0,1.0671906E0,7.56798E0,5.1677823E0,2.0171676E0,1.8341271E0,1.3927786E0,1.1397402E0,6.185634E0,1.3823458E0,1.3162469E0,3.8515356E0,3.5960443E0,2.5895898E0,1.4013E0,2.4502356E0],"tree_param":{"num_deleted":"0","num_feature":"6","num_nodes":"23","size_leaf_vector":"0"}},{"base_weights":[-6.611117E-3,-1.410786E-1,9.0197E-2,4.1030608E-2,-7.428882E-1,-2.4113825E-1,2.7126914E-1,2.1450073E-1,-4.426216E-1,4.7139715E-2,-5.635126E-1,7.4684113E-1,7.557599E-2,-3.9555043E-2,7.6845855E-1,-3.2237294E-1,3.1360295E-1,3.05607E-1,-4.8424158E-1,3.3708802E-1,-2.893714E-1,4.4358084E-1,1.569375E-2,2.3097521E-1,-6.156443E-1,6.8472886E-1,7.074594E-2],"categories":[],"categories_nodes":[],"categories_segments":[],"categories_sizes":[],"default_left":[1,1,1,1,0,1,1,1,0,1,0,0,1,1,0,0,0,1,0,0,1,1,0,0,0,0,0],"id":16,"left_children":[1,3,5,7,-1,9,11,13,-1,15,-1,-1,17,19,-1,-1,-1,21,-1,-1,23,25,-1,-1,-1,-1,-1],"loss_changes":[2.907518E-1,1.0530081E0,8.470252E-1,7.753885E-1,0E0,5.036015E-1,7.7135324E-1,9.65288E-1,0E0,4.5877507E-1,0E0,0E0,1.1027582E0,6.155425E-1,0E0,0E0,0E0,2.2776258E-1,0E0,0E0,7.9549015E-1,3.0572408E-1,0E0,0E0,0E0,0E0,0E0],"parents":[2147483647,0,0,1,1,2,2,3,3,5,5,6,6,7,7,9,9,12,12,13,13,17,17,20,20,21,21],"right_children":[2,4,6,8,-1,10,12,14,-1,16,-1,-1,18,20,-1,-1,-1,22,-1,-1,24,26,-1,-1,-1,-1,-1],"split_conditions":[1.7363E2,1.4109E2,-9.5E0,4.6262E2,-2.2286648E-1,-1.65E1,2.0124333E2,3.83215E2,-1.3278648E-1,1.86115E4,-1.690538E-1,2.2405235E-1,-7.864505E5,-3.876E3,2.3053758E-1,-9.671189E-2,9.408089E-2,2.8615002E2,-1.4527248E-1,1.0112641E-1,2.2841667E1,6.59595E2,4.7081253E-3,6.929257E-2,-1.8469329E-1,2.0541866E-1,2.1223782E-2],"split_indices":[5,5,3,0,0,3,5,0,0,2,0,0,4,1,0,0,0,5,0,0,5,0,0,0,0,0,0],"split_type":[0,0,0,0,0,0,0,0,0,0,0,0,0,0,0,0,0,0,0,0,0,0,0,0,0,0,0],"sum_hessian":[2.0357866E1,8.330045E0,1.2027822E1,7.110277E0,1.2197678E0,4.1331124E0,7.894709E0,5.642865E0,1.467412E0,2.632667E0,1.5004456E0,1.480477E0,6.4142323E0,4.505261E0,1.1376042E0,1.0151317E0,1.6175354E0,4.868035E0,1.546197E0,1.6572762E0,2.8479848E0,2.939187E0,1.9288479E0,1.2101278E0,1.637857E0,1.2768068E0,1.6623802E0],"tree_param":{"num_deleted":"0","num_feature":"6","num_nodes":"27","size_leaf_vector":"0"}},{"base_weights":[-4.783211E-3,2.5467357E-1,-5.829467E-2,6.2094134E-1,-1.5323775E-1,-2.8573787E-1,5.2601688E-2,-3.9724833E-1,8.431262E-2,2.1532471E-1,-1.7216022E-1,-4.1361623E-3,-5.344054E-1,3.3007404E-1,-2.5339958E-1,1.2740774E-1,-2.690114E-1,-6.388278E-1,-1.3898663E-1,-8.8551E-2,4.535759E-1,-4.50392E-1,9.0636894E-2,7.796571E-1,1.5025784E-1],"categories":[],"categories_nodes":[],"categories_segments":[],"categories_sizes":[],"default_left":[1,1,1,0,0,1,1,1,0,1,1,0,1,1,0,0,1,0,0,0,1,0,0,0,0],"id":17,"left_children":[1,3,5,-1,-1,7,9,11,-1,13,15,-1,17,19,-1,-1,21,-1,-1,-1,23,-1,-1,-1,-1],"loss_changes":[2.9780608E-1,6.436044E-1,4.6171048E-1,0E0,0E0,2.7943158E-1,5.033681E-1,2.541715E-1,0E0,5.0530314E-1,2.0573792E-1,0E0,5.6443095E-2,3.8822412E-1,0E0,0E0,3.5311547E-1,0E0,0E0,0E0,4.131714E-1,0E0,0E0,0E0,0E0],"parents":[2147483647,0,0,1,1,2,2,5,5,6,6,7,7,9,9,10,10,12,12,13,13,16,16,20,20],"right_children":[2,4,6,-1,-1,8,10,12,-1,14,16,-1,18,20,-1,-1,22,-1,-1,-1,24,-1,-1,-1,-1],"split_conditions":[-2.305764E7,3.35445E2,-2.0769895E6,1.8628241E-1,-4.5971327E-2,-6.4875E3,-1.2995E3,1.3550333E2,2.5293786E-2,1.917955E5,-7.864505E5,-1.2408488E-3,-1.15765E4,-1.528012E6,-7.6019876E-2,3.8222324E-2,-1.75E2,-1.9164835E-1,-4.169599E-2,-2.65653E-2,-3.375E3,-1.351176E-1,2.7191069E-2,2.3389715E-1,4.5077354E-2],"split_indices":[4,5,4,0,0,1,1,5,0,2,4,0,1,4,0,0,1,0,0,0,1,0,0,0,0],"split_type":[0,0,0,0,0,0,0,0,0,0,0,0,0,0,0,0,0,0,0,0,0,0,0,0,0],"sum_hessian":[1.9380424E1,2.6709185E0,1.6709505E1,1.1321255E0,1.538793E0,4.960052E0,1.17494545E1,3.7550218E0,1.2050301E0,6.8396645E0,4.9097896E0,1.2377129E0,2.517309E0,5.7321653E0,1.1074991E0,1.1224545E0,3.7873352E0,1.5044421E0,1.0128669E0,1.3703139E0,4.361851E0,2.3499022E0,1.4374331E0,1.3452339E0,3.0166173E0],"tree_param":{"num_deleted":"0","num_feature":"6","num_nodes":"25","size_leaf_vector":"0"}},{"base_weights":[-1.0530066E-3,2.0622677E-1,-6.3622706E-2,4.0163702E-1,-1.2444248E-1,-4.175883E-1,1.7281888E-2,-1.7326425E-1,1.6254854E-1,-3.120831E-1,1.797633E-1,6.3526785E-1,5.2595427E-3,-7.091024E-1,-8.058714E-3,1.561265E-1,-3.6869958E-1,2.5733513E-1,-3.2857877E-1,3.3117312E-1,-2.5008124E-1],"categories":[],"categories_nodes":[],"categories_segments":[],"categories_sizes":[],"default_left":[1,1,1,0,0,0,1,1,1,1,0,0,1,0,1,1,0,0,0,0,0],"id":18,"left_children":[1,3,5,-1,-1,-1,7,9,11,13,-1,-1,15,-1,17,19,-1,-1,-1,-1,-1],"loss_changes":[2.6969212E-1,3.616103E-1,4.642702E-1,0E0,0E0,0E0,4.1432777E-1,3.7557712E-1,6.236083E-1,6.0318244E-1,0E0,0E0,4.7140184E-1,0E0,4.1361353E-1,5.0441325E-1,0E0,0E0,0E0,0E0,0E0],"parents":[2147483647,0,0,1,1,2,2,6,6,7,7,8,8,9,9,12,12,14,14,15,15],"right_children":[2,4,6,-1,-1,-1,8,10,12,14,-1,-1,16,-1,18,20,-1,-1,-1,-1,-1],"split_conditions":[-1.6311E4,3.35445E2,-1.04775E4,1.2049111E-1,-3.7332747E-2,-1.2527649E-1,1.72915E2,-3.49855E4,2.0124333E2,3.14785E2,5.3928994E-2,1.9058037E-1,-7.864505E5,-2.1273072E-1,4.5325E2,2.8615002E2,-1.1060988E-1,7.720054E-2,-9.857363E-2,9.935194E-2,-7.5024374E-2],"split_indices":[1,5,1,0,0,0,5,4,5,0,0,0,4,0,0,5,0,0,0,0,0],"split_type":[0,0,0,0,0,0,0,0,0,0,0,0,0,0,0,0,0,0,0,0,0],"sum_hessian":[1.8782778E1,3.822782E0,1.4959996E1,2.2679248E0,1.5548574E0,2.0089874E0,1.2951009E1,5.5190034E0,7.432005E0,4.044565E0,1.4744385E0,1.0968009E0,6.335204E0,1.1762013E0,2.8683639E0,4.9291377E0,1.4060663E0,1.676958E0,1.1914058E0,3.573803E0,1.3553348E0],"tree_param":{"num_deleted":"0","num_feature":"6","num_nodes":"21","size_leaf_vector":"0"}},{"base_weights":[-7.225129E-3,-8.119192E-2,2.0910949E-1,3.362198E-2,-2.958575E-1,4.615806E-1,-4.8487056E-2,-7.4315175E-2,2.8048074E-1,-3.999695E-1,-4.6938434E-2,-4.0191114E-1,3.110609E-1,8.5497975E-2,-3.013086E-1,-9.396593E-2,4.88131E-1,-8.8838086E-2,-5.8000654E-1,-1.2882625E-1,3.3773854E-1,1.279433E-1,-7.0053667E-1,2.3709792E-1,-4.0302968E-1],"categories":[],"categories_nodes":[],"categories_segments":[],"categories_sizes":[],"default_left":[1,1,1,1,1,0,1,1,1,1,0,0,0,1,1,0,0,0,0,1,0,0,0,0,0],"id":19,"left_children":[1,3,5,7,9,-1,11,13,15,17,-1,-1,-1,19,21,-1,-1,-1,-1,23,-1,-1,-1,-1,-1],"loss_changes":[3.249381E-1,3.8118118E-1,3.5948205E-1,3.0625358E-1,1.19894594E-1,0E0,5.6603324E-1,3.2480085E-1,3.1552902E-1,1.5236008E-1,0E0,0E0,0E0,3.4714356E-1,7.1116084E-1,0E0,0E0,0E0,0E0,4.728613E-1,0E0,0E0,0E0,0E0,0E0],"parents":[2147483647,0,0,1,1,2,2,3,3,4,4,6,6,7,7,8,8,9,9,13,13,14,14,19,19],"right_children":[2,4,6,8,10,-1,12,14,16,18,-1,-1,-1,20,22,-1,-1,-1,-1,24,-1,-1,-1,-1,-1],"split_conditions":[8.51795E2,5.98315E2,9.42755E2,4.1707E2,2.5586166E2,1.3847418E-1,-6.5E0,2.5309E2,-3.713E3,2.25725E2,-1.4081531E-2,-1.2057335E-1,9.3318276E-2,1.95075E2,-3E0,-2.818978E-2,1.464393E-1,-2.6651427E-2,-1.7400196E-1,-3.76E3,1.0132157E-1,3.8382992E-2,-2.1016102E-1,7.112938E-2,-1.2090891E-1],"split_indices":[0,0,0,0,5,0,3,0,1,5,0,0,0,0,3,0,0,0,0,1,0,0,0,0,0],"split_type":[0,0,0,0,0,0,0,0,0,0,0,0,0,0,0,0,0,0,0,0,0,0,0,0,0],"sum_hessian":[1.8245607E1,1.4062278E1,4.183329E0,9.711472E0,4.350806E0,1.712767E0,2.4705622E0,7.243334E0,2.4681373E0,2.6398478E0,1.7109586E0,1.1864734E0,1.2840887E0,4.61648E0,2.6268544E0,1.0757549E0,1.3923824E0,1.5150517E0,1.124796E0,2.7603407E0,1.856139E0,1.5932778E0,1.0335766E0,1.2403784E0,1.5199623E0],"tree_param":{"num_deleted":"0","num_feature":"6","num_nodes":"25","size_leaf_vector":"0"}},{"base_weights":[-1.1646976E-2,-7.479055E-2,1.7446698E-1,-6.301198E-3,-4.068876E-1,3.639035E-1,-7.009043E-2,-6.160009E-2,3.2288638E-1,-2.6285788E-1,1.5585661E-1,3.905218E-2,-3.91962E-1,-9.4531335E-2,2.8725433E-1,6.013442E-2,-5.1318014E-1,-3.6913034E-2,4.493516E-1],"categories":[],"categories_nodes":[],"categories_segments":[],"categories_sizes":[],"default_left":[1,1,1,1,0,0,1,1,0,0,0,1,0,1,1,0,0,0,0],"id":20,"left_children":[1,3,5,7,-1,-1,9,11,-1,-1,-1,13,-1,15,17,-1,-1,-1,-1],"loss_changes":[2.3230131E-1,3.3020803E-1,2.5836587E-1,2.5917387E-1,0E0,0E0,1.7304787E-1,4.1745368E-1,0E0,0E0,0E0,3.6465234E-1,0E0,5.0806963E-1,2.1674809E-1,0E0,0E0,0E0,0E0],"parents":[2147483647,0,0,1,1,2,2,3,3,6,6,7,7,11,11,13,13,14,14],"right_children":[2,4,6,8,-1,-1,10,12,-1,-1,-1,14,-1,16,18,-1,-1,-1,-1],"split_conditions":[8.51795E2,2.7341998E2,3.35445E2,7.5714E2,-1.2206628E-1,1.09171055E-1,1.094875E3,2.2454834E2,9.6865915E-2,-7.885737E-2,4.6756983E-2,1.7363E2,-1.175886E-1,1.4037668E2,-3.386E3,1.8040325E-2,-1.5395404E-1,-1.1073911E-2,1.3480549E-1],"split_indices":[0,5,5,0,0,0,0,5,0,0,0,5,0,5,1,0,0,0,0],"split_type":[0,0,0,0,0,0,0,0,0,0,0,0,0,0,0,0,0,0,0],"sum_hessian":[1.7656797E1,1.363048E1,4.0263166E0,1.2144796E1,1.4856832E0,1.9938519E0,2.032465E0,1.1094028E1,1.0507686E0,1.0086075E0,1.0238575E0,9.179173E0,1.9148544E0,6.369965E0,2.8092084E0,5.2768464E0,1.093119E0,1.1938958E0,1.6153126E0],"tree_param":{"num_deleted":"0","num_feature":"6","num_nodes":"19","size_leaf_vector":"0"}},{"base_weights":[-1.2892855E-2,2.5135452E-1,-5.533883E-2,-2.3675719E-1,4.7261E-2,-3.684142E-1,4.5758374E-3,3.4806708E-1,-4.481171E-2,-5.9633292E-2,-5.492822E-1,-2.479798E-1,2.7064943E-1,1.9583184E-1,-1.9396725E-1,4.7232938E-1,-2.1049868E-1,2.154487E-1,-3.212685E-1,-5.5993074E-1,-1.0704523E-1],"categories":[],"categories_nodes":[],"categories_segments":[],"categories_sizes":[],"default_left":[1,0,1,1,1,1,1,0,1,0,0,0,0,1,1,0,0,0,1,0,0],"id":21,"left_children":[1,-1,3,5,7,9,11,-1,13,-1,-1,-1,-1,15,17,-1,-1,-1,19,-1,-1],"loss_changes":[2.1868315E-1,0E0,3.1923738E-1,1.9692835E-1,3.31466E-1,1.8997675E-1,2.7924317E-1,0E0,3.8320702E-1,0E0,0E0,0E0,0E0,5.6881046E-1,4.0486905E-1,0E0,0E0,0E0,2.11752E-1,0E0,0E0],"parents":[2147483647,0,0,2,2,3,3,4,4,5,5,6,6,8,8,13,13,14,14,18,18],"right_children":[2,-1,4,6,8,10,12,-1,14,-1,-1,-1,-1,16,18,-1,-1,-1,20,-1,-1],"split_conditions":[-1.37333E5,7.540636E-2,-2.0769895E6,2.6349167E2,-3.7535E3,4.34785E2,-8.256648E6,1.04420125E-1,-7.864505E5,-1.7889988E-2,-1.6478467E-1,-7.439394E-2,8.119483E-2,2.4363501E2,2.2841667E1,1.4169882E-1,-6.314961E-2,6.463461E-2,-5.665625E5,-1.6797923E-1,-3.211357E-2],"split_indices":[1,0,4,5,1,0,4,0,4,0,0,0,0,5,5,0,0,0,4,0,0],"split_type":[0,0,0,0,0,0,0,0,0,0,0,0,0,0,0,0,0,0,0,0,0],"sum_hessian":[1.725688E1,1.7071663E0,1.5549714E1,5.1448836E0,1.040483E1,2.9881473E0,2.1567364E0,1.7868273E0,8.618003E0,1.5949419E0,1.3932055E0,1.1413633E0,1.0153731E0,3.1779103E0,5.440092E0,1.7944242E0,1.3834863E0,1.1260735E0,4.3140187E0,1.2772669E0,3.0367517E0],"tree_param":{"num_deleted":"0","num_feature":"6","num_nodes":"21","size_leaf_vector":"0"}},{"base_weights":[-1.2797846E-2,-1.4928019E-1,6.4789064E-2,2.3350267E-1,-3.1036785E-1,4.113046E-1,-4.0435832E-2,5.316831E-2,-4.4858712E-1,-1.17562555E-1,3.0264464E-1,-5.644918E-1,-1.735376E-1,4.5828268E-2,-2.5542495E-1,-2.5917068E-1,3.5141215E-1,-4.804842E-1,3.5557255E-2,-7.243102E-2,-3.1681326E-1,1.8323435E-1,-1.3559367E-1],"categories":[],"categories_nodes":[],"categories_segments":[],"categories_sizes":[],"default_left":[1,1,1,0,1,0,1,0,1,1,0,0,0,1,1,1,0,0,1,0,0,0,0],"id":22,"left_children":[1,3,5,-1,7,-1,9,-1,11,13,-1,-1,-1,15,17,19,-1,-1,21,-1,-1,-1,-1],"loss_changes":[1.9855043E-1,4.8976114E-1,4.567079E-1,0E0,2.8475302E-1,0E0,3.046467E-1,0E0,2.5348008E-2,2.1493945E-1,0E0,0E0,0E0,5.549268E-1,3.475129E-1,1.0059208E-2,0E0,0E0,1.03997335E-1,0E0,0E0,0E0,0E0],"parents":[2147483647,0,0,1,1,2,2,4,4,6,6,8,8,9,9,13,13,14,14,15,15,18,18],"right_children":[2,4,6,-1,8,-1,10,-1,12,14,-1,-1,-1,16,18,20,-1,-1,22,-1,-1,-1,-1],"split_conditions":[1.85555E4,2.33235E2,2.6217E4,7.0050806E-2,-4.85E1,1.2339138E-1,-1.5E0,1.5950494E-2,-6.66701E5,4.5325E2,9.079339E-2,-1.6934755E-1,-5.2061282E-2,2.302E2,2.5586166E2,1.42867E5,1.0542365E-1,-1.4414527E-1,2.9961334E2,-2.1729307E-2,-9.504398E-2,5.4970305E-2,-4.0678103E-2],"split_indices":[2,0,2,0,3,0,3,0,4,0,0,0,0,0,5,2,0,0,5,0,0,0,0],"split_type":[0,0,0,0,0,0,0,0,0,0,0,0,0,0,0,0,0,0,0,0,0,0,0],"sum_hessian":[1.6836847E1,5.7674127E0,1.1069435E1,1.5750881E0,4.1923246E0,1.9008713E0,9.168564E0,1.3243724E0,2.867952E0,8.022407E0,1.1461568E0,1.2773532E0,1.590599E0,3.9767952E0,4.045612E0,2.066317E0,1.910478E0,1.9139917E0,2.1316202E0,1.0196384E0,1.0466788E0,1.1063813E0,1.0252389E0],"tree_param":{"num_deleted":"0","num_feature":"6","num_nodes":"23","size_leaf_vector":"0"}},{"base_weights":[-1.32809635E-2,-2.3275527E-1,2.754123E-2,-2.1105416E-1,9.259224E-2,-3.8908195E-1,7.446052E-2,5.133595E-1,1.42788375E-2,-3.6341655E-1,9.088863E-2,3.644832E-1,-1.5127635E-2,6.701592E-2,4.8464274E-1,-4.1081122E-1,1.18709095E-1],"categories":[],"categories_nodes":[],"categories_segments":[],"categories_sizes":[],"default_left":[1,0,1,1,1,0,0,0,1,0,1,1,1,0,0,0,0],"id":23,"left_children":[1,-1,3,5,7,-1,-1,-1,9,-1,11,13,15,-1,-1,-1,-1],"loss_changes":[1.6264786E-1,0E0,2.616317E-1,2.1431966E-1,4.1943464E-1,0E0,0E0,0E0,3.7873572E-1,0E0,3.168235E-1,7.608378E-2,5.092561E-1,0E0,0E0,0E0,0E0],"parents":[2147483647,0,0,2,2,3,3,4,4,8,8,10,10,11,11,12,12],"right_children":[2,-1,4,6,8,-1,-1,-1,10,-1,12,14,16,-1,-1,-1,-1],"split_conditions":[4.611E3,-6.982659E-2,2.23755E2,1.7363E2,2.5309E2,-1.1672459E-1,2.2338158E-2,1.5400785E-1,3.1066E2,-1.0902497E-1,4.5325E2,4.1707E2,2.1711166E2,2.0104777E-2,1.4539284E-1,-1.2324337E-1,3.561273E-2],"split_indices":[2,0,0,5,0,0,0,0,0,0,0,0,5,0,0,0,0],"split_type":[0,0,0,0,0,0,0,0,0,0,0,0,0,0,0,0,0],"sum_hessian":[1.6438343E1,1.8406552E0,1.4597687E1,2.64647E0,1.1951217E1,1.4066432E0,1.239827E0,1.003634E0,1.0947583E1,1.2147899E0,9.732793E0,2.0372639E0,7.6955295E0,1.0343496E0,1.0029142E0,1.421985E0,6.2735443E0],"tree_param":{"num_deleted":"0","num_feature":"6","num_nodes":"17","size_leaf_vector":"0"}},{"base_weights":[-1.2199362E-2,-1.17795676E-1,5.977254E-2,1.7885965E-1,-2.287203E-1,3.1154755E-1,-2.2076579E-2,-7.9453565E-2,-3.881102E-1,8.0591954E-2,-3.474985E-1,-2.6847854E-1,1.0300014E-1,4.1518596E-1,-1.1273208E-1,1.8963803E-1,-2.2793227E-1,-4.5096737E-1,1.6592233E-2],"categories":[],"categories_nodes":[],"categories_segments":[],"categories_sizes":[],"default_left":[1,1,1,0,1,0,1,1,0,1,0,0,0,0,1,0,1,0,0],"id":24,"left_children":[1,3,5,-1,7,-1,9,11,-1,13,-1,-1,-1,-1,15,-1,17,-1,-1],"loss_changes":[1.379733E-1,2.8176618E-1,2.3167637E-1,0E0,1.0635227E-1,0E0,3.342518E-1,1.7371534E-1,0E0,5.5002713E-1,0E0,0E0,0E0,0E0,2.4237056E-1,0E0,2.5803E-1,0E0,0E0],"parents":[2147483647,0,0,1,1,2,2,4,4,6,6,7,7,9,9,14,14,16,16],"right_children":[2,4,6,-1,8,-1,10,12,-1,14,-1,-1,-1,-1,16,-1,18,-1,-1],"split_conditions":[-2.0769895E6,-1.37333E5,-3.7535E3,5.3657897E-2,5.7143E4,9.346427E-2,2.60435E2,1.86115E4,-1.1643306E-1,-7.864505E5,-1.0424956E-1,-8.054356E-2,3.0900044E-2,1.2455579E-1,2.2841667E1,5.689141E-2,1.13815E4,-1.3529022E-1,4.97767E-3],"split_indices":[4,1,1,0,2,0,5,2,0,4,0,0,0,0,5,0,2,0,0],"split_type":[0,0,0,0,0,0,0,0,0,0,0,0,0,0,0,0,0,0,0],"sum_hessian":[1.6228014E1,6.3194714E0,9.908543E0,1.5531923E0,4.766279E0,1.7424011E0,8.1661415E0,3.2351162E0,1.531163E0,6.7795753E0,1.3865664E0,1.3573701E0,1.8777461E0,2.062428E0,4.7171474E0,1.1231126E0,3.594035E0,1.438077E0,2.155958E0],"tree_param":{"num_deleted":"0","num_feature":"6","num_nodes":"19","size_leaf_vector":"0"}},{"base_weights":[-1.3366858E-2,-1.0494703E-1,6.6195205E-2,2.4973619E-1,-3.3913067E-1,-2.1421914E-1,2.2132102E-1,-1.0585157E-1,5.3892356E-1,-5.233179E-1,-6.443227E-2,1.11417726E-1,-3.652604E-1,4.3562236E-1,5.479457E-2,-6.184334E-1,-1.6531461E-1,-2.9334173E-1,1.8014109E-1,-1.8991369E-1,3.5862046E-1,1.5291082E-2,-3.2461905E-1],"categories":[],"categories_nodes":[],"categories_segments":[],"categories_sizes":[],"default_left":[1,1,1,1,1,1,1,0,0,1,1,0,0,0,1,0,0,0,0,1,0,0,0],"id":25,"left_children":[1,3,5,7,9,11,13,-1,-1,15,17,-1,-1,-1,19,-1,-1,-1,-1,21,-1,-1,-1],"loss_changes":[1.3008152E-1,7.693769E-1,4.674555E-1,4.533666E-1,2.3894608E-1,2.34849E-1,2.1554878E-1,0E0,0E0,2.8336048E-3,2.3778811E-1,0E0,0E0,0E0,4.3383828E-1,0E0,0E0,0E0,0E0,9.8350786E-2,0E0,0E0,0E0],"parents":[2147483647,0,0,1,1,2,2,3,3,4,4,5,5,6,6,9,9,10,10,14,14,19,19],"right_children":[2,4,6,8,10,12,14,-1,-1,16,18,-1,-1,-1,20,-1,-1,-1,-1,22,-1,-1,-1],"split_conditions":[-7.5E0,1.3550333E2,1.72915E2,9.521933E1,7.99695E2,1.7056E1,2.2454834E2,-3.1755473E-2,1.6167708E-1,-1.025E4,-2.5625E4,3.342532E-2,-1.09578125E-1,1.3068672E-1,8.51795E2,-1.8553004E-1,-4.9594387E-2,-8.800252E-2,5.404233E-2,7.1758496E2,1.07586145E-1,4.587325E-3,-9.738572E-2],"split_indices":[3,5,5,5,0,5,5,0,0,1,1,0,0,0,0,0,0,0,0,0,0,0,0],"split_type":[0,0,0,0,0,0,0,0,0,0,0,0,0,0,0,0,0,0,0,0,0,0,0],"sum_hessian":[1.5899444E1,7.243142E0,8.6563015E0,2.8540797E0,4.3890624E0,2.947426E0,5.708875E0,1.5644207E0,1.2896589E0,2.085594E0,2.3034687E0,1.017052E0,1.930374E0,1.78974E0,3.919135E0,1.0730503E0,1.0125437E0,1.086837E0,1.2166315E0,2.3784244E0,1.5407108E0,1.2938738E0,1.0845506E0],"tree_param":{"num_deleted":"0","num_feature":"6","num_nodes":"23","size_leaf_vector":"0"}},{"base_weights":[-1.4125381E-2,-1.7047155E-1,3.4999352E-2,5.3150365E-3,-3.4414047E-1,1.9030386E-1,-8.9718655E-2,-2.1034375E-1,3.1603345E-1,-2.6938295E-1,1.08815156E-1,5.005677E-1,5.1968295E-2,1.9100344E-2,-3.7296575E-1,3.441517E-1,-1.473969E-1,-4.6357375E-2,1.3366319E-1],"categories":[],"categories_nodes":[],"categories_segments":[],"categories_sizes":[],"default_left":[1,1,1,0,0,1,1,0,1,1,1,0,1,0,0,0,0,0,0],"id":26,"left_children":[1,3,5,-1,-1,7,9,-1,11,13,15,-1,17,-1,-1,-1,-1,-1,-1],"loss_changes":[1.317996E-1,1.2661117E-1,2.746108E-1,0E0,0E0,3.809216E-1,3.1658912E-1,0E0,2.249847E-1,1.420573E-1,3.2436773E-1,0E0,3.2179665E-2,0E0,0E0,0E0,0E0,0E0,0E0],"parents":[2147483647,0,0,1,1,2,2,5,5,6,6,8,8,9,9,10,10,12,12],"right_children":[2,4,6,-1,-1,8,10,-1,12,14,16,-1,18,-1,-1,-1,-1,-1,-1],"split_conditions":[2.23755E2,1.92315E2,5.98315E2,1.594511E-3,-1.03242144E-1,-2.05E1,8.51795E2,-6.3103124E-2,-3E0,-3.75E3,3.35445E2,1.5017031E-1,3.65655E2,5.7301032E-3,-1.1188973E-1,1.0324552E-1,-4.4219073E-2,-1.3907213E-2,4.0098958E-2],"split_indices":[0,0,0,0,0,3,0,0,3,1,5,0,0,0,0,0,0,0,0],"split_type":[0,0,0,0,0,0,0,0,0,0,0,0,0,0,0,0,0,0,0],"sum_hessian":[1.5383539E1,3.0873735E0,1.2296165E1,2.0160925E0,1.0712808E0,5.242319E0,7.0538464E0,1.0914236E0,4.1508956E0,3.5155592E0,3.538287E0,1.9161961E0,2.2346995E0,1.1442815E0,2.3712778E0,1.6653738E0,1.8729132E0,1.2104232E0,1.0242763E0],"tree_param":{"num_deleted":"0","num_feature":"6","num_nodes":"19","size_leaf_vector":"0"}},{"base_weights":[-1.2134243E-2,-2.1736625E-1,2.6060572E-2,2.86888E-1,-3.9097477E-2,7.42506E-2,3.5589436E-1,-3.757128E-1,4.1897133E-2,2.5842184E-1,-8.380852E-2,4.5939046E-1,-1.3063326E-1,-1.7451732E-1,1.980075E-1,1.3146502E-1,5.576925E-1,2.7211875E-2,-3.4776053E-1],"categories":[],"categories_nodes":[],"categories_segments":[],"categories_sizes":[],"default_left":[1,0,1,1,1,0,0,0,1,1,1,1,0,1,0,0,0,0,0],"id":27,"left_children":[1,-1,3,5,7,-1,-1,-1,9,11,13,15,-1,17,-1,-1,-1,-1,-1],"loss_changes":[1.3187759E-1,0E0,2.5709465E-1,1.7766863E-2,3.553401E-1,0E0,0E0,0E0,3.194216E-1,3.9334375E-1,2.3079363E-1,2.443856E-2,0E0,2.309958E-1,0E0,0E0,0E0,0E0,0E0],"parents":[2147483647,0,0,2,2,3,3,4,4,8,8,9,9,10,10,11,11,13,13],"right_children":[2,-1,4,6,8,-1,-1,-1,10,12,14,16,-1,18,-1,-1,-1,-1,-1],"split_conditions":[4.611E3,-6.520988E-2,9.8315E3,-6.4572E5,1.85555E4,2.2275181E-2,1.0676831E-1,-1.1271385E-1,5.55655E4,2.7341998E2,9.8006E2,-1.0832545E6,-3.918998E-2,2.8499E2,5.940225E-2,3.9439507E-2,1.6730776E-1,8.163563E-3,-1.0432816E-1],"split_indices":[2,0,2,4,2,0,0,0,2,5,0,4,0,0,0,0,0,0,0],"split_type":[0,0,0,0,0,0,0,0,0,0,0,0,0,0,0,0,0,0,0],"sum_hessian":[1.5101053E1,1.6333883E0,1.3467665E1,2.0117364E0,1.1455929E1,1.0015475E0,1.0101889E0,1.5161283E0,9.9398E0,3.2632198E0,6.6765804E0,2.0325234E0,1.2306964E0,5.338882E0,1.3376985E0,1.0078381E0,1.0246851E0,2.856094E0,2.482788E0],"tree_param":{"num_deleted":"0","num_feature":"6","num_nodes":"19","size_leaf_vector":"0"}},{"base_weights":[-3.2700715E-3,-7.1923204E-2,1.1196072E-1,-3.8373274E-1,1.241303E-2,3.5988608E-1,-5.1322073E-2,4.0328556E-1,-1.03529215E-1,-2.6698884E-1,1.0734814E-1,-3.091622E-1,1.7661087E-1,2.3488842E-1,-8.1932545E-2,-5.040272E-1,-6.1572284E-2,3.052176E-1,-5.8794152E-2,1.6559233E-1,-2.9216263E-1],"categories":[],"categories_nodes":[],"categories_segments":[],"categories_sizes":[],"default_left":[1,1,1,0,1,0,1,0,1,0,1,1,1,0,0,0,1,0,0,0,0],"id":28,"left_children":[1,3,5,-1,7,-1,9,-1,11,-1,13,15,17,-1,-1,-1,19,-1,-1,-1,-1],"loss_changes":[1.3361278E-1,2.8232256E-1,2.741878E-1,0E0,4.6214902E-1,0E0,1.8893759E-1,0E0,5.125725E-1,0E0,1.0160586E-1,2.0770347E-1,1.3909745E-1,0E0,0E0,0E0,2.2220786E-1,0E0,0E0,0E0,0E0],"parents":[2147483647,0,0,1,1,2,2,4,4,6,6,8,8,10,10,11,11,12,12,16,16],"right_children":[2,4,6,-1,8,-1,10,-1,12,-1,14,16,18,-1,-1,-1,20,-1,-1,-1,-1],"split_conditions":[-2.183E3,9.521933E1,-1.2995E3,-1.1511982E-1,1.3550333E2,1.0796583E-1,4.18075E2,1.2098567E-1,-6.5E0,-8.0096655E-2,6.83555E2,7.99695E2,-3.753E3,7.0466526E-2,-2.4579765E-2,-1.5120816E-1,9.50685E2,9.156528E-2,-1.7638246E-2,4.96777E-2,-8.7648794E-2],"split_indices":[1,5,1,0,5,0,0,0,3,0,0,0,1,0,0,0,0,0,0,0,0],"split_type":[0,0,0,0,0,0,0,0,0,0,0,0,0,0,0,0,0,0,0,0,0],"sum_hessian":[1.4871687E1,9.5548525E0,5.3168344E0,1.2783775E0,8.276475E0,1.6331005E0,3.6837337E0,1.3264209E0,6.950054E0,1.2720629E0,2.4116707E0,3.948277E0,3.001777E0,1.296868E0,1.1148028E0,1.6298074E0,2.3184698E0,1.7494514E0,1.2523257E0,1.3099033E0,1.0085664E0],"tree_param":{"num_deleted":"0","num_feature":"6","num_nodes":"21","size_leaf_vector":"0"}},{"base_weights":[-5.023153E-3,-1.641653E-1,4.5863576E-2,-2.5783175E-1,4.4348754E-2,3.7939373E-1,-1.8831216E-2,-3.142316E-1,4.135177E-2,3.425324E-1,-6.190558E-2,-3.152163E-1,5.0484475E-2,2.7557796E-1,-1.2206454E-1],"categories":[],"categories_nodes":[],"categories_segments":[],"categories_sizes":[],"default_left":[1,1,1,0,0,0,1,0,1,0,1,0,1,0,0],"id":29,"left_children":[1,3,5,-1,-1,-1,7,-1,9,-1,11,-1,13,-1,-1],"loss_changes":[1.3277782E-1,8.888544E-2,2.7687818E-1,0E0,0E0,0E0,2.1606398E-1,0E0,3.4379348E-1,0E0,2.5994194E-1,0E0,2.9771766E-1,0E0,0E0],"parents":[2147483647,0,0,1,1,2,2,6,6,8,8,10,10,12,12],"right_children":[2,4,6,-1,-1,-1,8,-1,10,-1,12,-1,14,-1,-1],"split_conditions":[2.23755E2,1.7363E2,2.5784E2,-7.734953E-2,1.3304627E-2,1.13818124E-1,3.14785E2,-9.4269484E-2,4.4886E2,1.0275973E-1,2.1711166E2,-9.456489E-2,2.7432166E2,8.267339E-2,-3.661936E-2],"split_indices":[0,5,0,0,0,0,0,0,0,0,5,0,5,0,0],"split_type":[0,0,0,0,0,0,0,0,0,0,0,0,0,0,0],"sum_hessian":[1.4466186E1,2.965584E0,1.1500602E1,1.8831403E0,1.0824438E0,1.0781095E0,1.0422492E1,1.0495656E0,9.372927E0,1.8013849E0,7.5715413E0,1.7723224E0,5.799219E0,2.2573557E0,3.5418634E0],"tree_param":{"num_deleted":"0","num_feature":"6","num_nodes":"15","size_leaf_vector":"0"}},{"base_weights":[-3.1348742E-3,-5.2249778E-2,1.3003021E-1,3.980281E-2,-2.8272435E-1,2.817697E-1,-1.8847947E-1,-1.3177031E-1,1.3873719E-1,-4.1047996E-1,-4.5569703E-2,4.9269937E-2,3.756801E-1,1.4522996E-2,-2.7798438E-1,2.6984525E-1,-3.476836E-2,6.710178E-3,4.6472794E-1,-3.2010046E-1,2.196035E-1],"categories":[],"categories_nodes":[],"categories_segments":[],"categories_sizes":[],"default_left":[1,1,1,1,1,1,0,1,1,0,0,0,0,0,0,1,1,0,0,0,0],"id":30,"left_children":[1,3,5,7,9,11,-1,13,15,-1,-1,-1,-1,-1,-1,17,19,-1,-1,-1,-1],"loss_changes":[1.0712219E-1,2.641425E-1,2.6672432E-1,1.7774658E-1,8.810845E-2,5.5606425E-2,0E0,8.85015E-2,1.5600763E-1,0E0,0E0,0E0,0E0,0E0,0E0,1.9100547E-1,3.3594835E-1,0E0,0E0,0E0,0E0],"parents":[2147483647,0,0,1,1,2,2,3,3,4,4,5,5,7,7,8,8,15,15,16,16],"right_children":[2,4,6,8,10,12,-1,14,16,-1,-1,-1,-1,-1,-1,18,20,-1,-1,-1,-1],"split_conditions":[8.51795E2,6.62485E2,1.9136315E6,2.23755E2,2.5586166E2,2.15215E4,-5.6543842E-2,1.92315E2,1.4109E2,-1.2314399E-1,-1.3670911E-2,1.47809815E-2,1.1270403E-1,4.356899E-3,-8.339532E-2,1.1213E4,2.1711166E2,2.0130535E-3,1.394184E-1,-9.603014E-2,6.588105E-2],"split_indices":[0,0,2,0,5,2,0,0,5,0,0,0,0,0,0,2,5,0,0,0,0],"split_type":[0,0,0,0,0,0,0,0,0,0,0,0,0,0,0,0,0,0,0,0,0],"sum_hessian":[1.4339779E1,1.0919867E1,3.419912E0,8.394404E0,2.5254624E0,2.3945074E0,1.0254046E0,2.948751E0,5.4456534E0,1.1663136E0,1.3591487E0,1.1275675E0,1.26694E0,1.9241905E0,1.0245603E0,2.7855332E0,2.66012E0,1.6253628E0,1.1601704E0,1.1319745E0,1.5281456E0],"tree_param":{"num_deleted":"0","num_feature":"6","num_nodes":"21","size_leaf_vector":"0"}},{"base_weights":[-4.4404548E-3,1.7554687E-1,-3.6490932E-2,-1.9593084E-1,5.3472947E-2,-4.2139493E-2,-3.5499814E-1,2.866858E-1,-2.3761021E-2,-1.9992338E-1,9.721145E-2,-1.8077953E-1,1.3509151E-1,1.0226965E-1,-3.6075333E-1,4.0569836E-1,-5.457959E-2,-2.3751827E-1,1.3421266E-1],"categories":[],"categories_nodes":[],"categories_segments":[],"categories_sizes":[],"default_left":[1,0,1,1,1,1,0,0,1,0,0,1,1,0,0,0,1,0,0],"id":31,"left_children":[1,-1,3,5,7,9,-1,-1,11,-1,-1,13,15,-1,-1,-1,17,-1,-1],"loss_changes":[9.349108E-2,0E0,2.0615922E-1,1.1066823E-1,1.7804936E-1,1.0179241E-1,0E0,0E0,2.2558999E-1,0E0,0E0,2.6529953E-1,2.5729427E-1,0E0,0E0,0E0,1.5534842E-1,0E0,0E0],"parents":[2147483647,0,0,2,2,3,3,4,4,5,5,8,8,11,11,12,12,16,16],"right_children":[2,-1,4,6,8,10,-1,-1,12,-1,-1,14,16,-1,-1,-1,18,-1,-1],"split_conditions":[-1.37333E5,5.2664064E-2,-2.0769895E6,5.7143E4,-3.7535E3,1.86115E4,-1.0649945E-1,8.600574E-2,4.18075E2,-5.9977017E-2,2.9163437E-2,9.8315E3,5.98315E2,3.0680897E-2,-1.08226E-1,1.2170951E-1,7.75795E2,-7.125548E-2,4.0263798E-2],"split_indices":[1,0,4,2,1,2,0,0,0,0,0,2,0,0,0,0,0,0,0],"split_type":[0,0,0,0,0,0,0,0,0,0,0,0,0,0,0,0,0,0,0],"sum_hessian":[1.4096211E1,1.4539574E0,1.2642254E1,4.1353793E0,8.506875E0,2.7456822E0,1.3896972E0,1.4416893E0,7.0651855E0,1.083821E0,1.6618612E0,3.4836862E0,3.5814993E0,1.5219038E0,1.9617825E0,1.0065215E0,2.5749779E0,1.1766839E0,1.3982939E0],"tree_param":{"num_deleted":"0","num_feature":"6","num_nodes":"19","size_leaf_vector":"0"}},{"base_weights":[-2.2757647E-3,-9.626175E-2,7.9852685E-2,1.7611718E-1,-2.9295403E-1,-1.745267E-1,2.1832462E-1,-1.02375634E-1,3.783876E-1,-4.687424E-1,-6.6398464E-2,5.8587912E-2,-3.724105E-1,4.0465018E-1,6.192745E-2,-2.350993E-1,1.3211627E-1,-1.329751E-1,2.8976968E-1,7.431681E-2,-2.7461064E-1],"categories":[],"categories_nodes":[],"categories_segments":[],"categories_sizes":[],"default_left":[1,1,1,1,1,1,1,0,0,0,1,0,0,0,1,0,0,1,0,0,0],"id":32,"left_children":[1,3,5,7,9,11,13,-1,-1,-1,15,-1,-1,-1,17,-1,-1,19,-1,-1,-1],"loss_changes":[1.2203443E-1,4.4599527E-1,3.3582923E-1,2.4780759E-1,1.5407515E-1,1.8488643E-1,1.4737496E-1,0E0,0E0,0E0,1.3811867E-1,0E0,0E0,0E0,2.3382054E-1,0E0,0E0,1.1012102E-1,0E0,0E0,0E0],"parents":[2147483647,0,0,1,1,2,2,3,3,4,4,5,5,6,6,10,10,14,14,17,17],"right_children":[2,4,6,8,10,12,14,-1,-1,-1,16,-1,-1,-1,18,-1,-1,20,-1,-1,-1],"split_conditions":[-7.5E0,1.3912167E2,1.72915E2,9.521933E1,7.99695E2,3.8582333E1,2.2454834E2,-3.0712692E-2,1.13516286E-1,-1.4062272E-1,-2.5625E4,1.7576374E-2,-1.11723155E-1,1.2139506E-1,8.51795E2,-7.0529796E-2,3.9634883E-2,2.60435E2,8.693091E-2,2.2295043E-2,-8.238319E-2],"split_indices":[3,5,5,5,0,5,5,0,0,0,1,0,0,0,0,0,0,5,0,0,0],"split_type":[0,0,0,0,0,0,0,0,0,0,0,0,0,0,0,0,0,0,0,0,0],"sum_hessian":[1.3813943E1,6.3616843E0,7.4522586E0,2.7114632E0,3.650221E0,2.534989E0,4.917269E0,1.3485715E0,1.3628918E0,1.4534607E0,2.1967604E0,1.4870802E0,1.047909E0,1.5195782E0,3.397691E0,1.0879297E0,1.1088306E0,2.0556247E0,1.3420662E0,1.0273432E0,1.0282816E0],"tree_param":{"num_deleted":"0","num_feature":"6","num_nodes":"21","size_leaf_vector":"0"}},{"base_weights":[-4.148626E-3,-1.4927274E-1,4.282795E-2,-2.4136779E-1,5.1341306E-2,3.3703297E-1,-1.8229488E-2,1.2825777E-1,-8.146711E-2,2.820256E-1,-6.0055293E-2,-1.5224995E-1,1.4966051E-1,-1.5890764E-2,-3.720667E-1,1.9126411E-1,-3.496135E-1],"categories":[],"categories_nodes":[],"categories_segments":[],"categories_sizes":[],"default_left":[1,1,1,0,0,0,1,1,1,0,0,1,0,1,0,0,0],"id":33,"left_children":[1,3,5,-1,-1,-1,7,9,11,-1,-1,13,-1,15,-1,-1,-1],"loss_changes":[1.04934834E-1,8.181666E-2,2.1625723E-1,0E0,0E0,0E0,1.0896765E-1,1.21042415E-1,1.5431799E-1,0E0,0E0,1.9343531E-1,0E0,4.2283997E-1,0E0,0E0,0E0],"parents":[2147483647,0,0,1,1,2,2,6,6,7,7,8,8,11,11,13,13],"right_children":[2,4,6,-1,-1,-1,8,10,12,-1,-1,14,-1,16,-1,-1,-1],"split_conditions":[2.23755E2,1.7363E2,2.5784E2,-7.241034E-2,1.54023925E-2,1.011099E-1,-1.75E1,1.3550333E2,-1.5E0,8.460768E-2,-1.8016588E-2,2.8615002E2,4.4898156E-2,-7.864505E5,-1.1162002E-1,5.7379235E-2,-1.0488405E-1],"split_indices":[0,5,0,0,0,0,3,5,3,0,0,5,0,4,0,0,0],"split_type":[0,0,0,0,0,0,0,0,0,0,0,0,0,0,0,0,0],"sum_hessian":[1.3454381E1,2.7576404E0,1.0696741E1,1.7507745E0,1.0068659E0,1.0615814E0,9.6351595E0,2.5952306E0,7.039929E0,1.1547071E0,1.4405234E0,5.650681E0,1.389248E0,4.1491346E0,1.5015464E0,2.8234098E0,1.3257247E0],"tree_param":{"num_deleted":"0","num_feature":"6","num_nodes":"17","size_leaf_vector":"0"}},{"base_weights":[-3.441572E-3,-2.0172395E-1,2.7501814E-2,-2.469159E-2,3.301152E-1,-1.9084223E-1,6.595698E-2,6.773976E-2,-3.191453E-1,-1.13338016E-1,1.8107748E-1,-3.7813655E-1,-1.0297981E-1,1.4493999E-1,-3.3711427E-1,3.4926128E-1,4.3481342E-2,-1.2462869E-1,2.4592476E-1],"categories":[],"categories_nodes":[],"categories_segments":[],"categories_sizes":[],"default_left":[1,0,1,1,0,1,1,0,1,1,1,0,0,0,0,0,1,0,0],"id":34,"left_children":[1,-1,3,5,-1,7,9,-1,11,13,15,-1,-1,-1,-1,-1,17,-1,-1],"loss_changes":[9.350343E-2,0E0,2.1790625E-1,1.9719627E-1,0E0,1.7368643E-1,1.9955088E-1,0E0,2.3576617E-3,2.8042534E-1,1.1595783E-1,0E0,0E0,0E0,0E0,0E0,1.7560083E-1,0E0,0E0],"parents":[2147483647,0,0,2,2,3,3,5,5,6,6,8,8,9,9,10,10,16,16],"right_children":[2,-1,4,6,-1,8,10,-1,12,14,16,-1,-1,-1,-1,-1,18,-1,-1],"split_conditions":[3.9635E3,-6.051719E-2,-3.49855E4,1.7363E2,9.903456E-2,-9E3,-7.5E0,2.032193E-2,3.83215E2,-1.65E1,2.2454834E2,-1.1344097E-1,-3.0893944E-2,4.3482E-2,-1.01134285E-1,1.0477839E-1,8.51795E2,-3.7388608E-2,7.377743E-2],"split_indices":[2,0,4,5,0,1,3,0,0,3,5,0,0,0,0,0,0,0,0],"split_type":[0,0,0,0,0,0,0,0,0,0,0,0,0,0,0,0,0,0,0],"sum_hessian":[1.3335466E1,1.055134E0,1.2280333E1,1.1257154E1,1.0231781E0,3.5835443E0,7.67361E0,1.3449551E0,2.2385893E0,3.0065413E0,4.667069E0,1.1700045E0,1.0685847E0,1.5592202E0,1.4473209E0,1.4078932E0,3.2591758E0,1.9905722E0,1.2686036E0],"tree_param":{"num_deleted":"0","num_feature":"6","num_nodes":"19","size_leaf_vector":"0"}},{"base_weights":[-2.5816972E-3,-1.4764653E-1,4.434189E-2,-2.3767431E-1,-1.921923E-2,2.0142089E-1,-5.2462783E-2,3.374665E-1,-1.0274538E-1,-1.8645553E-1,1.10943824E-1,4.5327008E-1,3.8097516E-2,-3.660926E-1,-2.4697047E-2,3.19837E-1,-1.1329853E-1,1.11354426E-1,-1.7352131E-1],"categories":[],"categories_nodes":[],"categories_segments":[],"categories_sizes":[],"default_left":[1,1,1,0,0,1,1,1,0,1,1,0,0,0,1,0,0,0,0],"id":35,"left_children":[1,3,5,-1,-1,7,9,11,-1,13,15,-1,-1,-1,17,-1,-1,-1,-1],"loss_changes":[1.02471076E-1,3.7924618E-2,1.8417202E-1,0E0,0E0,2.2336182E-1,1.9271831E-1,1.00049585E-1,0E0,1.2724297E-1,2.3142724E-1,0E0,0E0,0E0,9.100358E-2,0E0,0E0,0E0,0E0],"parents":[2147483647,0,0,1,1,2,2,5,5,6,6,7,7,9,9,10,10,14,14],"right_children":[2,4,6,-1,-1,8,10,12,-1,14,16,-1,-1,-1,18,-1,-1,-1,-1],"split_conditions":[2.23755E2,-6.973425E5,4.4886E2,-7.1302295E-2,-5.7657696E-3,1.4109E2,8.51795E2,-6.25E2,-3.0823614E-2,2.1711166E2,3.35445E2,1.3598102E-1,1.1429255E-2,-1.0982778E-1,2.60435E2,9.59511E-2,-3.398956E-2,3.340633E-2,-5.2056395E-2],"split_indices":[0,4,0,0,0,5,0,1,0,5,5,0,0,0,5,0,0,0,0],"split_type":[0,0,0,0,0,0,0,0,0,0,0,0,0,0,0,0,0,0,0],"sum_hessian":[1.3092065E1,2.6751807E0,1.0416884E1,1.0726197E0,1.6025609E0,3.5598464E0,6.857038E0,2.384045E0,1.1758015E0,3.6901102E0,3.1669278E0,1.3483744E0,1.0356706E0,1.1499052E0,2.540205E0,1.4188738E0,1.748054E0,1.4585798E0,1.0816252E0],"tree_param":{"num_deleted":"0","num_feature":"6","num_nodes":"19","size_leaf_vector":"0"}},{"base_weights":[-3.5282488E-3,1.9132887E-1,-3.982877E-2,-2.0420498E-1,5.4228354E-2,-6.0598984E-2,-3.3765602E-1,1.9355823E-1,-6.655099E-2,-1.6247267E-1,6.997118E-2,-6.191626E-2,2.9383522E-1,1.1271815E-1,-2.005463E-1,4.571049E-1,-1.5902856E-2,-3.424053E-1,9.927515E-3],"categories":[],"categories_nodes":[],"categories_segments":[],"categories_sizes":[],"default_left":[1,0,1,1,1,1,0,1,1,0,0,0,1,0,1,0,0,0,0],"id":36,"left_children":[1,-1,3,5,7,9,-1,11,13,-1,-1,-1,15,-1,17,-1,-1,-1,-1],"loss_changes":[1.05985604E-1,0E0,2.0510928E-1,7.109612E-2,1.6051011E-1,5.8189165E-2,0E0,1.2910423E-1,1.5336049E-1,0E0,0E0,0E0,1.732978E-1,0E0,1.0714905E-1,0E0,0E0,0E0,0E0],"parents":[2147483647,0,0,2,2,3,3,4,4,5,5,7,7,8,8,12,12,14,14],"right_children":[2,-1,4,6,8,10,-1,12,14,-1,-1,-1,16,-1,18,-1,-1,-1,-1],"split_conditions":[-1.37333E5,5.7398662E-2,-2.0769895E6,5.7143E4,-7.864505E5,1.92805E4,-1.0129681E-1,-7.5E0,2.33235E2,-4.8741803E-2,2.0991355E-2,-1.8574879E-2,7.0364E2,3.3815447E-2,1.1282E4,1.3713147E-1,-4.7708573E-3,-1.02721594E-1,2.9782546E-3],"split_indices":[1,0,4,2,4,2,0,3,0,0,0,0,0,0,2,0,0,0,0],"split_type":[0,0,0,0,0,0,0,0,0,0,0,0,0,0,0,0,0,0,0],"sum_hessian":[1.2906325E1,1.3561221E0,1.1550203E1,3.7774966E0,7.7727065E0,2.5199175E0,1.2575791E0,3.329384E0,4.443322E0,1.2782596E0,1.241658E0,1.0462959E0,2.2830882E0,1.9685013E0,2.4748209E0,1.1834743E0,1.0996139E0,1.1039379E0,1.3708831E0],"tree_param":{"num_deleted":"0","num_feature":"6","num_nodes":"19","size_leaf_vector":"0"}},{"base_weights":[-4.1145426E-3,1.5139922E-1,-4.8988238E-2,-6.489558E-2,3.1105107E-1,-2.2245166E-1,2.6449827E-2,1.740582E-2,-3.5316813E-1,3.0672956E-1,-6.5644085E-2,1.6103837E-1,-1.4063849E-1,-3.6209422E-1,-3.9330055E-3,1.6084164E-1,-1.9304076E-1],"categories":[],"categories_nodes":[],"categories_segments":[],"categories_sizes":[],"default_left":[1,1,1,0,0,1,1,0,0,0,1,0,1,0,1,0,0],"id":37,"left_children":[1,3,5,-1,-1,7,9,-1,-1,-1,11,-1,13,-1,15,-1,-1],"loss_changes":[1.0294687E-1,1.3448507E-1,1.547902E-1,0E0,0E0,1.17612794E-1,2.4790412E-1,0E0,0E0,0E0,1.4956108E-1,0E0,1.84564E-1,0E0,1.8091555E-1,0E0,0E0],"parents":[2147483647,0,0,1,1,2,2,5,5,6,6,10,10,12,12,14,14],"right_children":[2,4,6,-1,-1,8,10,-1,-1,-1,12,-1,14,-1,16,-1,-1],"split_conditions":[5.3849E1,3.14785E2,1.85555E4,-1.9468674E-2,9.3315326E-2,-3.5E3,2.6217E4,5.221746E-3,-1.05950445E-1,9.201887E-2,-1.37333E5,4.8311513E-2,-1.04775E4,-1.0862827E-1,5.98315E2,4.8252497E-2,-5.791223E-2],"split_indices":[5,0,2,0,0,1,2,0,0,0,1,0,1,0,0,0,0],"split_type":[0,0,0,0,0,0,0,0,0,0,0,0,0,0,0,0,0],"sum_hessian":[1.2689245E1,2.309964E0,1.0379282E1,1.2330106E0,1.0769532E0,2.5551448E0,7.8241367E0,1.2070739E0,1.3480709E0,1.3586346E0,6.4655023E0,1.3220519E0,5.1434503E0,1.3338938E0,3.8095565E0,2.1156259E0,1.6939306E0],"tree_param":{"num_deleted":"0","num_feature":"6","num_nodes":"17","size_leaf_vector":"0"}},{"base_weights":[-3.4361728E-3,4.7832455E-2,-1.1194443E-1,-3.7440844E-2,3.6723605E-1,-3.1604615E-1,7.7924E-2,5.1147174E-2,-3.4770447E-1,2.0452623E-1,-9.1719046E-2,-1.10782765E-1,1.5601073E-1,4.3375827E-2,-2.0351642E-1,-4.7245905E-2,2.6661295E-1,3.3332723E-1,6.580155E-2],"categories":[],"categories_nodes":[],"categories_segments":[],"categories_sizes":[],"default_left":[1,1,1,1,0,0,1,1,0,0,0,1,1,0,0,0,1,0,0],"id":38,"left_children":[1,3,5,7,-1,-1,9,11,-1,-1,-1,13,15,-1,-1,-1,17,-1,-1],"loss_changes":[8.022325E-2,2.8176817E-1,2.0357779E-1,2.5620282E-1,0E0,0E0,8.736808E-2,1.4666553E-1,0E0,0E0,0E0,6.0000435E-2,1.2589523E-1,0E0,0E0,0E0,2.3808748E-2,0E0,0E0],"parents":[2147483647,0,0,1,1,2,2,3,3,6,6,7,7,11,11,12,12,16,16],"right_children":[2,4,6,8,-1,-1,10,12,-1,-1,-1,14,16,-1,-1,-1,18,-1,-1],"split_conditions":[2.7432166E2,7.75795E2,8.8255E2,2.25725E2,1.1017082E-1,-9.4813846E-2,3.5420166E2,2.23755E2,-1.0431135E-1,6.135787E-2,-2.7515715E-2,-3.76E3,1.1213E4,1.3012749E-2,-6.105493E-2,-1.4173772E-2,5.55655E4,9.9998176E-2,1.9740466E-2],"split_indices":[5,0,0,5,0,0,5,0,0,0,0,1,2,0,0,0,2,0,0],"split_type":[0,0,0,0,0,0,0,0,0,0,0,0,0,0,0,0,0,0,0],"sum_hessian":[1.2458158E1,8.840383E0,3.6177752E0,7.674302E0,1.1660805E0,1.4232641E0,2.1945112E0,6.6194367E0,1.0548651E0,1.1389223E0,1.0555888E0,2.5795925E0,4.039844E0,1.1688212E0,1.4107714E0,1.6254821E0,2.4143622E0,1.3169409E0,1.0974212E0],"tree_param":{"num_deleted":"0","num_feature":"6","num_nodes":"19","size_leaf_vector":"0"}},{"base_weights":[-2.3088714E-3,-1.7289518E-1,3.1535428E-2,2.477101E-1,-3.0986868E-2,-3.0577385E-1,3.7681583E-2,2.563459E-1,-3.071523E-2,-1.7854619E-1,5.83238E-2,-4.0481057E-2,-2.2480549E-1,1.9212587E-1,-1.9825053E-1],"categories":[],"categories_nodes":[],"categories_segments":[],"categories_sizes":[],"default_left":[1,0,1,0,1,0,1,0,1,1,1,0,0,0,0],"id":39,"left_children":[1,-1,3,-1,5,-1,7,-1,9,11,13,-1,-1,-1,-1],"loss_changes":[8.172562E-2,0E0,1.681047E-1,0E0,2.020209E-1,0E0,1.4199202E-1,0E0,1.1208106E-1,1.1015661E-2,2.2945479E-1,0E0,0E0,0E0,0E0],"parents":[2147483647,0,0,2,2,4,4,6,6,8,8,9,9,10,10],"right_children":[2,-1,4,-1,6,-1,8,-1,10,12,14,-1,-1,-1,-1],"split_conditions":[4.611E3,-5.1868554E-2,9.8315E3,7.431303E-2,1.85555E4,-9.173216E-2,2.6217E4,7.6903775E-2,-6.5E0,-1.51995E4,-7.864505E5,-1.2144318E-2,-6.744165E-2,5.7637762E-2,-5.947516E-2],"split_indices":[2,0,2,0,2,0,2,0,3,1,4,0,0,0,0],"split_type":[0,0,0,0,0,0,0,0,0,0,0,0,0,0,0],"sum_hessian":[1.2211217E1,1.3414292E0,1.0869788E1,1.7740283E0,9.095759E0,1.1281997E0,7.96756E0,1.2436606E0,6.7238994E0,2.149628E0,4.574271E0,1.0100703E0,1.1395575E0,3.1715264E0,1.402745E0],"tree_param":{"num_deleted":"0","num_feature":"6","num_nodes":"15","size_leaf_vector":"0"}},{"base_weights":[-7.4229077E-3,-1.0163146E-1,5.970264E-2,1.2119365E-1,-1.8986093E-1,2.8770688E-1,-2.0970972E-2,-2.7246477E-2,-2.3474987E-1,-2.0018694E-1,8.2726E-2,-3.156309E-1,-5.722679E-2,2.8727993E-1,-6.2008094E-2,-1.9670397E-1,5.858353E-2],"categories":[],"categories_nodes":[],"categories_segments":[],"categories_sizes":[],"default_left":[1,1,1,0,1,0,1,0,1,0,1,0,0,0,1,0,0],"id":40,"left_children":[1,3,5,-1,7,-1,9,-1,11,-1,13,-1,-1,-1,15,-1,-1],"loss_changes":[8.863142E-2,1.370801E-1,1.5785351E-1,0E0,2.6788294E-2,0E0,1.4718354E-1,0E0,3.1205133E-2,0E0,1.705819E-1,0E0,0E0,0E0,7.3968336E-2,0E0,0E0],"parents":[2147483647,0,0,1,1,2,2,4,4,6,6,8,8,10,10,14,14],"right_children":[2,4,6,-1,8,-1,10,-1,12,-1,14,-1,-1,-1,16,-1,-1],"split_conditions":[-2.0769895E6,-1.37333E5,-3.7535E3,3.6358096E-2,4.34785E2,8.631207E-2,-2.183E3,-8.1739435E-3,-8.256648E6,-6.0056083E-2,-1.2995E3,-9.468928E-2,-1.7168038E-2,8.618398E-2,4.18075E2,-5.9011195E-2,1.7575061E-2],"split_indices":[4,1,1,0,0,0,1,0,4,0,1,0,0,0,0,0,0],"split_type":[0,0,0,0,0,0,0,0,0,0,0,0,0,0,0,0,0],"sum_hessian":[1.2056034E1,4.802221E0,7.2538133E0,1.2561563E0,3.5460644E0,1.2250896E0,6.0287237E0,1.1147505E0,2.4313138E0,1.8686682E0,4.1600556E0,1.1358428E0,1.2954711E0,1.3156937E0,2.8443618E0,1.0454639E0,1.798898E0],"tree_param":{"num_deleted":"0","num_feature":"6","num_nodes":"17","size_leaf_vector":"0"}},{"base_weights":[-6.2296446E-3,1.0842715E-1,-5.8087908E-2,-6.5075256E-2,2.6718125E-1,-1.1356842E-1,8.0046535E-2,-3.4851822E-1,1.3194436E-2,3.0063155E-1,-1.7357093E-1,2.159075E-1,-9.0930104E-2,1.3736664E-1,-2.253844E-1,-6.657695E-2,-2.7006462E-1],"categories":[],"categories_nodes":[],"categories_segments":[],"categories_sizes":[],"default_left":[1,1,1,0,0,1,1,0,1,0,0,0,1,0,1,0,0],"id":41,"left_children":[1,3,5,-1,-1,7,9,-1,11,-1,-1,-1,13,-1,15,-1,-1],"loss_changes":[8.2955E-2,1.3758847E-1,8.2114294E-2,0E0,0E0,2.1937698E-1,2.3774461E-1,0E0,1.3884118E-1,0E0,0E0,0E0,1.6708966E-1,0E0,4.510954E-3,0E0,0E0],"parents":[2147483647,0,0,1,1,2,2,5,5,6,6,8,8,12,12,14,14],"right_children":[2,4,6,-1,-1,8,10,-1,12,-1,-1,-1,14,-1,16,-1,-1],"split_conditions":[2.5309E2,1.95075E2,8.98615E2,-1.9522578E-2,8.0154374E-2,1.1282E4,-1.1E1,-1.0455547E-1,2.0452E4,9.018947E-2,-5.207128E-2,6.4772256E-2,-7.413E3,4.1209992E-2,2.3604333E2,-1.9973086E-2,-8.101939E-2],"split_indices":[0,0,0,0,0,2,3,0,2,0,0,0,1,0,5,0,0],"split_type":[0,0,0,0,0,0,0,0,0,0,0,0,0,0,0,0,0],"sum_hessian":[1.1892359E1,3.3639493E0,8.52841E0,1.889262E0,1.4746872E0,6.211468E0,2.3169413E0,1.5637497E0,4.647719E0,1.1400249E0,1.1769164E0,1.2128847E0,3.434834E0,1.2650986E0,2.1697354E0,1.023165E0,1.1465703E0],"tree_param":{"num_deleted":"0","num_feature":"6","num_nodes":"17","size_leaf_vector":"0"}},{"base_weights":[-4.7085835E-3,-9.934581E-2,6.3322216E-2,6.487946E-2,-2.2079009E-1,1.324801E-1,-9.323999E-2,1.7561641E-1,-7.742486E-2,-2.7790788E-1,-6.5663695E-2,-5.387963E-2,2.3110329E-1,-1.4122995E-2,-1.2637183E-1,5.790233E-2,3.3303058E-1],"categories":[],"categories_nodes":[],"categories_segments":[],"categories_sizes":[],"default_left":[1,1,1,1,1,1,1,0,0,0,0,0,1,0,0,0,0],"id":42,"left_children":[1,3,5,7,9,11,13,-1,-1,-1,-1,-1,15,-1,-1,-1,-1],"loss_changes":[8.848568E-2,1.2857571E-1,9.938539E-2,6.415311E-2,1.2943253E-2,1.2251532E-1,6.2094238E-3,0E0,0E0,0E0,0E0,0E0,5.318764E-2,0E0,0E0,0E0,0E0],"parents":[2147483647,0,0,1,1,2,2,3,3,4,4,5,5,6,6,12,12],"right_children":[2,4,6,8,10,12,14,-1,-1,-1,-1,-1,16,-1,-1,-1,-1],"split_conditions":[-2.0769895E6,-1.8010906E7,5.98315E2,-1.1E1,6.3753503E2,1.95075E2,-1.0213125E6,5.2684925E-2,-2.3227459E-2,-8.337237E-2,-1.969911E-2,-1.616389E-2,1.7706668E2,-4.2368984E-3,-3.791155E-2,1.7370699E-2,9.990918E-2],"split_indices":[4,4,0,3,0,0,4,0,0,0,0,0,5,0,0,0,0],"split_type":[0,0,0,0,0,0,0,0,0,0,0,0,0,0,0,0,0],"sum_hessian":[1.1766657E1,4.728526E0,7.0381303E0,2.2082062E0,2.5203202E0,4.9884233E0,2.049707E0,1.110195E0,1.0980111E0,1.263576E0,1.256744E0,1.883333E0,3.1050901E0,1.025983E0,1.0237241E0,1.7312765E0,1.3738136E0],"tree_param":{"num_deleted":"0","num_feature":"6","num_nodes":"17","size_leaf_vector":"0"}},{"base_weights":[-4.3993457E-3,5.2668326E-2,-1.233304E-1,-2.2966707E-2,3.2014045E-1,-2.7052274E-1,9.32824E-2,7.045186E-2,-3.1034568E-1,-5.2605987E-2,1.665223E-1,-1.5826397E-1,8.333111E-2,3.2245615E-1,-2.15024E-2],"categories":[],"categories_nodes":[],"categories_segments":[],"categories_sizes":[],"default_left":[1,1,1,1,0,0,0,1,0,1,1,0,0,0,0],"id":43,"left_children":[1,3,5,7,-1,-1,-1,9,-1,11,13,-1,-1,-1,-1],"loss_changes":[9.251685E-2,1.9479257E-1,1.658062E-1,2.4082275E-1,0E0,0E0,0E0,9.1161825E-2,0E0,6.7993425E-2,1.2873572E-1,0E0,0E0,0E0,0E0],"parents":[2147483647,0,0,1,1,2,2,3,3,7,7,9,9,10,10],"right_children":[2,4,6,8,-1,-1,-1,10,-1,12,14,-1,-1,-1,-1],"split_conditions":[2.7432166E2,7.75795E2,-5.5E0,2.2454834E2,9.604214E-2,-8.115683E-2,2.7984722E-2,-7.214625E5,-9.310371E-2,-1.2E1,-6.14255E4,-4.7479194E-2,2.4999334E-2,9.673685E-2,-6.45072E-3],"split_indices":[5,0,3,5,0,0,0,4,0,3,4,0,0,0,0],"split_type":[0,0,0,0,0,0,0,0,0,0,0,0,0,0,0],"sum_hessian":[1.1674192E1,8.265325E0,3.408867E0,7.155926E0,1.109399E0,1.8814859E0,1.5273811E0,5.9700747E0,1.1858513E0,2.8157573E0,3.1543174E0,1.4919136E0,1.3238437E0,1.333469E0,1.8208483E0],"tree_param":{"num_deleted":"0","num_feature":"6","num_nodes":"15","size_leaf_vector":"0"}},{"base_weights":[-1.7357635E-3,-3.470264E-2,1.6887993E-1,1.9772944E-1,-7.7309296E-2,-3.94609E-1,8.405551E-3,-1.2773672E-1,8.839747E-2,2.490164E-2,-2.3585941E-1,2.3847272E-1,-7.7510537E-3,1.4092508E-1,-2.5702754E-1],"categories":[],"categories_nodes":[],"categories_segments":[],"categories_sizes":[],"default_left":[1,1,0,0,1,0,1,1,1,0,0,0,1,0,0],"id":44,"left_children":[1,3,-1,-1,5,-1,7,9,11,-1,-1,-1,13,-1,-1],"loss_changes":[7.6208144E-2,1.2730302E-1,0E0,0E0,2.828478E-1,0E0,1.10078335E-1,6.8029925E-2,9.282449E-2,0E0,0E0,0E0,2.1453838E-1,0E0,0E0],"parents":[2147483647,0,0,1,1,4,4,6,6,7,7,8,8,12,12],"right_children":[2,4,-1,-1,6,-1,8,10,12,-1,-1,-1,14,-1,-1],"split_conditions":[-3.49855E4,-4.9E1,5.066398E-2,5.9318833E-2,1.1282E4,-1.1838271E-1,-9.5E0,2.7685333E2,5.55655E4,7.4704923E-3,-7.075783E-2,7.1541816E-2,-8.027505E5,4.2277526E-2,-7.7108264E-2],"split_indices":[4,3,0,0,2,0,3,5,2,0,0,0,4,0,0],"split_type":[0,0,0,0,0,0,0,0,0,0,0,0,0,0,0],"sum_hessian":[1.1506976E1,1.0311215E1,1.1957606E0,1.0333222E0,9.277893E0,1.2068027E0,8.071091E0,2.7662315E0,5.304859E0,1.4661447E0,1.3000869E0,1.4934796E0,3.8113794E0,2.6597102E0,1.1516693E0],"tree_param":{"num_deleted":"0","num_feature":"6","num_nodes":"15","size_leaf_vector":"0"}},{"base_weights":[-4.3926905E-3,1.4545792E-1,-4.8062216E-2,1.8891554E-2,2.0042735E-1,5.2123286E-2,-1.4430422E-1,2.5298062E-1,-7.378167E-2,-2.817506E-1,-2.6070371E-2,1.12012275E-1,-1.7968051E-1,1.7897122E-1,-2.7850464E-1,-2.719563E-1,-1.205779E-3],"categories":[],"categories_nodes":[],"categories_segments":[],"categories_sizes":[],"default_left":[1,1,1,0,0,1,1,0,1,0,1,0,1,0,0,0,0],"id":45,"left_children":[1,3,5,-1,-1,7,9,-1,11,-1,13,-1,15,-1,-1,-1,-1],"loss_changes":[8.7886214E-2,1.7349362E-2,1.0706597E-1,0E0,0E0,1.6516413E-1,8.253757E-2,0E0,1.05421096E-1,0E0,2.6077792E-1,0E0,5.1470935E-2,0E0,0E0,0E0,0E0],"parents":[2147483647,0,0,1,1,2,2,5,5,6,6,8,8,10,10,12,12],"right_children":[2,4,6,-1,-1,8,10,-1,12,-1,14,-1,16,-1,-1,-1,-1],"split_conditions":[5.3849E1,3.09125E2,-3.7535E3,5.6674667E-3,6.012821E-2,4.2479E2,1.72915E2,7.589419E-2,-1.37333E5,-8.452518E-2,2.60435E2,3.3603683E-2,-8.256648E6,5.369137E-2,-8.355139E-2,-8.158689E-2,-3.6173372E-4],"split_indices":[5,0,1,0,0,0,5,0,1,0,5,0,4,0,0,0,0],"split_type":[0,0,0,0,0,0,0,0,0,0,0,0,0,0,0,0,0],"sum_hessian":[1.1361912E1,2.037932E0,9.323979E0,1.0239575E0,1.0139745E0,4.7930007E0,4.530979E0,1.4579004E0,3.3351002E0,1.455718E0,3.075261E0,1.189847E0,2.145253E0,1.8575065E0,1.2177546E0,1.0688506E0,1.0764023E0],"tree_param":{"num_deleted":"0","num_feature":"6","num_nodes":"17","size_leaf_vector":"0"}},{"base_weights":[-4.980837E-3,-3.8417764E-2,1.6756672E-1,1.2514731E-1,-9.5462345E-2,2.6391682E-1,-6.0181525E-2,-3.0457574E-1,-1.569804E-2,2.0478125E-1,-9.576207E-2,-1.818178E-1,1.3968812E-1,3.312788E-2,-3.107559E-1],"categories":[],"categories_nodes":[],"categories_segments":[],"categories_sizes":[],"default_left":[1,1,0,1,1,0,0,0,1,0,1,1,0,0,0],"id":46,"left_children":[1,3,-1,5,7,-1,-1,-1,9,-1,11,13,-1,-1,-1],"loss_changes":[7.692152E-2,1.1502199E-1,0E0,1.00475885E-1,1.412981E-1,0E0,0E0,0E0,1.5013263E-1,0E0,1.4910907E-1,1.4625879E-1,0E0,0E0,0E0],"parents":[2147483647,0,0,1,1,3,3,4,4,8,8,10,10,11,11],"right_children":[2,4,-1,6,8,-1,-1,-1,10,-1,12,14,-1,-1,-1],"split_conditions":[-3.49855E4,-1.75E1,5.0270017E-2,1.3550333E2,1.1744E2,7.917505E-2,-1.8054457E-2,-9.137273E-2,1.9259E2,6.1434377E-2,9.8006E2,5.57455E4,4.190644E-2,9.938365E-3,-9.3226776E-2],"split_indices":[4,3,0,5,5,0,0,0,5,0,0,2,0,0,0],"split_type":[0,0,0,0,0,0,0,0,0,0,0,0,0,0,0],"sum_hessian":[1.1216738E1,1.0047118E1,1.1696194E0,2.2892513E0,7.757867E0,1.0665783E0,1.222673E0,1.3638623E0,6.394005E0,1.288375E0,5.1056294E0,3.9058497E0,1.19978E0,1.7430979E0,2.1627517E0],"tree_param":{"num_deleted":"0","num_feature":"6","num_nodes":"15","size_leaf_vector":"0"}},{"base_weights":[-3.86392E-4,-1.7600374E-1,3.419601E-2,2.4179019E-1,-2.9090589E-2,-1.8893571E-1,4.851443E-2,-3.2797225E-3,-2.7268833E-1,-1.01269364E-1,1.4297158E-1,1.2702163E-1,-2.6658556E-1,2.5633812E-1,3.0270277E-2,1.6984539E-1,-1.2788779E-1],"categories":[],"categories_nodes":[],"categories_segments":[],"categories_sizes":[],"default_left":[1,0,1,0,1,1,1,0,0,1,1,0,0,0,1,0,0],"id":47,"left_children":[1,-1,3,-1,5,7,9,-1,-1,11,13,-1,-1,-1,15,-1,-1],"loss_changes":[7.943726E-2,0E0,1.5072677E-1,0E0,1.242151E-1,4.941486E-2,1.1406854E-1,0E0,0E0,1.5869337E-1,5.2691966E-2,0E0,0E0,0E0,9.912857E-2,0E0,0E0],"parents":[2147483647,0,0,2,2,4,4,5,5,6,6,9,9,10,10,14,14],"right_children":[2,-1,4,-1,6,8,10,-1,-1,12,14,-1,-1,-1,16,-1,-1],"split_conditions":[4.611E3,-5.2801125E-2,9.8315E3,7.253706E-2,1.7363E2,-8.6375E3,-7.5E0,-9.839168E-4,-8.18065E-2,-1.65E1,-3.7505E3,3.810649E-2,-7.997567E-2,7.6901436E-2,2.4363501E2,5.095362E-2,-3.8366336E-2],"split_indices":[2,0,2,0,5,1,3,0,0,3,1,0,0,0,5,0,0],"split_type":[0,0,0,0,0,0,0,0,0,0,0,0,0,0,0,0,0],"sum_hessian":[1.1088814E1,1.1515546E0,9.93726E0,1.6626936E0,8.274566E0,2.2354887E0,6.039077E0,1.0180088E0,1.2174798E0,2.3076465E0,3.7314305E0,1.0665097E0,1.2411367E0,1.2248546E0,2.506576E0,1.2922574E0,1.2143185E0],"tree_param":{"num_deleted":"0","num_feature":"6","num_nodes":"17","size_leaf_vector":"0"}},{"base_weights":[-1.6232572E-3,1.3808917E-1,-4.311027E-2,-1.6836248E-1,1.4830396E-2,3.410302E-2,-3.105136E-1,2.3711222E-1,-5.8051545E-2,-1.24303564E-1,1.4308289E-1,-2.3114058E-1,5.917107E-2,-7.234927E-2,-3.29165E-1],"categories":[],"categories_nodes":[],"categories_segments":[],"categories_sizes":[],"default_left":[1,0,1,1,1,0,0,0,1,1,0,1,0,0,0],"id":48,"left_children":[1,-1,3,5,7,-1,-1,-1,9,11,-1,13,-1,-1,-1],"loss_changes":[7.525021E-2,0E0,7.49258E-2,1.0376821E-1,1.3919978E-1,0E0,0E0,0E0,1.0619053E-1,1.21987835E-1,0E0,3.3713683E-2,0E0,0E0,0E0],"parents":[2147483647,0,0,2,2,3,3,4,4,8,8,9,9,11,11],"right_children":[2,-1,4,6,8,-1,-1,-1,10,12,-1,14,-1,-1,-1],"split_conditions":[5.3849E1,4.142675E-2,1.85555E4,4.2158002E2,2.6217E4,1.0230906E-2,-9.315408E-2,7.113367E-2,9.8006E2,-1.037943E6,4.2924866E-2,2.7432166E2,1.7751321E-2,-2.1704782E-2,-9.874951E-2],"split_indices":[5,0,2,0,2,0,0,0,0,4,0,5,0,0,0],"split_type":[0,0,0,0,0,0,0,0,0,0,0,0,0,0,0],"sum_hessian":[1.0955512E1,1.9752232E0,8.980289E0,2.2375438E0,6.7427454E0,1.2364969E0,1.0010469E0,1.108517E0,5.634228E0,4.5255404E0,1.108688E0,2.6959162E0,1.8296242E0,1.6924169E0,1.0034993E0],"tree_param":{"num_deleted":"0","num_feature":"6","num_nodes":"15","size_leaf_vector":"0"}},{"base_weights":[-3.819541E-3,-1.2987314E-1,4.0230382E-2,-2.1890779E-1,2.3394642E-2,3.3099797E-1,-4.2465664E-2,-1.2566362E-1,8.31429E-2,1.4511029E-2,-2.883774E-1,2.6567551E-1,-1.1468926E-1,-1.0647027E-1,1.13252565E-1],"categories":[],"categories_nodes":[],"categories_segments":[],"categories_sizes":[],"default_left":[1,1,1,0,0,0,1,1,1,1,0,0,0,0,0],"id":49,"left_children":[1,3,5,-1,-1,-1,7,9,11,13,-1,-1,-1,-1,-1],"loss_changes":[7.1102016E-2,5.027397E-2,2.438156E-1,0E0,0E0,0E0,9.745511E-2,1.2749958E-1,1.719945E-1,5.8127765E-2,0E0,0E0,0E0,0E0,0E0],"parents":[2147483647,0,0,1,1,2,2,6,6,7,7,8,8,9,9],"right_children":[2,4,6,-1,-1,-1,8,10,12,14,-1,-1,-1,-1,-1],"split_conditions":[2.23755E2,-2.567565E5,2.7416E2,-6.567234E-2,7.018393E-3,9.929939E-2,8.4599E2,2.25725E2,3.35445E2,1.80075E4,-8.651322E-2,7.970266E-2,-3.440678E-2,-3.1941082E-2,3.3975773E-2],"split_indices":[0,4,0,0,0,0,0,5,5,2,0,0,0,0,0],"split_type":[0,0,0,0,0,0,0,0,0,0,0,0,0,0,0],"sum_hessian":[1.0864093E1,2.3088248E0,8.555267E0,1.1895401E0,1.1192846E0,1.2295306E0,7.3257375E0,4.406569E0,2.9191685E0,2.8565378E0,1.5500311E0,1.3399297E0,1.5792387E0,1.2485284E0,1.6080095E0],"tree_param":{"num_deleted":"0","num_feature":"6","num_nodes":"15","size_leaf_vector":"0"}},{"base_weights":[-2.684406E-3,-1.20138995E-1,4.165343E-2,-3.4768343E-1,1.2086168E-1,2.7080703E-1,-4.06659E-2,-1.6811703E-1,9.5208034E-2,-3.1298345E-1,1.4095242E-1,2.3643623E-1,-9.345037E-2],"categories":[],"categories_nodes":[],"categories_segments":[],"categories_sizes":[],"default_left":[1,1,1,0,0,0,1,1,1,0,0,0,0],"id":50,"left_children":[1,3,5,-1,-1,-1,7,9,11,-1,-1,-1,-1],"loss_changes":[6.617102E-2,2.3265092E-1,1.8586646E-1,0E0,0E0,0E0,1.491578E-1,2.3794174E-1,1.3826087E-1,0E0,0E0,0E0,0E0],"parents":[2147483647,0,0,1,1,2,2,6,6,7,7,8,8],"right_children":[2,4,6,-1,-1,-1,8,10,12,-1,-1,-1,-1],"split_conditions":[9.521933E1,-2.183E3,1.4109E2,-1.0430504E-1,3.6258504E-2,8.1242114E-2,7.75795E2,7.9079E4,3.35445E2,-9.389504E-2,4.228573E-2,7.0930876E-2,-2.8035112E-2],"split_indices":[5,1,5,0,0,0,0,2,5,0,0,0,0],"split_type":[0,0,0,0,0,0,0,0,0,0,0,0,0],"sum_hessian":[1.0745499E1,2.4762034E0,8.269295E0,1.0459697E0,1.4302338E0,1.5803462E0,6.6889486E0,3.3290057E0,3.359943E0,2.257984E0,1.0710217E0,1.7766821E0,1.5832609E0],"tree_param":{"num_deleted":"0","num_feature":"6","num_nodes":"13","size_leaf_vector":"0"}},{"base_weights":[-1.7430092E-3,-1.794537E-1,3.4007955E-2,1.865381E-1,-1.4385447E-2,-1.7469583E-1,6.317919E-2,-2.3384647E-1,-3.591132E-2,1.7079046E-1,-6.338401E-2,2.5138652E-1,-3.0188706E-2,-2.2090359E-1,1.3020757E-1],"categories":[],"categories_nodes":[],"categories_segments":[],"categories_sizes":[],"default_left":[1,0,1,0,1,1,1,0,0,1,1,0,0,0,0],"id":51,"left_children":[1,-1,3,-1,5,7,9,-1,-1,11,13,-1,-1,-1,-1],"loss_changes":[7.985934E-2,0E0,8.022912E-2,0E0,1.2174804E-1,1.7615683E-2,1.0255041E-1,0E0,0E0,7.0933096E-2,1.4537992E-1,0E0,0E0,0E0,0E0],"parents":[2147483647,0,0,2,2,4,4,5,5,6,6,9,9,10,10],"right_children":[2,-1,4,-1,6,8,10,-1,-1,12,14,-1,-1,-1,-1],"split_conditions":[4.611E3,-5.383611E-2,9.8315E3,5.5961434E-2,1.7363E2,5.6249E4,2.7432166E2,-7.0153944E-2,-1.0773397E-2,-9.105625E5,9.8006E2,7.541596E-2,-9.056612E-3,-6.627108E-2,3.9062273E-2],"split_indices":[2,0,2,0,5,2,5,0,0,4,0,0,0,0,0],"split_type":[0,0,0,0,0,0,0,0,0,0,0,0,0,0,0],"sum_hessian":[1.0609109E1,1.1036321E0,9.505477E0,1.6018913E0,7.903586E0,2.1688175E0,5.7347684E0,1.0404234E0,1.1283942E0,2.9105792E0,2.8241892E0,1.8984569E0,1.0121222E0,1.4793812E0,1.344808E0],"tree_param":{"num_deleted":"0","num_feature":"6","num_nodes":"15","size_leaf_vector":"0"}},{"base_weights":[-4.6794596E-3,-1.2110471E-1,3.6737125E-2,-1.9126758E-1,7.030753E-3,2.779612E-1,-3.4107935E-2,1.3070723E-1,-8.066644E-2,3.010443E-2,-3.5970908E-1,-1.40761E-1,1.2499736E-1,2.0704663E-1,-6.962701E-2],"categories":[],"categories_nodes":[],"categories_segments":[],"categories_sizes":[],"default_left":[1,1,1,0,0,0,1,0,1,1,0,0,1,0,0],"id":52,"left_children":[1,3,5,-1,-1,-1,7,-1,9,11,-1,-1,13,-1,-1],"loss_changes":[6.006296E-2,3.0644864E-2,1.679769E-1,0E0,0E0,0E0,7.2390206E-2,0E0,2.2419274E-1,1.1267387E-1,0E0,0E0,8.307953E-2,0E0,0E0],"parents":[2147483647,0,0,1,1,2,2,6,6,8,8,9,9,12,12],"right_children":[2,4,6,-1,-1,-1,8,-1,10,12,-1,-1,14,-1,-1],"split_conditions":[2.23755E2,-2.567565E5,2.7416E2,-5.7380278E-2,2.109226E-3,8.338836E-2,-1.37333E5,3.921217E-2,5.7373E4,1.1282E4,-1.0791273E-1,-4.2228304E-2,2.7432166E2,6.211399E-2,-2.0888103E-2],"split_indices":[0,4,0,0,0,0,1,0,2,2,0,0,5,0,0],"split_type":[0,0,0,0,0,0,0,0,0,0,0,0,0,0,0],"sum_hessian":[1.0533523E1,2.2590616E0,8.274461E0,1.1413801E0,1.1176815E0,1.2147583E0,7.059703E0,1.1569108E0,5.902792E0,4.864041E0,1.038751E0,1.5641842E0,3.299857E0,2.2763655E0,1.0234913E0],"tree_param":{"num_deleted":"0","num_feature":"6","num_nodes":"15","size_leaf_vector":"0"}},{"base_weights":[-7.0959E-3,-1.0530947E-1,3.0867053E-2,-2.8108108E-1,1.083117E-1,2.6505646E-1,-3.6439847E-2,-1.9419894E-1,8.9275196E-2,-3.4669262E-1,-6.3564966E-4,1.6476765E-1,-7.432545E-2,2.3868002E-1,-1.3892973E-2],"categories":[],"categories_nodes":[],"categories_segments":[],"categories_sizes":[],"default_left":[1,1,1,0,0,0,1,1,1,0,0,1,0,0,0],"id":53,"left_children":[1,3,5,-1,-1,-1,7,9,11,-1,-1,13,-1,-1,-1],"loss_changes":[4.587146E-2,1.5861341E-1,1.5180144E-1,0E0,0E0,0E0,1.7369287E-1,1.12275824E-1,7.489526E-2,0E0,0E0,5.3255044E-2,0E0,0E0,0E0],"parents":[2147483647,0,0,1,1,2,2,6,6,7,7,8,8,11,11],"right_children":[2,4,6,-1,-1,-1,8,10,12,-1,-1,14,-1,-1,-1],"split_conditions":[9.521933E1,9.782E3,1.3550333E2,-8.432433E-2,3.249351E-2,7.951694E-2,-9.5E0,8.1665E2,-7.864505E5,-1.0400779E-1,-1.906949E-4,2.8615002E2,-2.2297636E-2,7.1604006E-2,-4.167892E-3],"split_indices":[5,2,5,0,0,0,3,0,4,0,0,5,0,0,0],"split_type":[0,0,0,0,0,0,0,0,0,0,0,0,0,0,0],"sum_hessian":[1.0431171E1,2.413423E0,8.017749E0,1.1507617E0,1.2626612E0,1.1340114E0,6.883737E0,2.8112104E0,4.072527E0,1.1299231E0,1.6812874E0,2.7817657E0,1.2907611E0,1.7300845E0,1.0516812E0],"tree_param":{"num_deleted":"0","num_feature":"6","num_nodes":"15","size_leaf_vector":"0"}},{"base_weights":[-8.013668E-3,-1.1879462E-1,3.2094594E-2,-1.6833882E-1,-1.3014582E-2,1.7205735E-1,-5.4241277E-2,-1.9282684E-2,2.7742338E-1,-2.3051515E-1,6.1144877E-2,1.6439036E-1,-8.652759E-2,3.4094653E-3,2.4505493E-1],"categories":[],"categories_nodes":[],"categories_segments":[],"categories_sizes":[],"default_left":[1,1,1,0,0,1,1,0,0,0,1,1,0,0,0],"id":54,"left_children":[1,3,5,-1,-1,7,9,-1,-1,-1,11,13,-1,-1,-1],"loss_changes":[5.4086052E-2,1.4685869E-2,1.1922675E-1,0E0,0E0,8.013161E-2,1.4396371E-1,0E0,0E0,0E0,8.511075E-2,3.9174266E-2,0E0,0E0,0E0],"parents":[2147483647,0,0,1,1,2,2,5,5,6,6,10,10,11,11],"right_children":[2,4,6,-1,-1,8,10,-1,-1,-1,12,14,-1,-1,-1],"split_conditions":[2.23755E2,-2.567565E5,4.4886E2,-5.050165E-2,-3.9043748E-3,1.1213E4,7.75795E2,-5.7848054E-3,8.3227016E-2,-6.9154546E-2,3.35445E2,8.60735E2,-2.595828E-2,1.0228397E-3,7.351648E-2],"split_indices":[0,4,0,0,0,2,0,0,0,0,5,0,0,0,0],"split_type":[0,0,0,0,0,0,0,0,0,0,0,0,0,0,0],"sum_hessian":[1.03146E1,2.2202668E0,8.094334E0,1.1092997E0,1.1109673E0,2.7092955E0,5.385038E0,1.2522532E0,1.4570423E0,1.7356845E0,3.6493533E0,2.081123E0,1.5682303E0,1.0426304E0,1.0384926E0],"tree_param":{"num_deleted":"0","num_feature":"6","num_nodes":"15","size_leaf_vector":"0"}},{"base_weights":[-5.3767064E-3,-1.5528537E-1,2.5652872E-2,1.7669488E-1,-2.2054736E-2,-1.7814216E-1,5.4109376E-2,2.243894E-1,-3.4535393E-2,-2.438871E-1,9.533813E-2,2.1416143E-1,-5.4365434E-2],"categories":[],"categories_nodes":[],"categories_segments":[],"categories_sizes":[],"default_left":[1,0,1,0,1,0,1,0,1,0,1,0,0],"id":55,"left_children":[1,-1,3,-1,5,-1,7,-1,9,-1,11,-1,-1],"loss_changes":[5.6205668E-2,0E0,7.710574E-2,0E0,1.11996554E-1,0E0,1.0666994E-1,0E0,1.6399541E-1,0E0,8.12588E-2,0E0,0E0],"parents":[2147483647,0,0,2,2,4,4,6,6,8,8,10,10],"right_children":[2,-1,4,-1,6,-1,8,-1,10,-1,12,-1,-1],"split_conditions":[4.611E3,-4.6585612E-2,9.8315E3,5.3008467E-2,1.7363E2,-5.344265E-2,2.2454834E2,6.731682E-2,7.75795E2,-7.316613E-2,3.35445E2,6.424843E-2,-1.630963E-2],"split_indices":[2,0,2,0,5,0,5,0,0,0,5,0,0],"split_type":[0,0,0,0,0,0,0,0,0,0,0,0,0],"sum_hessian":[1.02267E1,1.0670735E0,9.159627E0,1.5496714E0,7.6099553E0,2.0565093E0,5.553446E0,1.3769995E0,4.1764464E0,1.2628667E0,2.91358E0,1.3842765E0,1.5293033E0],"tree_param":{"num_deleted":"0","num_feature":"6","num_nodes":"13","size_leaf_vector":"0"}},{"base_weights":[-4.2730006E-3,-4.265413E-2,1.0729019E-1,3.9723314E-2,-1.8047246E-1,2.690592E-1,-1.02166705E-1,-1.02497175E-1,1.3669814E-1,-2.98087E-1,9.825186E-3,2.6492432E-3,-1.5757509E-1,-2.9119484E-2,2.1410553E-1],"categories":[],"categories_nodes":[],"categories_segments":[],"categories_sizes":[],"default_left":[1,1,1,1,1,0,0,1,1,0,0,0,0,0,0],"id":56,"left_children":[1,3,5,7,9,-1,-1,11,13,-1,-1,-1,-1,-1,-1],"loss_changes":[5.2147422E-2,1.091373E-1,1.3348433E-1,1.0284483E-1,8.217095E-2,0E0,0E0,1.8849991E-2,6.089107E-2,0E0,0E0,0E0,0E0,0E0,0E0],"parents":[2147483647,0,0,1,1,2,2,3,3,4,4,7,7,8,8],"right_children":[2,4,6,8,10,-1,-1,12,14,-1,-1,-1,-1,-1,-1],"split_conditions":[8.98615E2,5.98315E2,-1.1E1,2.23755E2,2.5586166E2,8.0717765E-2,-3.0650012E-2,-3.7505E3,1.1213E4,-8.94261E-2,2.9475559E-3,7.94773E-4,-4.727253E-2,-8.735846E-3,6.4231664E-2],"split_indices":[0,0,3,0,5,0,0,1,2,0,0,0,0,0,0],"split_type":[0,0,0,0,0,0,0,0,0,0,0,0,0,0,0],"sum_hessian":[1.0109743E1,7.9815245E0,2.128219E0,5.441046E0,2.5404785E0,1.0402501E0,1.0879687E0,2.1828275E0,3.2582185E0,1.2200156E0,1.3204628E0,1.0775783E0,1.1052492E0,1.2354738E0,2.0227447E0],"tree_param":{"num_deleted":"0","num_feature":"6","num_nodes":"15","size_leaf_vector":"0"}},{"base_weights":[-5.588663E-3,1.03134826E-1,-3.8827967E-2,4.9230687E-2,-1.2381433E-1,-6.668676E-2,2.0501307E-1,-2.6712403E-1,2.945971E-4,1.1033238E-1,-1.8559605E-1,1.8203443E-1,-2.2605225E-1],"categories":[],"categories_nodes":[],"categories_segments":[],"categories_sizes":[],"default_left":[1,0,1,1,1,1,0,0,1,0,0,0,0],"id":57,"left_children":[1,-1,3,5,7,9,-1,-1,11,-1,-1,-1,-1],"loss_changes":[4.38444E-2,0E0,7.471722E-2,1.0791222E-1,8.812997E-2,9.9344894E-2,0E0,0E0,1.9137558E-1,0E0,0E0,0E0,0E0],"parents":[2147483647,0,0,2,2,3,3,4,4,5,5,8,8],"right_children":[2,-1,4,6,8,10,-1,-1,12,-1,-1,-1,-1],"split_conditions":[5.3849E1,3.0940449E-2,-3.7535E3,-4.687975E6,1.72915E2,-1.37333E5,6.150392E-2,-8.013721E-2,2.60435E2,3.3099715E-2,-5.567882E-2,5.461033E-2,-6.781568E-2],"split_indices":[5,0,1,4,5,1,0,0,5,0,0,0,0],"split_type":[0,0,0,0,0,0,0,0,0,0,0,0,0],"sum_hessian":[1.0024092E1,1.8546994E0,8.169393E0,4.218802E0,3.9505906E0,2.7468204E0,1.4719814E0,1.2986697E0,2.6519208E0,1.1327044E0,1.6141161E0,1.5794839E0,1.0724369E0],"tree_param":{"num_deleted":"0","num_feature":"6","num_nodes":"13","size_leaf_vector":"0"}},{"base_weights":[-6.210417E-3,-1.0621806E-1,3.2786515E-2,-2.4859367E-1,7.7157326E-2,2.50962E-1,-4.7055617E-2,-1.9541891E-1,7.585625E-2,-3.8227275E-2,-2.8563496E-1,1.8455078E-1,-1.4803402E-1,2.4667977E-1,1.9415984E-2],"categories":[],"categories_nodes":[],"categories_segments":[],"categories_sizes":[],"default_left":[1,1,1,0,0,0,1,1,1,0,0,1,0,0,0],"id":58,"left_children":[1,3,5,-1,-1,-1,7,9,11,-1,-1,13,-1,-1,-1],"loss_changes":[4.605399E-2,1.05291545E-1,1.6192357E-1,0E0,0E0,0E0,1.4522524E-1,3.8993657E-2,1.4002523E-1,0E0,0E0,3.1763643E-2,0E0,0E0,0E0],"parents":[2147483647,0,0,1,1,2,2,6,6,7,7,8,8,11,11],"right_children":[2,4,6,-1,-1,-1,8,10,12,-1,-1,14,-1,-1,-1],"split_conditions":[9.521933E1,9.782E3,1.4109E2,-7.457811E-2,2.31472E-2,7.52886E-2,-9.5E0,-1.65E1,-7.864505E5,-1.1468183E-2,-8.569049E-2,2.8615002E2,-4.4410206E-2,7.4003935E-2,5.8247955E-3],"split_indices":[5,2,5,0,0,0,3,3,4,0,0,5,0,0,0],"split_type":[0,0,0,0,0,0,0,0,0,0,0,0,0,0,0],"sum_hessian":[9.915786E0,2.298227E0,7.617559E0,1.0935347E0,1.2046925E0,1.4666325E0,6.1509266E0,2.5196366E0,3.6312897E0,1.4379302E0,1.0817064E0,2.562805E0,1.0684848E0,1.5033776E0,1.0594274E0],"tree_param":{"num_deleted":"0","num_feature":"6","num_nodes":"15","size_leaf_vector":"0"}},{"base_weights":[-7.9168575E-3,-5.296147E-2,1.2056377E-1,-1.2909408E-1,6.8840556E-2,2.5585616E-1,-6.884474E-2,5.1116664E-2,-2.1041693E-1,2.2730911E-1,-9.8229356E-2,-3.1814113E-1,-5.0271705E-2],"categories":[],"categories_nodes":[],"categories_segments":[],"categories_sizes":[],"default_left":[1,1,1,1,1,0,0,0,1,0,0,0,0],"id":59,"left_children":[1,3,5,7,9,-1,-1,-1,11,-1,-1,-1,-1],"loss_changes":[6.899659E-2,8.960995E-2,9.740123E-2,9.435802E-2,1.2824248E-1,0E0,0E0,0E0,5.5190027E-2,0E0,0E0,0E0,0E0],"parents":[2147483647,0,0,1,1,2,2,3,3,4,4,8,8],"right_children":[2,4,6,8,10,-1,-1,-1,12,-1,-1,-1,-1],"split_conditions":[8.98615E2,-7.214625E5,-1.1E1,-3.430987E6,-6.14255E4,7.675685E-2,-2.0653423E-2,1.5335E-2,2.1711166E2,6.8192735E-2,-2.9468808E-2,-9.544235E-2,-1.5081512E-2],"split_indices":[0,4,3,4,4,0,0,0,5,0,0,0,0],"split_type":[0,0,0,0,0,0,0,0,0,0,0,0,0],"sum_hessian":[9.818641E0,7.7050714E0,2.1135697E0,4.70459E0,3.0004816E0,1.0282708E0,1.085299E0,1.5783702E0,3.1262195E0,1.3548353E0,1.6456463E0,1.27918E0,1.8470395E0],"tree_param":{"num_deleted":"0","num_feature":"6","num_nodes":"13","size_leaf_vector":"0"}},{"base_weights":[-5.69474E-3,-4.410184E-2,1.0287877E-1,1.0559117E-2,-2.1832299E-1,2.1868376E-1,-5.791906E-2,-1.3618302E-1,8.867224E-2,2.1365586E-1,-9.887122E-2,-4.7830444E-2,3.5941747E-1],"categories":[],"categories_nodes":[],"categories_segments":[],"categories_sizes":[],"default_left":[1,1,1,1,0,0,0,0,1,1,0,0,0],"id":60,"left_children":[1,3,5,7,-1,-1,-1,-1,9,11,-1,-1,-1],"loss_changes":[4.9303632E-2,8.449055E-2,7.049009E-2,9.830737E-2,0E0,0E0,0E0,0E0,1.5039945E-1,1.5539287E-1,0E0,0E0,0E0],"parents":[2147483647,0,0,1,1,2,2,3,3,8,8,9,9],"right_children":[2,4,6,8,-1,-1,-1,-1,10,12,-1,-1,-1],"split_conditions":[8.98615E2,2.7341998E2,-1.1E1,9.521933E1,-6.54969E-2,6.5605134E-2,-1.7375719E-2,-4.085491E-2,-2.89E3,-1.04775E4,-2.9661369E-2,-1.4349134E-2,1.0782524E-1],"split_indices":[0,5,3,5,0,0,0,0,1,1,0,0,0],"split_type":[0,0,0,0,0,0,0,0,0,0,0,0,0],"sum_hessian":[9.735386E0,7.6301E0,2.1052864E0,6.5229506E0,1.1071486E0,1.0145938E0,1.0906924E0,2.0077722E0,4.5151787E0,2.625948E0,1.8892307E0,1.1803463E0,1.4456017E0],"tree_param":{"num_deleted":"0","num_feature":"6","num_nodes":"13","size_leaf_vector":"0"}},{"base_weights":[-3.3454073E-3,1.20732225E-1,-4.1892137E-2,-1.518704E-1,1.8790675E-2,2.558426E-2,-2.4361002E-1,-1.41593E-1,1.3208592E-1,-3.6539476E-2,-1.8653208E-1,2.3432188E-1,1.2879423E-2,1.2678747E-1,-1.02764666E-1],"categories":[],"categories_nodes":[],"categories_segments":[],"categories_sizes":[],"default_left":[1,0,1,1,1,0,0,1,1,0,0,0,1,0,0],"id":61,"left_children":[1,-1,3,5,7,-1,-1,9,11,-1,-1,-1,13,-1,-1],"loss_changes":[5.602597E-2,0E0,6.207077E-2,5.938796E-2,1.3877308E-1,0E0,0E0,8.376993E-3,5.0481416E-2,0E0,0E0,0E0,5.36654E-2,0E0,0E0],"parents":[2147483647,0,0,2,2,3,3,4,4,7,7,8,8,12,12],"right_children":[2,-1,4,6,8,-1,-1,10,12,-1,-1,-1,14,-1,-1],"split_conditions":[5.3849E1,3.6219668E-2,1.7363E2,-3.876E3,-9.5E0,7.6752785E-3,-7.308301E-2,5.02785E4,-1.3016E6,-1.0961844E-2,-5.5959627E-2,7.029656E-2,2.3604333E2,3.8036242E-2,-3.0829402E-2],"split_indices":[5,0,5,1,3,0,0,2,4,0,0,0,5,0,0],"split_type":[0,0,0,0,0,0,0,0,0,0,0,0,0,0,0],"sum_hessian":[9.656598E0,1.783526E0,7.873072E0,2.265148E0,5.6079245E0,1.0177007E0,1.2474473E0,2.2181227E0,3.3898015E0,1.2077861E0,1.0103365E0,1.3049484E0,2.0848532E0,1.0017661E0,1.083087E0],"tree_param":{"num_deleted":"0","num_feature":"6","num_nodes":"15","size_leaf_vector":"0"}},{"base_weights":[-4.117885E-3,9.743668E-2,-3.5845507E-2,1.0431823E-1,-6.958035E-2,-2.5264171E-3,-2.55958E-1,-1.3164976E-1,1.0516569E-1,-2.0173234E-1,-3.007187E-3,2.2135329E-1,-7.304072E-2],"categories":[],"categories_nodes":[],"categories_segments":[],"categories_sizes":[],"default_left":[1,0,1,0,1,1,0,1,1,0,0,0,0],"id":62,"left_children":[1,-1,3,-1,5,7,-1,9,11,-1,-1,-1,-1],"loss_changes":[3.755745E-2,0E0,4.8805162E-2,0E0,9.535766E-2,1.06447935E-1,0E0,3.0699663E-2,1.0286027E-1,0E0,0E0,0E0,0E0],"parents":[2147483647,0,0,2,2,4,4,5,5,7,7,8,8],"right_children":[2,-1,4,-1,6,8,-1,10,12,-1,-1,-1,-1],"split_conditions":[5.3849E1,2.9231006E-2,-1.37333E5,3.129547E-2,1.917955E5,-1.2905565E6,-7.67874E-2,2.65375E2,-1.3055E3,-6.0519703E-2,-9.021562E-4,6.640599E-2,-2.1912215E-2],"split_indices":[5,0,1,0,2,4,0,5,1,0,0,0,0],"split_type":[0,0,0,0,0,0,0,0,0,0,0,0,0],"sum_hessian":[9.572279E0,1.7856594E0,7.78662E0,1.1046494E0,6.6819706E0,5.6594133E0,1.0225573E0,2.472459E0,3.1869543E0,1.2327263E0,1.2397327E0,1.7826068E0,1.4043474E0],"tree_param":{"num_deleted":"0","num_feature":"6","num_nodes":"13","size_leaf_vector":"0"}},{"base_weights":[-6.108492E-3,-4.383754E-2,8.105868E-2,3.1105133E-2,-1.7414454E-1,-8.5107E-2,2.0101012E-1,-1.1273924E-1,1.275831E-1,3.1670716E-2,-2.983521E-1,-7.0880307E-3,2.4282934E-1],"categories":[],"categories_nodes":[],"categories_segments":[],"categories_sizes":[],"default_left":[1,1,1,1,1,0,0,0,1,0,0,0,0],"id":63,"left_children":[1,3,5,7,9,-1,-1,-1,11,-1,-1,-1,-1],"loss_changes":[3.8052663E-2,8.325066E-2,8.726503E-2,9.6381076E-2,8.771821E-2,0E0,0E0,0E0,6.389026E-2,0E0,0E0,0E0,0E0],"parents":[2147483647,0,0,1,1,2,2,3,3,4,4,8,8],"right_children":[2,4,6,8,10,-1,-1,-1,12,-1,-1,-1,-1],"split_conditions":[8.51795E2,2.2454834E2,-7.33005E4,9.521933E1,-3.625E3,-2.55321E-2,6.030304E-2,-3.3821773E-2,-5.665625E5,9.501215E-3,-8.950563E-2,-2.1264092E-3,7.2848804E-2],"split_indices":[0,5,1,5,1,0,0,0,4,0,0,0,0],"split_type":[0,0,0,0,0,0,0,0,0,0,0,0,0],"sum_hessian":[9.490129E0,6.9702463E0,2.5198836E0,4.908528E0,2.0617185E0,1.1782172E0,1.3416663E0,1.9028757E0,3.0056522E0,1.0563449E0,1.0053736E0,1.8187943E0,1.1868578E0],"tree_param":{"num_deleted":"0","num_feature":"6","num_nodes":"13","size_leaf_vector":"0"}},{"base_weights":[-5.2101007E-3,-1.16238356E-1,3.4911525E-2,1.7711067E-1,-2.5049249E-2,-1.7059089E-1,4.2481713E-2,1.8573312E-1,-6.3058205E-2,-1.9161797E-1,1.14445895E-1],"categories":[],"categories_nodes":[],"categories_segments":[],"categories_sizes":[],"default_left":[1,0,1,0,1,0,1,0,1,0,0],"id":64,"left_children":[1,-1,3,-1,5,-1,7,-1,9,-1,-1],"loss_changes":[5.039073E-2,0E0,7.613613E-2,0E0,7.399369E-2,0E0,9.39482E-2,0E0,1.10436E-1,0E0,0E0],"parents":[2147483647,0,0,2,2,4,4,6,6,8,8],"right_children":[2,-1,4,-1,6,-1,8,-1,10,-1,-1],"split_conditions":[2.23755E2,-3.4871507E-2,5.3849E1,5.3133205E-2,2.1711166E2,-5.117727E-2,2.7432166E2,5.5719938E-2,-5.5E0,-5.748539E-2,3.433377E-2],"split_indices":[0,0,5,0,5,0,5,0,3,0,0],"split_type":[0,0,0,0,0,0,0,0,0,0,0],"sum_hessian":[9.401006E0,1.9918433E0,7.4091625E0,1.6180714E0,5.791091E0,1.3517364E0,4.4393544E0,1.56089E0,2.8784647E0,1.6232737E0,1.255191E0],"tree_param":{"num_deleted":"0","num_feature":"6","num_nodes":"11","size_leaf_vector":"0"}},{"base_weights":[-3.7331528E-3,-8.522041E-2,4.5081194E-2,1.14101455E-1,-1.957305E-1,1.4711657E-1,-4.011636E-2,2.0322848E-2,2.1211283E-1,1.1497883E-1,-1.1940817E-1,6.111618E-2,-2.4834041E-1],"categories":[],"categories_nodes":[],"categories_segments":[],"categories_sizes":[],"default_left":[1,1,1,0,0,1,1,0,0,0,1,0,0],"id":65,"left_children":[1,3,5,-1,-1,7,9,-1,-1,-1,11,-1,-1],"loss_changes":[4.4983275E-2,1.15302674E-1,6.781629E-2,0E0,0E0,2.4163246E-2,7.1124285E-2,0E0,0E0,0E0,9.8475486E-2,0E0,0E0],"parents":[2147483647,0,0,1,1,2,2,5,5,6,6,10,10],"right_children":[2,4,6,-1,-1,8,10,-1,-1,-1,12,-1,-1],"split_conditions":[1.85555E4,2.33235E2,5.7373E4,3.4230437E-2,-5.8719154E-2,-1.5095E3,-1.37333E5,6.096855E-3,6.363385E-2,3.449365E-2,2.0124333E2,1.8334854E-2,-7.4502125E-2],"split_indices":[2,0,2,0,0,1,1,0,0,0,5,0,0],"split_type":[0,0,0,0,0,0,0,0,0,0,0,0,0],"sum_hessian":[9.342899E0,3.2206929E0,6.122206E0,1.1371574E0,2.0835354E0,2.455113E0,3.6670933E0,1.2768773E0,1.1782357E0,1.0883003E0,2.578793E0,1.293576E0,1.285217E0],"tree_param":{"num_deleted":"0","num_feature":"6","num_nodes":"13","size_leaf_vector":"0"}},{"base_weights":[-4.3334716E-4,-1.0426015E-1,3.6908325E-2,1.5360524E-1,-3.9720677E-2,-4.0774257E-3,2.3742928E-1,-2.001261E-1,6.2313206E-2,1.5167458E-1,-6.0710516E-2],"categories":[],"categories_nodes":[],"categories_segments":[],"categories_sizes":[],"default_left":[1,0,1,1,1,0,0,0,1,0,0],"id":66,"left_children":[1,-1,3,5,7,-1,-1,-1,9,-1,-1],"loss_changes":[4.359877E-2,0E0,8.013767E-2,4.7059663E-2,1.0726931E-1,0E0,0E0,0E0,5.651111E-2,0E0,0E0],"parents":[2147483647,0,0,2,2,3,3,4,4,8,8],"right_children":[2,-1,4,6,8,-1,-1,-1,10,-1,-1],